{"learner":{"attributes":{},"feature_names":[],"feature_types":[],"gradient_booster":{"model":{"gbtree_model_param":{"num_parallel_tree":"1","num_trees":"300"},"iteration_indptr":[0,3,6,9,12,15,18,21,24,27,30,33,36,39,42,45,48,51,54,57,60,63,66,69,72,75,78,81,84,87,90,93,96,99,102,105,108,111,114,117,120,123,126,129,132,135,138,141,144,147,150,153,156,159,162,165,168,171,174,177,180,183,186,189,192,195,198,201,204,207,210,213,216,219,222,225,228,231,234,237,240,243,246,249,252,255,258,261,264,267,270,273,276,279,282,285,288,291,294,297,300],"tree_info":[0,1,2,0,1,2,0,1,2,0,1,2,0,1,2,0,1,2,0,1,2,0,1,2,0,1,2,0,1,2,0,1,2,0,1,2,0,1,2,0,1,2,0,1,2,0,1,2,0,1,2,0,1,2,0,1,2,0,1,2,0,1,2,0,1,2,0,1,2,0,1,2,0,1,2,0,1,2,0,1,2,0,1,2,0,1,2,0,1,2,0,1,2,0,1,2,0,1,2,0,1,2,0,1,2,0,1,2,0,1,2,0,1,2,0,1,2,0,1,2,0,1,2,0,1,2,0,1,2,0,1,2,0,1,2,0,1,2,0,1,2,0,1,2,0,1,2,0,1,2,0,1,2,0,1,2,0,1,2,0,1,2,0,1,2,0,1,2,0,1,2,0,1,2,0,1,2,0,1,2,0,1,2,0,1,2,0,1,2,0,1,2,0,1,2,0,1,2,0,1,2,0,1,2,0,1,2,0,1,2,0,1,2,0,1,2,0,1,2,0,1,2,0,1,2,0,1,2,0,1,2,0,1,2,0,1,2,0,1,2,0,1,2,0,1,2,0,1,2,0,1,2,0,1,2,0,1,2,0,1,2,0,1,2,0,1,2,0,1,2,0,1,2,0,1,2,0,1,2,0,1,2,0,1,2,0,1,2,0,1,2,0,1,2,0,1,2,0,1,2],"trees":[{"base_weights":[1.5497924E-1,-7.6672584E-2,1.4432905E0,1.0659575E0,-3.424949E-1,8.707168E-1,1.4910362E0,1.2904199E0,7.494958E-1,-4.2466316E-1,4.6977427E-2,1.1969881E0,-4.8241068E-2,1.2814701E0,1.4970225E0,5.2464676E-1,4.21715E-1,1.5086383E-1,3.7062925E-1,7.780223E-2,-1.7633809E-1,-3.1526923E-2,1.9532682E-1,1.670204E-1,4.9040753E-1,-1.6558222E-1,3.883303E-1,5.264824E-1,1.7963645E-1,5.286436E-1,5.392253E-1],"categories":[],"categories_nodes":[],"categories_segments":[],"categories_sizes":[],"default_left":[0,0,0,0,0,0,0,0,0,0,0,0,0,0,0,0,0,0,0,0,0,0,0,0,0,0,0,0,0,0,0],"id":0,"left_children":[1,3,5,7,9,11,13,15,17,19,21,23,25,27,29,-1,-1,-1,-1,-1,-1,-1,-1,-1,-1,-1,-1,-1,-1,-1,-1],"loss_changes":[2.3517231E5,2.02869E5,3.2819219E3,8.953344E3,1.7340566E4,2.7723462E3,1.3715625E2,1.4631484E3,4.8399375E3,1.868411E4,6.2950874E3,8.259697E2,1.1249873E3,4.36229E2,3.4375E-1,0E0,0E0,0E0,0E0,0E0,0E0,0E0,0E0,0E0,0E0,0E0,0E0,0E0,0E0,0E0,0E0],"parents":[2147483647,0,0,1,1,2,2,3,3,4,4,5,5,6,6,7,7,8,8,9,9,10,10,11,11,12,12,13,13,14,14],"right_children":[2,4,6,8,10,12,14,16,18,20,22,24,26,28,30,-1,-1,-1,-1,-1,-1,-1,-1,-1,-1,-1,-1,-1,-1,-1,-1],"split_conditions":[2.2226791E0,-2.9348392E0,3.05896E0,-1.0052927E1,-5.9854096E-1,1.7594093E0,3.4490585E0,-3.0009487E1,-2.7785814E0,-1.0346637E0,2.4929762E0,2.6237776E0,3.7294867E0,2.1443489E0,3.8717918E0,5.2464676E-1,4.21715E-1,1.5086383E-1,3.7062925E-1,7.780223E-2,-1.7633809E-1,-3.1526923E-2,1.9532682E-1,1.670204E-1,4.9040753E-1,-1.6558222E-1,3.883303E-1,5.264824E-1,1.7963645E-1,5.286436E-1,5.392253E-1],"split_indices":[0,0,0,0,2,136,0,0,6,0,127,160,160,103,0,0,0,0,0,0,0,0,0,0,0,0,0,0,0,0,0],"split_type":[0,0,0,0,0,0,0,0,0,0,0,0,0,0,0,0,0,0,0,0,0,0,0,0,0,0,0,0,0,0,0],"sum_hessian":[7.880049E5,6.679088E5,1.2009605E5,1.2605629E5,5.4185256E5,9.245212E3,1.10850836E5,7.374603E4,5.2310258E4,4.4745203E5,9.440051E4,6.8225854E3,2.4226267E3,3.0845596E3,1.0776627E5,3.0685568E4,4.306046E4,2.3996896E4,2.8313361E4,4.1303465E4,4.0614856E5,7.424435E4,2.015616E4,1.2558143E3,5.566771E3,1.7748158E3,6.4781085E2,2.5044355E3,5.80124E2,3.0762822E3,1.0468999E5],"tree_param":{"num_deleted":"0","num_feature":"161","num_nodes":"31","size_leaf_vector":"1"}},{"base_weights":[-6.0388774E-1,-2.553608E-1,-7.24943E-1,-5.4025716E-1,-9.240478E-2,-6.062064E-1,-7.396948E-1,-7.0780015E-1,-4.2028883E-1,-4.8417595E-1,1.5881112E-2,-7.376453E-1,-4.63458E-1,-6.994076E-1,-7.436066E-1,-2.652025E-1,-2.3092306E-1,-9.932051E-2,-1.7586705E-1,-4.0651448E-2,-2.4677478E-1,6.701287E-2,-1.555947E-1,-2.6836818E-1,-2.447453E-1,-1.9569741E-1,-7.7893056E-2,-2.6256812E-1,-1.7183454E-1,-2.6835454E-1,-2.624735E-1],"categories":[],"categories_nodes":[],"categories_segments":[],"categories_sizes":[],"default_left":[0,0,0,0,0,0,0,0,0,0,0,0,0,0,1,0,0,0,0,0,0,0,0,0,0,0,0,0,0,0,0],"id":1,"left_children":[1,3,5,7,9,11,13,15,17,19,21,23,25,27,29,-1,-1,-1,-1,-1,-1,-1,-1,-1,-1,-1,-1,-1,-1,-1,-1],"loss_changes":[3.3239062E4,9.428915E3,1.02375E3,1.4850703E3,5.4810986E3,1.2121836E3,8.146875E1,5.8595703E1,4.2417188E2,2.0909146E3,7.7228105E3,1.4703125E1,6.1342285E2,3.0593164E2,1.2015625E1,0E0,0E0,0E0,0E0,0E0,0E0,0E0,0E0,0E0,0E0,0E0,0E0,0E0,0E0,0E0,0E0],"parents":[2147483647,0,0,1,1,2,2,3,3,4,4,5,5,6,6,7,7,8,8,9,9,10,10,11,11,12,12,13,13,14,14],"right_children":[2,4,6,8,10,12,14,16,18,20,22,24,26,28,30,-1,-1,-1,-1,-1,-1,-1,-1,-1,-1,-1,-1,-1,-1,-1,-1],"split_conditions":[-5.442219E-1,-1.0052927E1,-1.1238861E-1,-3.0009487E1,-1.4728457E-1,1.6228867E-1,9.5516205E-2,-4.1052776E1,1.1026708E0,-1.2982111E0,-5.602512E-1,5.2657366E-2,-2.0596864E0,6.931151E-1,3.7002566E-4,-2.652025E-1,-2.3092306E-1,-9.932051E-2,-1.7586705E-1,-4.0651448E-2,-2.4677478E-1,6.701287E-2,-1.555947E-1,-2.6836818E-1,-2.447453E-1,-1.9569741E-1,-7.7893056E-2,-2.6256812E-1,-1.7183454E-1,-2.6835454E-1,-2.624735E-1],"split_indices":[0,0,0,0,22,24,0,0,31,0,5,24,2,20,130,0,0,0,0,0,0,0,0,0,0,0,0,0,0,0,0],"split_type":[0,0,0,0,0,0,0,0,0,0,0,0,0,0,0,0,0,0,0,0,0,0,0,0,0,0,0,0,0,0,0],"sum_hessian":[7.8782675E5,2.0309744E5,5.847294E5,7.389839E4,1.2919904E5,6.4623156E4,5.201062E5,3.0833152E4,4.306524E4,2.7976922E4,1.0122212E5,3.3642184E4,3.098097E4,4.6047742E4,4.7405844E5,2.147667E4,9.356482E3,1.3820854E4,2.9244387E4,9.837026E3,1.8139896E4,7.335073E4,2.7871393E4,2.9621512E4,4.0206738E3,2.3392236E4,7.588735E3,4.057413E4,5.473614E3,4.2112334E5,5.293509E4],"tree_param":{"num_deleted":"0","num_feature":"161","num_nodes":"31","size_leaf_vector":"1"}},{"base_weights":[4.4866884E-1,-6.241063E-1,7.421533E-1,-7.4839073E-1,-2.9273602E-1,1.0935925E0,-6.7135555E-1,-2.699613E-1,-6.898743E-1,9.58448E-1,-4.6995053E-1,1.2136526E0,7.6504594E-1,-4.5531075E-2,-7.409867E-1,-2.6782256E-1,-1.293676E-1,-1.6177706E-1,5.160393E-1,1.5608476E-1,-2.0700201E-1,2.673155E-1,4.5584974E-1,3.199899E-1,1.3650899E-1,1.735082E-1,-1.7922755E-1,-1.8877514E-1,-2.6897722E-1],"categories":[],"categories_nodes":[],"categories_segments":[],"categories_sizes":[],"default_left":[0,0,0,0,0,0,0,0,0,0,0,0,0,0,0,0,0,0,0,0,0,0,0,0,0,0,0,0,0],"id":2,"left_children":[1,3,5,7,9,11,13,-1,15,17,19,21,23,25,27,-1,-1,-1,-1,-1,-1,-1,-1,-1,-1,-1,-1,-1,-1],"loss_changes":[2.4821552E5,6.9743594E3,3.075105E5,1.03046875E1,1.024291E4,1.9554688E4,5.3713594E3,0E0,5.5036377E1,3.833275E3,3.8410078E3,8.9958125E3,6.3385703E3,2.9451528E3,1.4790625E2,0E0,0E0,0E0,0E0,0E0,0E0,0E0,0E0,0E0,0E0,0E0,0E0,0E0,0E0],"parents":[2147483647,0,0,1,1,2,2,3,3,4,4,5,5,6,6,8,8,9,9,10,10,11,11,12,12,13,13,14,14],"right_children":[2,4,6,8,10,12,14,-1,16,18,20,22,24,26,28,-1,-1,-1,-1,-1,-1,-1,-1,-1,-1,-1,-1,-1,-1],"split_conditions":[-1.0346637E0,-3.146586E0,2.0511284E0,-3.4146729E0,-2.1980171E0,-1.4315566E0,3.05896E0,-2.699613E-1,-8.250902E0,-3.4468722E0,-3.3987373E-1,-4.0708542E-1,2.0767767E0,3.5738616E0,3.4490585E0,-2.6782256E-1,-1.293676E-1,-1.6177706E-1,5.160393E-1,1.5608476E-1,-2.0700201E-1,2.673155E-1,4.5584974E-1,3.199899E-1,1.3650899E-1,1.735082E-1,-1.7922755E-1,-1.8877514E-1,-2.6897722E-1],"split_indices":[0,0,0,0,14,2,0,0,97,34,22,0,127,128,0,0,0,0,0,0,0,0,0,0,0,0,0,0,0],"split_type":[0,0,0,0,0,0,0,0,0,0,0,0,0,0,0,0,0,0,0,0,0,0,0,0,0,0,0,0,0],"sum_hessian":[7.883767E5,1.6934992E5,6.1902675E5,1.2315711E5,4.6192812E4,4.9576534E5,1.2326142E5,1.2006395E5,3.0931587E3,5.730373E3,4.046244E4,3.630823E5,1.3268303E5,1.2341483E4,1.1091994E5,2.657162E3,4.3599646E2,1.4456595E3,4.2847134E3,4.21432E3,3.624812E4,3.6466438E4,3.2661588E5,1.0044912E5,3.223392E4,5.697272E3,6.644211E3,3.0754263E3,1.0784451E5],"tree_param":{"num_deleted":"0","num_feature":"161","num_nodes":"29","size_leaf_vector":"1"}},{"base_weights":[1.1989534E-1,-5.331409E-2,8.9503914E-1,5.961877E-1,-3.0492768E-1,5.500811E-1,9.396091E-1,8.001399E-1,3.6512133E-1,-3.8461885E-1,2.1297567E-2,3.1215778E-1,1.0414923E0,8.032383E-1,9.43469E-1,3.2734776E-1,2.6097623E-1,-3.114324E-2,2.0617363E-1,-2.9570406E-2,-1.5226251E-1,3.682677E-1,-7.4452553E-3,3.4234092E-1,8.212318E-3,4.4594744E-1,3.4103784E-1,3.381678E-1,7.9697184E-2,3.2095483E-1,3.397625E-1],"categories":[],"categories_nodes":[],"categories_segments":[],"categories_sizes":[],"default_left":[0,0,0,0,0,0,0,0,0,0,0,0,0,0,0,0,0,0,0,0,0,0,0,0,0,0,0,0,0,0,0],"id":3,"left_children":[1,3,5,7,9,11,13,15,17,19,21,23,25,27,29,-1,-1,-1,-1,-1,-1,-1,-1,-1,-1,-1,-1,-1,-1,-1,-1],"loss_changes":[1.0312857E5,1.0260133E5,2.156414E3,8.261184E3,1.1764309E4,1.8767319E3,6.463281E1,7.637617E2,7.705498E3,4.216758E3,3.73571E3,1.9995908E3,9.609619E1,2.7116064E2,1.1484375E0,0E0,0E0,0E0,0E0,0E0,0E0,0E0,0E0,0E0,0E0,0E0,0E0,0E0,0E0,0E0,0E0],"parents":[2147483647,0,0,1,1,2,2,3,3,4,4,5,5,6,6,7,7,8,8,9,9,10,10,11,11,12,12,13,13,14,14],"right_children":[2,4,6,8,10,12,14,16,18,20,22,24,26,28,30,-1,-1,-1,-1,-1,-1,-1,-1,-1,-1,-1,-1,-1,-1,-1,-1],"split_conditions":[1.9371452E0,-1.2982111E0,3.05896E0,-8.082287E0,-5.9854096E-1,3.5617733E0,3.4490585E0,-2.7641981E1,-1.2134796E0,-5.130825E-1,-3.8376427E-1,7.8810227E-1,2.2226791E0,2.1644402E0,-5.996621E1,3.2734776E-1,2.6097623E-1,-3.114324E-2,2.0617363E-1,-2.9570406E-2,-1.5226251E-1,3.682677E-1,-7.4452553E-3,3.4234092E-1,8.212318E-3,4.4594744E-1,3.4103784E-1,3.381678E-1,7.9697184E-2,3.2095483E-1,3.397625E-1],"split_indices":[0,0,0,0,2,159,0,0,10,0,0,150,0,135,133,0,0,0,0,0,0,0,0,0,0,0,0,0,0,0,0],"split_type":[0,0,0,0,0,0,0,0,0,0,0,0,0,0,0,0,0,0,0,0,0,0,0,0,0,0,0,0,0,0,0],"sum_hessian":[7.6811175E5,6.278228E5,1.4028894E5,1.7530319E5,4.525196E5,1.6053451E4,1.2423549E5,9.311351E4,8.218969E4,3.6367897E5,8.8840625E4,1.0817602E4,5.23585E3,3.4253533E3,1.2081014E5,3.7978152E4,5.513535E4,2.5881324E4,5.6308363E4,4.090492E4,3.2277403E5,3.5725146E3,8.526811E4,3.371671E3,7.44593E3,1.6879313E3,3.547919E3,2.775462E3,6.498915E2,7.4714636E2,1.2006299E5],"tree_param":{"num_deleted":"0","num_feature":"161","num_nodes":"31","size_leaf_vector":"1"}},{"base_weights":[-5.067206E-1,-1.9077313E-1,-6.3259757E-1,-4.7458622E-1,-8.3547756E-2,-5.2029186E-1,-6.4871246E-1,-6.0544497E-1,-3.5397834E-1,-1.481771E-2,-4.5532894E-1,-6.3433754E-1,-3.612545E-1,-6.1674964E-1,-6.5288746E-1,-2.3004714E-1,-1.9017197E-1,-7.5282976E-2,-1.508604E-1,-1.4954185E-1,3.380079E-2,-1.1363987E-1,-1.9702482E-1,-2.367731E-1,-1.9034831E-1,-1.587308E-1,-4.183186E-2,-2.3109327E-1,-1.4876525E-1,-2.3573694E-1,-2.2993933E-1],"categories":[],"categories_nodes":[],"categories_segments":[],"categories_sizes":[],"default_left":[0,0,0,0,0,0,0,0,0,0,0,0,1,0,0,0,0,0,0,0,0,0,0,0,0,0,0,0,0,0,0],"id":4,"left_children":[1,3,5,7,9,11,13,15,17,19,21,23,25,27,29,-1,-1,-1,-1,-1,-1,-1,-1,-1,-1,-1,-1,-1,-1,-1,-1],"loss_changes":[2.6830156E4,5.8491294E3,8.727344E2,8.3158496E2,3.5646274E3,1.0978555E3,5.5890625E1,6.5168945E1,2.584851E2,5.12706E3,2.7937744E2,8.663965E1,4.935874E2,2.495586E2,9.828125E0,0E0,0E0,0E0,0E0,0E0,0E0,0E0,0E0,0E0,0E0,0E0,0E0,0E0,0E0,0E0,0E0],"parents":[2147483647,0,0,1,1,2,2,3,3,4,4,5,5,6,6,7,7,8,8,9,9,10,10,11,11,12,12,13,13,14,14],"right_children":[2,4,6,8,10,12,14,16,18,20,22,24,26,28,30,-1,-1,-1,-1,-1,-1,-1,-1,-1,-1,-1,-1,-1,-1,-1,-1],"split_conditions":[-5.130825E-1,-1.367765E1,-6.565857E-2,-3.0009487E1,-4.9548587E-1,2.0934203E-1,1.7153549E-1,-4.1052776E1,1.1002955E0,-1.9832335E-1,-4.7074595E-1,1.2921183E-1,-2.0780602E0,7.087341E-1,6.7949295E-5,-2.3004714E-1,-1.9017197E-1,-7.5282976E-2,-1.508604E-1,-1.4954185E-1,3.380079E-2,-1.1363987E-1,-1.9702482E-1,-2.367731E-1,-1.9034831E-1,-1.587308E-1,-4.183186E-2,-2.3109327E-1,-1.4876525E-1,-2.3573694E-1,-2.2993933E-1],"split_indices":[0,0,0,0,4,22,0,0,63,22,3,24,34,20,66,0,0,0,0,0,0,0,0,0,0,0,0,0,0,0,0],"split_type":[0,0,0,0,0,0,0,0,0,0,0,0,0,0,0,0,0,0,0,0,0,0,0,0,0,0,0,0,0,0,0],"sum_hessian":[6.7462706E5,1.922038E5,4.8242328E5,5.2702637E4,1.3950116E5,6.054113E4,4.2188216E5,2.5275193E4,2.7427443E4,1.1773659E5,2.1764564E4,3.525604E4,2.528509E4,4.875759E4,3.7312456E5,1.7608719E4,7.666476E3,8.503522E3,1.8923922E4,2.5130709E4,9.260589E4,8.642964E3,1.3121601E4,2.8863812E4,6.392225E3,1.9081217E4,6.203872E3,4.3388E4,5.3695903E3,3.281991E5,4.4925457E4],"tree_param":{"num_deleted":"0","num_feature":"161","num_nodes":"31","size_leaf_vector":"1"}},{"base_weights":[3.1217644E-1,3.4022555E-1,-3.292063E-1,3.9540806E-1,4.796761E-2,-5.176933E-1,-1.6786797E-1,2.4668057E-1,4.4456545E-1,4.342249E-1,6.077195E-3,-1.3847353E-1,-5.7208556E-1,8.558659E-2,-5.6027776E-1,1.1055314E-1,3.05961E-2,1.6435297E-1,5.0388355E-2,2.493505E-2,2.3062968E-1,2.4121566E-2,-1.1971891E-1,1.7672159E-2,-2.4195825E-1,5.727032E-2,-2.1028838E-1,-6.9896415E-2,8.070745E-2,-9.69853E-2,-2.2357044E-1],"categories":[],"categories_nodes":[],"categories_segments":[],"categories_sizes":[],"default_left":[1,1,0,0,0,0,0,0,1,0,0,0,0,0,0,0,0,0,0,0,0,0,0,0,0,0,0,0,0,0,0],"id":5,"left_children":[1,3,5,7,9,11,13,15,17,19,21,23,25,27,29,-1,-1,-1,-1,-1,-1,-1,-1,-1,-1,-1,-1,-1,-1,-1,-1],"loss_changes":[1.4399891E4,1.2367961E4,1.01981323E3,4.7161484E3,1.9708191E3,3.1895703E2,1.7974468E3,1.5653008E3,1.76775E3,8.9771533E2,2.2671658E3,1.9435959E2,1.19259766E2,4.2580136E2,1.2515576E2,0E0,0E0,0E0,0E0,0E0,0E0,0E0,0E0,0E0,0E0,0E0,0E0,0E0,0E0,0E0,0E0],"parents":[2147483647,0,0,1,1,2,2,3,3,4,4,5,5,6,6,7,7,8,8,9,9,10,10,11,11,12,12,13,13,14,14],"right_children":[2,4,6,8,10,12,14,16,18,20,22,24,26,28,30,-1,-1,-1,-1,-1,-1,-1,-1,-1,-1,-1,-1,-1,-1,-1,-1],"split_conditions":[-5.420137E-1,2.0712445E0,6.281473E-1,-5.1849106E1,3.6455913E0,-5.545676E-1,2.3702455E0,7.190333E-1,2.0691442E0,4.9482873E-1,1.6658114E0,2.7077442E-1,-3.356654E0,4.8382515E-1,2.0504634E-1,1.1055314E-1,3.05961E-2,1.6435297E-1,5.0388355E-2,2.493505E-2,2.3062968E-1,2.4121566E-2,-1.1971891E-1,1.7672159E-2,-2.4195825E-1,5.727032E-2,-2.1028838E-1,-6.9896415E-2,8.070745E-2,-9.69853E-2,-2.2357044E-1],"split_indices":[97,157,30,97,160,65,29,21,125,8,18,8,33,24,2,0,0,0,0,0,0,0,0,0,0,0,0,0,0,0,0],"split_type":[0,0,0,0,0,0,0,0,0,0,0,0,0,0,0,0,0,0,0,0,0,0,0,0,0,0,0,0,0,0,0],"sum_hessian":[8.004222E5,7.6688506E5,3.353713E4,6.450836E5,1.2180144E5,1.5466199E4,1.807093E4,1.6024934E5,4.8483425E5,1.1916262E4,1.0988518E5,1.9405249E3,1.3525674E4,1.0979885E4,7.0910444E3,1.1666125E5,4.3588098E4,4.665005E5,1.8333752E4,4.3053203E3,7.610941E3,9.312982E4,1.675536E4,1.4365204E3,5.0400458E2,2.190751E2,1.3306599E4,3.6375916E3,7.3422935E3,1.2260774E3,5.8649673E3],"tree_param":{"num_deleted":"0","num_feature":"161","num_nodes":"31","size_leaf_vector":"1"}},{"base_weights":[1.0356571E-1,-3.856099E-2,7.310772E-1,4.9884552E-1,-2.658188E-1,4.1629007E-1,7.822428E-1,6.5307355E-1,2.926714E-1,-3.810496E-1,-7.008901E-2,2.228577E-1,8.544603E-1,7.8969276E-1,7.001886E-1,2.628993E-1,2.0174687E-1,2.1037214E-2,2.2818096E-1,-1.5068889E-1,-4.7941223E-2,3.0064622E-1,-3.59183E-2,2.7788603E-1,-1.6764719E-3,3.359745E-1,2.6227018E-1,2.8655377E-1,2.725144E-1,-2.1478453E-1,2.7046505E-1],"categories":[],"categories_nodes":[],"categories_segments":[],"categories_sizes":[],"default_left":[0,0,0,0,0,0,0,0,0,0,0,0,0,0,0,0,0,0,0,0,0,0,0,0,0,0,0,0,0,0,0],"id":6,"left_children":[1,3,5,7,9,11,13,15,17,19,21,23,25,27,29,-1,-1,-1,-1,-1,-1,-1,-1,-1,-1,-1,-1,-1,-1,-1,-1],"loss_changes":[6.4927406E4,7.24918E4,2.164961E3,5.6091562E3,9.408566E3,1.5930964E3,7.0140625E1,7.2154297E2,6.032731E3,2.4426758E3,4.153846E3,1.6292451E3,5.644922E1,2.1210938E1,6.389219E2,0E0,0E0,0E0,0E0,0E0,0E0,0E0,0E0,0E0,0E0,0E0,0E0,0E0,0E0,0E0,0E0],"parents":[2147483647,0,0,1,1,2,2,3,3,4,4,5,5,6,6,7,7,8,8,9,9,10,10,11,11,12,12,13,13,14,14],"right_children":[2,4,6,8,10,12,14,16,18,20,22,24,26,28,30,-1,-1,-1,-1,-1,-1,-1,-1,-1,-1,-1,-1,-1,-1,-1,-1],"split_conditions":[1.8520546E0,-1.1971359E0,3.05896E0,-6.60585E0,-8.462417E-1,3.5453243E0,2.1239495E0,-3.7181046E1,-1.0883157E0,5.884755E-1,-6.1242676E-1,6.7329454E-1,6.5052485E-1,-5.420137E-1,3.728254E0,2.628993E-1,2.0174687E-1,2.1037214E-2,2.2818096E-1,-1.5068889E-1,-4.7941223E-2,3.0064622E-1,-3.59183E-2,2.7788603E-1,-1.6764719E-3,3.359745E-1,2.6227018E-1,2.8655377E-1,2.725144E-1,-2.1478453E-1,2.7046505E-1],"split_indices":[0,0,0,0,3,127,7,1,6,13,0,51,105,97,32,0,0,0,0,0,0,0,0,0,0,0,0,0,0,0,0],"split_type":[0,0,0,0,0,0,0,0,0,0,0,0,0,0,0,0,0,0,0,0,0,0,0,0,0,0,0,0,0,0,0],"sum_hessian":[7.2799756E5,5.9356125E5,1.3443628E5,1.7640572E5,4.1715553E5,1.879745E4,1.15638836E5,1.0091463E5,7.5491086E4,2.625721E5,1.5458344E5,1.3041656E4,5.755794E3,1.0600558E5,9.633257E3,5.504674E4,4.5867895E4,4.4760715E4,3.0730371E4,2.2804406E5,3.4528043E4,4.907315E3,1.4967612E5,3.820198E3,9.221458E3,3.536445E3,2.2193489E3,8.888877E4,1.7116803E4,3.6481836E2,9.268438E3],"tree_param":{"num_deleted":"0","num_feature":"161","num_nodes":"31","size_leaf_vector":"1"}},{"base_weights":[-4.3884033E-1,-8.751307E-2,-5.82357E-1,-4.2303646E-1,-5.616488E-3,-4.3389848E-1,-6.006356E-1,-5.4700154E-1,-2.8773794E-1,5.748665E-2,-3.295495E-1,-6.110695E-1,-2.61738E-1,-5.47401E-1,-6.0645753E-1,-2.0533533E-1,-1.51465E-1,-4.82271E-2,-1.2652639E-1,-1.1444838E-1,5.093065E-2,-5.0233312E-2,-1.6125394E-1,-2.2295466E-1,-1.903669E-1,-1.294795E-1,6.226344E-3,-2.1250604E-1,-9.6744835E-2,-2.1989188E-1,-2.1364954E-1],"categories":[],"categories_nodes":[],"categories_segments":[],"categories_sizes":[],"default_left":[0,0,0,0,0,0,0,0,0,0,0,0,0,0,0,0,0,0,0,0,0,0,0,0,0,0,0,0,0,0,0],"id":7,"left_children":[1,3,5,7,9,11,13,15,17,19,21,23,25,27,29,-1,-1,-1,-1,-1,-1,-1,-1,-1,-1,-1,-1,-1,-1,-1,-1],"loss_changes":[2.9011688E4,4.585481E3,1.1082812E3,5.4898096E2,2.7419438E3,1.3659121E3,1.12390625E2,5.0184082E1,1.5337646E2,3.5397192E3,4.9186987E2,1.4651367E1,6.207263E2,4.2856152E2,1.8179688E1,0E0,0E0,0E0,0E0,0E0,0E0,0E0,0E0,0E0,0E0,0E0,0E0,0E0,0E0,0E0,0E0],"parents":[2147483647,0,0,1,1,2,2,3,3,4,4,5,5,6,6,7,7,8,8,9,9,10,10,11,11,12,12,13,13,14,14],"right_children":[2,4,6,8,10,12,14,16,18,20,22,24,26,28,30,-1,-1,-1,-1,-1,-1,-1,-1,-1,-1,-1,-1,-1,-1,-1,-1],"split_conditions":[-5.775223E-1,-1.8602894E1,-1.5966415E-1,-3.301705E1,-4.9811736E-1,1.4079721E-1,7.198095E-2,-2.1155472E0,1.1005787E0,-2.7986878E-1,-6.2725765E-1,5.2657366E-2,-2.0842965E0,7.391844E-1,-5.9854096E-1,-2.0533533E-1,-1.51465E-1,-4.82271E-2,-1.2652639E-1,-1.1444838E-1,5.093065E-2,-5.0233312E-2,-1.6125394E-1,-2.2295466E-1,-1.903669E-1,-1.294795E-1,6.226344E-3,-2.1250604E-1,-9.6744835E-2,-2.1989188E-1,-2.1364954E-1],"split_indices":[0,0,0,0,68,24,0,4,95,21,35,24,66,21,2,0,0,0,0,0,0,0,0,0,0,0,0,0,0,0,0],"split_type":[0,0,0,0,0,0,0,0,0,0,0,0,0,0,0,0,0,0,0,0,0,0,0,0,0,0,0,0,0,0,0],"sum_hessian":[5.753851E5,1.6687603E5,4.0850906E5,3.2739775E4,1.3413627E5,4.4785535E4,3.6372353E5,1.708389E4,1.5655886E4,1.1226711E5,2.1869152E4,2.2070328E4,2.2715207E4,3.5866266E4,3.2785728E5,1.4412352E4,2.6715393E3,4.58789E3,1.1067995E4,2.0524748E4,9.174236E4,8.3954795E3,1.3473673E4,2.005318E4,2.0171486E3,1.6814012E4,5.901195E3,3.108101E4,4.785256E3,2.455129E5,8.234436E4],"tree_param":{"num_deleted":"0","num_feature":"161","num_nodes":"31","size_leaf_vector":"1"}},{"base_weights":[2.2518858E-1,-5.543445E-1,3.9760342E-1,-6.167718E-1,-1.0482913E-1,5.525167E-1,-5.8963144E-1,-6.375291E-1,-2.633812E-1,9.654299E-1,-5.1790476E-1,6.532132E-1,3.9469472E-1,-2.1997803E-1,-6.2759346E-1,-2.3402642E-1,-1.4876813E-1,2.0095943E-1,-1.9420929E-1,-2.2708625E-1,3.673166E-1,-1.4607199E-2,-2.2943293E-1,1.5819217E-1,2.4722826E-1,-1.0748644E-1,1.589963E-1,-1.9613472E-1,1.904944E-1,-2.2720444E-1,-2.0965645E-1],"categories":[],"categories_nodes":[],"categories_segments":[],"categories_sizes":[],"default_left":[0,0,0,0,0,0,0,1,0,0,0,0,0,0,0,0,0,0,0,0,0,0,0,0,0,0,0,0,0,0,0],"id":8,"left_children":[1,3,5,7,9,11,13,15,17,19,21,23,25,27,29,-1,-1,-1,-1,-1,-1,-1,-1,-1,-1,-1,-1,-1,-1,-1,-1],"loss_changes":[1.05677055E5,3.9961875E3,9.846975E4,9.170703E2,7.6782754E3,8.844234E3,1.2253398E3,3.3201953E2,1.574285E3,4.2444092E2,7.142136E2,2.4353438E3,7.05784E3,1.9798503E3,1.2269531E1,0E0,0E0,0E0,0E0,0E0,0E0,0E0,0E0,0E0,0E0,0E0,0E0,0E0,0E0,0E0,0E0],"parents":[2147483647,0,0,1,1,2,2,3,3,4,4,5,5,6,6,7,7,8,8,9,9,10,10,11,11,12,12,13,13,14,14],"right_children":[2,4,6,8,10,12,14,16,18,20,22,24,26,28,30,-1,-1,-1,-1,-1,-1,-1,-1,-1,-1,-1,-1,-1,-1,-1,-1],"split_conditions":[-1.1090508E0,-9.013943E0,2.460003E0,-1.4129777E0,-2.2705853E0,-3.995782E0,3.4490585E0,-8.8785925E0,-1.60779E-1,-3.4146729E0,-2.422849E0,-2.9922676E-1,-5.775223E-1,1.9187288E0,2.1239495E0,-2.3402642E-1,-1.4876813E-1,2.0095943E-1,-1.9420929E-1,-2.2708625E-1,3.673166E-1,-1.4607199E-2,-2.2943293E-1,1.5819217E-1,2.4722826E-1,-1.0748644E-1,1.589963E-1,-1.9613472E-1,1.904944E-1,-2.2720444E-1,-2.0965645E-1],"split_indices":[0,1,0,0,11,2,0,65,22,0,3,0,0,105,7,0,0,0,0,0,0,0,0,0,0,0,0,0,0,0,0],"split_type":[0,0,0,0,0,0,0,0,0,0,0,0,0,0,0,0,0,0,0,0,0,0,0,0,0,0,0,0,0,0,0],"sum_hessian":[7.86267E5,1.4240667E5,6.438604E5,1.2504098E5,1.7365686E4,5.565319E5,8.732849E4,1.1810309E5,6.9378843E3,4.835584E3,1.2530101E4,3.3975306E5,2.167788E5,8.133711E3,7.919478E4,1.1184563E5,6.257464E3,1.744746E3,5.193138E3,1.6041772E2,4.675166E3,2.5075747E3,1.0022526E4,4.6065598E4,2.9368747E5,1.3752539E4,2.0302625E5,5.67372E3,2.4599907E3,7.3447664E4,5.7471206E3],"tree_param":{"num_deleted":"0","num_feature":"161","num_nodes":"31","size_leaf_vector":"1"}},{"base_weights":[9.2348516E-2,-1.7888796E-2,6.1741537E-1,3.8742548E-1,-1.8573126E-1,3.547881E-1,6.6727626E-1,5.3254694E-1,2.4199621E-1,-2.6191103E-1,6.641193E-2,1.9518876E-1,7.524542E-1,5.356669E-1,6.713197E-1,2.3695992E-1,1.7091821E-1,-3.3836827E-2,1.3310765E-1,9.1613905E-4,-1.06767535E-1,-4.238991E-2,9.567741E-2,2.2352278E-1,9.302595E-4,2.9756054E-1,2.3353142E-1,4.545169E-2,2.4332614E-1,2.4283335E-1,2.339734E-1],"categories":[],"categories_nodes":[],"categories_segments":[],"categories_sizes":[],"default_left":[0,0,0,0,0,0,0,0,0,0,0,0,0,0,0,0,0,0,0,0,0,0,0,0,0,0,0,0,0,0,0],"id":9,"left_children":[1,3,5,7,9,11,13,15,17,19,21,23,25,27,29,-1,-1,-1,-1,-1,-1,-1,-1,-1,-1,-1,-1,-1,-1,-1,-1],"loss_changes":[3.797562E4,3.6888406E4,1.4905273E3,3.351129E3,7.365504E3,1.1528706E3,5.0558594E1,5.767637E2,3.4042642E3,2.69967E3,3.2665955E3,1.0630796E3,3.9464844E1,1.6394214E2,5.9492188E0,0E0,0E0,0E0,0E0,0E0,0E0,0E0,0E0,0E0,0E0,0E0,0E0,0E0,0E0,0E0,0E0],"parents":[2147483647,0,0,1,1,2,2,3,3,4,4,5,5,6,6,7,7,8,8,9,9,10,10,11,11,12,12,13,13,14,14],"right_children":[2,4,6,8,10,12,14,16,18,20,22,24,26,28,30,-1,-1,-1,-1,-1,-1,-1,-1,-1,-1,-1,-1,-1,-1,-1,-1],"split_conditions":[1.8520546E0,-1.541069E0,3.05896E0,-8.663368E0,-9.013943E0,3.5814736E0,3.4490585E0,-3.301705E1,-1.5469507E0,-5.442219E-1,1.8374861E0,6.5839106E-1,5.3286034E-1,3.693914E0,2.602785E0,2.3695992E-1,1.7091821E-1,-3.3836827E-2,1.3310765E-1,9.1613905E-4,-1.06767535E-1,-4.238991E-2,9.567741E-2,2.2352278E-1,9.302595E-4,2.9756054E-1,2.3353142E-1,4.545169E-2,2.4332614E-1,2.4283335E-1,2.339734E-1],"split_indices":[0,0,0,0,1,63,0,0,10,0,160,114,105,96,18,0,0,0,0,0,0,0,0,0,0,0,0,0,0,0,0],"split_type":[0,0,0,0,0,0,0,0,0,0,0,0,0,0,0,0,0,0,0,0,0,0,0,0,0,0,0,0,0,0,0],"sum_hessian":[6.560862E5,5.422436E5,1.13842586E5,1.5878952E5,3.8345406E5,1.8166127E4,9.567646E4,7.947753E4,7.931199E4,2.9448238E5,8.897172E4,1.2964461E4,5.2016665E3,2.8558467E3,9.282062E4,2.5026797E4,5.4450734E4,2.1848533E4,5.7463457E4,3.412793E4,2.6035444E5,4.6248824E4,4.2722895E4,4.0377449E3,8.926717E3,3.0303867E3,2.1712798E3,7.291309E2,2.1267158E3,8.065991E4,1.2160709E4],"tree_param":{"num_deleted":"0","num_feature":"161","num_nodes":"31","size_leaf_vector":"1"}},{"base_weights":[-3.8116744E-1,-6.5117225E-2,-5.444924E-1,-4.8206648E-1,-2.3449512E-2,-4.1582695E-1,-5.6649226E-1,-5.3874624E-1,-3.594154E-1,-3.268366E-1,2.3914538E-2,-5.551137E-1,-2.566513E-1,-5.305407E-1,-5.712532E-1,-2.025664E-1,-1.726015E-1,-5.6454707E-2,-1.5640573E-1,1.9259337E-2,-2.0613578E-1,2.657906E-2,-1.321523E-1,-2.0973185E-1,-1.633021E-1,2.6589765E-3,-1.2287482E-1,-2.0298165E-1,-1.1401041E-1,-2.0681742E-1,-1.9731908E-1],"categories":[],"categories_nodes":[],"categories_segments":[],"categories_sizes":[],"default_left":[0,0,0,0,0,0,0,0,0,0,0,0,0,0,0,0,0,0,0,0,0,0,0,0,0,0,0,0,0,0,0],"id":10,"left_children":[1,3,5,7,9,11,13,15,17,19,21,23,25,27,29,-1,-1,-1,-1,-1,-1,-1,-1,-1,-1,-1,-1,-1,-1,-1,-1],"loss_changes":[2.4916352E4,2.8571792E3,9.0058594E2,1.0367993E2,2.1485227E3,1.030208E3,4.6203125E1,1.4233398E1,7.177881E1,1.8872646E3,2.524184E3,6.884912E1,4.848877E2,2.2621387E2,1.76875E1,0E0,0E0,0E0,0E0,0E0,0E0,0E0,0E0,0E0,0E0,0E0,0E0,0E0,0E0,0E0,0E0],"parents":[2147483647,0,0,1,1,2,2,3,3,4,4,5,5,6,6,7,7,8,8,9,9,10,10,11,11,12,12,13,13,14,14],"right_children":[2,4,6,8,10,12,14,16,18,20,22,24,26,28,30,-1,-1,-1,-1,-1,-1,-1,-1,-1,-1,-1,-1,-1,-1,-1,-1],"split_conditions":[-4.8382378E-1,-3.0009487E1,-3.5305023E-2,-4.1052776E1,-2.7464944E-1,2.4288853E-1,1.8176651E-1,-5.134943E1,5.9995337E0,-1.1971359E0,-4.993744E-1,1.4139012E-1,-5.431792E1,6.3811594E-1,4.8228714E-4,-2.025664E-1,-1.726015E-1,-5.6454707E-2,-1.5640573E-1,1.9259337E-2,-2.0613578E-1,2.657906E-2,-1.321523E-1,-2.0973185E-1,-1.633021E-1,2.6589765E-3,-1.2287482E-1,-2.0298165E-1,-1.1401041E-1,-2.0681742E-1,-1.9731908E-1],"split_indices":[0,0,0,0,22,23,0,0,128,0,67,152,97,19,66,0,0,0,0,0,0,0,0,0,0,0,0,0,0,0,0],"split_type":[0,0,0,0,0,0,0,0,0,0,0,0,0,0,0,0,0,0,0,0,0,0,0,0,0,0,0,0,0,0,0],"sum_hessian":[4.826979E5,1.6445748E5,3.182404E5,1.4940851E4,1.4951664E5,4.6471805E4,2.7176862E5,1.0216286E4,4.724564E3,2.0189342E4,1.293273E5,2.4782969E4,2.1688836E4,3.17937E4,2.3997492E5,7.2720874E3,2.944199E3,1.2778567E3,3.4467073E3,7.925252E3,1.2264089E4,1.14687E5,1.4640299E4,1.9499727E4,5.283241E3,5.2663984E3,1.642244E4,2.750876E4,4.2849395E3,2.1048825E5,2.9486662E4],"tree_param":{"num_deleted":"0","num_feature":"161","num_nodes":"31","size_leaf_vector":"1"}},{"base_weights":[1.737631E-1,-4.7389045E-1,3.1290862E-1,-3.1451896E-2,-5.521807E-1,4.2634958E-1,-5.152778E-1,-6.058625E-1,3.508589E-1,-6.0937655E-1,-4.2251983E-1,4.8356408E-1,2.0541306E-1,-1.2777989E-1,-5.805436E-1,-2.1980773E-1,-1.6605754E-1,1.7434753E-1,-9.01829E-2,-2.1666351E-1,-2.227977E-1,9.112724E-2,-1.7564543E-1,1.0092354E-1,1.8411928E-1,-1.0355164E-1,9.300305E-2,-1.3849759E-1,1.5097965E-1,-2.1020514E-1,-1.9347094E-1],"categories":[],"categories_nodes":[],"categories_segments":[],"categories_sizes":[],"default_left":[0,0,0,0,0,0,0,0,0,0,0,0,0,1,0,0,0,0,0,0,0,0,0,0,0,0,0,0,0,0,0],"id":11,"left_children":[1,3,5,7,9,11,13,15,17,19,21,23,25,27,29,-1,-1,-1,-1,-1,-1,-1,-1,-1,-1,-1,-1,-1,-1,-1,-1],"loss_changes":[6.3704945E4,4.330381E3,5.4668777E4,4.1280884E3,7.8747656E2,6.4692812E3,1.7728438E3,4.8391113E0,9.057997E2,4.904297E0,1.4366113E3,2.3029531E3,2.747397E3,1.4210079E3,8.380859E0,0E0,0E0,0E0,0E0,0E0,0E0,0E0,0E0,0E0,0E0,0E0,0E0,0E0,0E0,0E0,0E0],"parents":[2147483647,0,0,1,1,2,2,3,3,4,4,5,5,6,6,7,7,8,8,9,9,10,10,11,11,12,12,13,13,14,14],"right_children":[2,4,6,8,10,12,14,16,18,20,22,24,26,28,30,-1,-1,-1,-1,-1,-1,-1,-1,-1,-1,-1,-1,-1,-1,-1,-1],"split_conditions":[-9.714489E-1,-5.194003E-1,2.2226791E0,-3.146586E0,-3.146586E0,-9.0467205E0,3.4490585E0,-3.4146729E0,3.751809E-1,-1.0052927E1,-2.2111175E0,-3.3940887E-1,-3.8376427E-1,1.8917435E0,2.1239495E0,-2.1980773E-1,-1.6605754E-1,1.7434753E-1,-9.01829E-2,-2.1666351E-1,-2.227977E-1,9.112724E-2,-1.7564543E-1,1.0092354E-1,1.8411928E-1,-1.0355164E-1,9.300305E-2,-1.3849759E-1,1.5097965E-1,-2.1020514E-1,-1.9347094E-1],"split_indices":[0,18,0,0,0,33,0,0,25,0,12,0,0,73,7,0,0,0,0,0,0,0,0,0,0,0,0,0,0,0,0],"split_type":[0,0,0,0,0,0,0,0,0,0,0,0,0,0,0,0,0,0,0,0,0,0,0,0,0,0,0,0,0,0,0],"sum_hessian":[7.0690256E5,1.2501539E5,5.818872E5,1.8795959E4,1.0621943E5,5.1178575E5,7.010145E4,7.510728E3,1.128523E4,7.370366E4,3.2515775E4,4.0651266E5,1.0527309E5,1.0105536E4,5.9995918E4,7.270447E3,2.4028117E2,9.236009E3,2.0492214E3,4.115347E4,3.2550186E4,2.868726E3,2.9647049E4,4.904044E4,3.5747222E5,1.0204922E4,9.506817E4,6.87671E3,3.228826E3,5.5648164E4,4.3477544E3],"tree_param":{"num_deleted":"0","num_feature":"161","num_nodes":"31","size_leaf_vector":"1"}},{"base_weights":[8.606827E-2,-4.480707E-4,5.406215E-1,3.5625038E-1,-1.0980975E-1,3.2191738E-1,6.07124E-1,5.06647E-1,2.7824023E-1,-2.187578E-1,5.2124053E-2,1.58966E-1,6.8557036E-1,6.0934263E-1,5.798445E-1,2.1720518E-1,1.6028407E-1,8.3885305E-2,1.9859244E-1,-1.618272E-2,-1.0591087E-1,2.5492424E-1,-5.6092334E-3,2.0901209E-1,-5.383553E-3,2.988566E-1,2.1915595E-1,2.1390694E-1,2.2027098E-1,-7.595117E-2,2.1138152E-1],"categories":[],"categories_nodes":[],"categories_segments":[],"categories_sizes":[],"default_left":[0,0,0,0,0,0,0,0,0,0,0,0,0,0,0,0,0,0,0,0,0,0,0,0,0,0,0,0,0,0,0],"id":12,"left_children":[1,3,5,7,9,11,13,15,17,19,21,23,25,27,29,-1,-1,-1,-1,-1,-1,-1,-1,-1,-1,-1,-1,-1,-1,-1,-1],"loss_changes":[2.309848E4,1.9248646E4,1.3657715E3,1.3583164E3,6.662708E3,1.2977004E3,4.0078125E0,2.345752E2,9.4260645E2,2.960122E3,6.7462285E3,1.1091337E3,7.474902E1,2.1796875E0,3.1627197E1,0E0,0E0,0E0,0E0,0E0,0E0,0E0,0E0,0E0,0E0,0E0,0E0,0E0,0E0,0E0,0E0],"parents":[2147483647,0,0,1,1,2,2,3,3,4,4,5,5,6,6,7,7,8,8,9,9,10,10,11,11,12,12,13,13,14,14],"right_children":[2,4,6,8,10,12,14,16,18,20,22,24,26,28,30,-1,-1,-1,-1,-1,-1,-1,-1,-1,-1,-1,-1,-1,-1,-1,-1],"split_conditions":[1.7849045E0,-3.146586E0,3.4490585E0,-1.8602894E1,-4.5498145E-1,3.5617733E0,2.0985355E0,-4.1052776E1,-2.8850565E0,-4.8382378E-1,-3.3940887E-1,6.5821075E-1,2.4787836E0,4.036228E-4,3.693914E0,2.1720518E-1,1.6028407E-1,8.3885305E-2,1.9859244E-1,-1.618272E-2,-1.0591087E-1,2.5492424E-1,-5.6092334E-3,2.0901209E-1,-5.383553E-3,2.988566E-1,2.1915595E-1,2.1390694E-1,2.2027098E-1,-7.595117E-2,2.1138152E-1],"split_indices":[0,0,0,0,4,159,71,0,34,0,0,82,29,160,96,0,0,0,0,0,0,0,0,0,0,0,0,0,0,0,0],"split_type":[0,0,0,0,0,0,0,0,0,0,0,0,0,0,0,0,0,0,0,0,0,0,0,0,0,0,0,0,0,0,0],"sum_hessian":[5.873537E5,4.934374E5,9.391627E4,1.15785266E5,3.7765212E5,2.190009E4,7.201618E4,3.9543465E4,7.6241805E4,2.2576112E5,1.5189102E5,1.5124363E4,6.7757266E3,6.657987E4,5.4363105E3,1.5355736E4,2.4187729E4,6.542186E4,1.0819943E4,6.83317E4,1.5742942E5,1.4209096E4,1.3768192E5,4.4161807E3,1.0708183E4,2.3472024E3,4.4285244E3,9.529151E3,5.705072E4,4.964647E1,5.386664E3],"tree_param":{"num_deleted":"0","num_feature":"161","num_nodes":"31","size_leaf_vector":"1"}},{"base_weights":[-3.2813084E-1,-3.567127E-2,-5.1353765E-1,-4.366171E-1,-4.3577626E-3,-3.7304503E-1,-5.4072696E-1,-5.2405053E-1,-3.219318E-1,-2.848155E-1,3.5524715E-2,-5.2287614E-1,-2.0067835E-1,-5.019014E-1,-5.4671276E-1,-1.942377E-1,-1.6140626E-1,-1.470846E-1,-4.3659482E-2,3.4018323E-2,-1.9389361E-1,2.7499462E-2,-1.22729294E-1,-2.0147549E-1,-1.5139225E-1,3.6457755E-2,-1.0627162E-1,-1.9379118E-1,-9.627888E-2,-1.9826947E-1,-1.8700714E-1],"categories":[],"categories_nodes":[],"categories_segments":[],"categories_sizes":[],"default_left":[0,0,0,0,1,0,0,0,0,0,0,0,0,0,0,0,0,0,0,0,0,0,0,0,0,0,0,0,0,0,0],"id":13,"left_children":[1,3,5,7,9,11,13,15,17,19,21,23,25,27,29,-1,-1,-1,-1,-1,-1,-1,-1,-1,-1,-1,-1,-1,-1,-1,-1],"loss_changes":[2.2090922E4,1.9845486E3,9.5222656E2,1.1465112E2,1.6399902E3,1.0440942E3,4.828125E1,7.3790283E0,8.610565E1,1.7572108E3,1.9745842E3,8.117627E1,5.366985E2,2.3815771E2,1.9617188E1,0E0,0E0,0E0,0E0,0E0,0E0,0E0,0E0,0E0,0E0,0E0,0E0,0E0,0E0,0E0,0E0],"parents":[2147483647,0,0,1,1,2,2,3,3,4,4,5,5,6,6,7,7,8,8,9,9,10,10,11,11,12,12,13,13,14,14],"right_children":[2,4,6,8,10,12,14,16,18,20,22,24,26,28,30,-1,-1,-1,-1,-1,-1,-1,-1,-1,-1,-1,-1,-1,-1,-1,-1],"split_conditions":[-4.565487E-1,-3.0009487E1,-6.4468384E-3,-4.5965466E1,-2.7073288E-1,2.3523246E-1,2.2089767E-1,-5.134943E1,-1.0570363E0,-1.2982111E0,-5.496362E-1,1.4139012E-1,-5.4200413E1,6.880852E-1,4.8228714E-4,-1.942377E-1,-1.6140626E-1,-1.470846E-1,-4.3659482E-2,3.4018323E-2,-1.9389361E-1,2.7499462E-2,-1.22729294E-1,-2.0147549E-1,-1.5139225E-1,3.6457755E-2,-1.0627162E-1,-1.9379118E-1,-9.627888E-2,-1.9826947E-1,-1.8700714E-1],"split_indices":[0,0,0,0,86,22,0,0,69,0,3,152,33,20,66,0,0,0,0,0,0,0,0,0,0,0,0,0,0,0,0],"split_type":[0,0,0,0,0,0,0,0,0,0,0,0,0,0,0,0,0,0,0,0,0,0,0,0,0,0,0,0,0,0,0],"sum_hessian":[4.0740047E5,1.5806728E5,2.4933319E5,1.144969E4,1.466176E5,4.0431266E4,2.0890192E5,6.4947065E3,4.954984E3,1.8253182E4,1.28364414E5,2.1628494E4,1.8802773E4,2.791599E4,1.8098592E5,5.385888E3,1.1088182E3,3.4600232E3,1.4949609E3,7.3171616E3,1.093602E4,1.1579555E5,1.2568864E4,1.5907463E4,5.7210317E3,4.4826597E3,1.4320113E4,2.4162666E4,3.7533235E3,1.5762136E5,2.3364568E4],"tree_param":{"num_deleted":"0","num_feature":"161","num_nodes":"31","size_leaf_vector":"1"}},{"base_weights":[1.3295956E-1,-4.4844112E-1,2.418428E-1,-5.228817E-1,-1.5886977E-2,3.169653E-1,-5.396548E-1,-5.537189E-1,-2.2546345E-1,6.0597193E-1,-5.1880807E-1,4.211596E-1,1.934219E-1,-2.6970872E-1,-5.5068624E-1,-2.0571911E-1,-9.706664E-2,1.2790121E-1,-1.6261595E-1,-2.0338176E-1,3.0798933E-1,2.4072833E-1,-2.0044142E-1,1.7068666E-1,8.200843E-2,1.2135578E-1,2.808063E-2,1.1251178E-1,-1.7877245E-1,-1.7247368E-1,-1.9898479E-1],"categories":[],"categories_nodes":[],"categories_segments":[],"categories_sizes":[],"default_left":[0,0,0,0,0,0,0,1,0,0,0,0,0,0,0,0,0,0,0,0,0,0,0,0,0,0,0,0,0,0,0],"id":14,"left_children":[1,3,5,7,9,11,13,15,17,19,21,23,25,27,29,-1,-1,-1,-1,-1,-1,-1,-1,-1,-1,-1,-1,-1,-1,-1,-1],"loss_changes":[3.9609414E4,3.1779316E3,3.0939207E4,7.7215625E2,4.5326753E3,6.1888047E3,1.3747852E2,3.8397852E2,1.0397388E3,1.8940825E3,3.6169995E2,2.671207E3,3.6477822E3,2.401075E2,6.2490234E0,0E0,0E0,0E0,0E0,0E0,0E0,0E0,0E0,0E0,0E0,0E0,0E0,0E0,0E0,0E0,0E0],"parents":[2147483647,0,0,1,1,2,2,3,3,4,4,5,5,6,6,7,7,8,8,9,9,10,10,11,11,12,12,13,13,14,14],"right_children":[2,4,6,8,10,12,14,16,18,20,22,24,26,28,30,-1,-1,-1,-1,-1,-1,-1,-1,-1,-1,-1,-1,-1,-1,-1,-1],"split_conditions":[-1.1090508E0,-9.191164E0,3.05896E0,-1.541069E0,-2.3476963E0,-1.558123E0,3.4490585E0,-8.8785925E0,-1.4728457E-1,-3.125387E0,-1.5130438E0,6.631068E-1,1.9986221E0,3.6477718E0,3.8717918E0,-2.0571911E-1,-9.706664E-2,1.2790121E-1,-1.6261595E-1,-2.0338176E-1,3.0798933E-1,2.4072833E-1,-2.0044142E-1,1.7068666E-1,8.200843E-2,1.2135578E-1,2.808063E-2,1.1251178E-1,-1.7877245E-1,-1.7247368E-1,-1.9898479E-1],"split_indices":[0,1,0,0,100,3,0,65,22,99,84,18,128,32,0,0,0,0,0,0,0,0,0,0,0,0,0,0,0,0,0],"split_type":[0,0,0,0,0,0,0,0,0,0,0,0,0,0,0,0,0,0,0,0,0,0,0,0,0,0,0,0,0,0,0],"sum_hessian":[6.256911E5,9.8694086E4,5.2699706E5,8.420294E4,1.4491148E4,4.8078184E5,4.6215207E4,7.62919E4,7.9110356E3,6.4793125E3,8.011836E3,2.6081378E5,2.1996808E5,1.8154479E3,4.439976E4,7.181093E4,4.480968E3,2.2177703E3,5.693265E3,1.1380858E3,5.341227E3,2.4774788E2,7.764088E3,2.0472775E5,5.6086027E4,9.798826E4,1.2197981E5,5.0895325E2,1.3064946E3,1.2420675E3,4.3157695E4],"tree_param":{"num_deleted":"0","num_feature":"161","num_nodes":"31","size_leaf_vector":"1"}},{"base_weights":[8.01077E-2,2.1851635E-2,5.4952806E-1,2.9147032E-1,-5.0179094E-2,3.33985E-1,5.67757E-1,4.4061917E-1,1.9891487E-1,-1.9244274E-1,4.077568E-2,5.329892E-1,-1.492863E-1,5.7041574E-1,5.356796E-1,1.1856065E-1,1.7809448E-1,2.7428547E-2,1.4162645E-1,-8.024378E-2,2.3012777E-1,1.5875398E-1,-1.0917202E-2,-1.12974346E-1,1.959835E-1,-1.9385317E-1,1.8865886E-1,1.7448488E-1,2.0558082E-1,-5.280679E-2,1.9620636E-1],"categories":[],"categories_nodes":[],"categories_segments":[],"categories_sizes":[],"default_left":[0,0,0,0,0,0,0,0,0,0,0,0,0,0,0,0,0,0,0,0,0,0,0,0,0,0,0,0,0,0,0],"id":15,"left_children":[1,3,5,7,9,11,13,15,17,19,21,23,25,27,29,-1,-1,-1,-1,-1,-1,-1,-1,-1,-1,-1,-1,-1,-1,-1,-1],"loss_changes":[1.4517024E4,9.171464E3,2.3008203E2,1.3743643E3,4.822371E3,4.39825E2,4.3046875E0,2.2931836E2,1.4664934E3,3.681815E3,6.4689897E3,3.1464478E1,3.4999002E2,2.4707031E0,2.6538574E1,0E0,0E0,0E0,0E0,0E0,0E0,0E0,0E0,0E0,0E0,0E0,0E0,0E0,0E0,0E0,0E0],"parents":[2147483647,0,0,1,1,2,2,3,3,4,4,5,5,6,6,7,7,8,8,9,9,10,10,11,11,12,12,13,13,14,14],"right_children":[2,4,6,8,10,12,14,16,18,20,22,24,26,28,30,-1,-1,-1,-1,-1,-1,-1,-1,-1,-1,-1,-1,-1,-1,-1,-1],"split_conditions":[2.7360153E0,-3.6916962E0,3.4490585E0,-2.9076256E1,-8.8129245E-2,2.1644402E0,1.9190941E0,5.8940274E-1,-3.5306334E0,1.1446533E0,-1.1238861E-1,4.036228E-4,3.693914E0,-4.3229618E1,3.728254E0,1.1856065E-1,1.7809448E-1,2.7428547E-2,1.4162645E-1,-8.024378E-2,2.3012777E-1,1.5875398E-1,-1.0917202E-2,-1.12974346E-1,1.959835E-1,-1.9385317E-1,1.8865886E-1,1.7448488E-1,2.0558082E-1,-5.280679E-2,1.9620636E-1],"split_indices":[0,0,0,2,10,135,6,27,3,0,0,160,96,137,32,0,0,0,0,0,0,0,0,0,0,0,0,0,0,0,0],"split_type":[0,0,0,0,0,0,0,0,0,0,0,0,0,0,0,0,0,0,0,0,0,0,0,0,0,0,0,0,0,0,0],"sum_hessian":[5.308528E5,4.7224703E5,5.8605812E4,9.956428E4,3.7268275E5,4.5714414E3,5.403437E4,3.8124555E4,6.1439723E4,1.4534517E5,2.2733756E5,3.2379832E3,1.3334579E3,4.9883023E4,4.151347E3,1.2471618E4,2.5652938E4,3.7670816E4,2.3768908E4,1.4021133E5,5.1338535E3,3.4295164E4,1.930424E5,4.2694485E1,3.1952888E3,8.451533E2,4.8830457E2,3.763942E2,4.950663E4,5.5845135E1,4.095502E3],"tree_param":{"num_deleted":"0","num_feature":"161","num_nodes":"31","size_leaf_vector":"1"}},{"base_weights":[-2.801766E-1,-1.75836E-2,-4.9698034E-1,-2.42957E-1,2.4388434E-2,-3.505274E-1,-5.218629E-1,6.315225E-2,-5.147583E-1,-5.023701E-2,1.781134E-1,-4.3040198E-1,4.6019256E-2,-4.8025575E-1,-5.303284E-1,-1.8926889E-1,6.617099E-2,-1.8951677E-1,2.9785064E-1,-1.6053762E-1,-9.420204E-3,1.04103036E-1,-8.6855195E-2,-1.8833625E-1,-1.1432278E-1,3.2647896E-1,-7.9923645E-2,-1.8727027E-1,-8.8418126E-2,-1.9276604E-1,-1.7762856E-1],"categories":[],"categories_nodes":[],"categories_segments":[],"categories_sizes":[],"default_left":[0,1,0,0,1,0,0,1,0,0,0,1,0,0,0,0,0,0,0,0,0,0,0,0,0,0,0,0,0,0,0],"id":16,"left_children":[1,3,5,7,9,11,13,15,17,19,21,23,25,27,29,-1,-1,-1,-1,-1,-1,-1,-1,-1,-1,-1,-1,-1,-1,-1,-1],"loss_changes":[1.9851809E4,1.4917267E3,6.9585156E2,2.059911E3,1.525076E3,8.7871265E2,5.725E1,8.275199E2,2.059585E2,8.523874E2,2.023624E3,2.4150879E2,1.0735833E3,2.5864746E2,2.54375E1,0E0,0E0,0E0,0E0,0E0,0E0,0E0,0E0,0E0,0E0,0E0,0E0,0E0,0E0,0E0,0E0],"parents":[2147483647,0,0,1,1,2,2,3,3,4,4,5,5,6,6,7,7,8,8,9,9,10,10,11,11,12,12,13,13,14,14],"right_children":[2,4,6,8,10,12,14,16,18,20,22,24,26,28,30,-1,-1,-1,-1,-1,-1,-1,-1,-1,-1,-1,-1,-1,-1,-1,-1],"split_conditions":[-3.3940887E-1,-1.5772456E-1,7.520819E-3,-1.1971359E0,-1.7527481E1,7.391844E-1,2.7694702E-1,-1.3251252E0,3.7275705E-2,-3.6728443E1,-4.733903E-1,2.4327835E-1,-5.4239174E1,6.880852E-1,8.2534365E-2,-1.8926889E-1,6.617099E-2,-1.8951677E-1,2.9785064E-1,-1.6053762E-1,-9.420204E-3,1.04103036E-1,-8.6855195E-2,-1.8833625E-1,-1.1432278E-1,3.2647896E-1,-7.9923645E-2,-1.8727027E-1,-8.8418126E-2,-1.9276604E-1,-1.7762856E-1],"split_indices":[0,54,0,0,65,21,0,54,55,0,67,119,129,20,66,0,0,0,0,0,0,0,0,0,0,0,0,0,0,0,0],"split_type":[0,0,0,0,0,0,0,0,0,0,0,0,0,0,0,0,0,0,0,0,0,0,0,0,0,0,0,0,0,0,0],"sum_hessian":[3.486977E5,1.576965E5,1.9100119E5,2.475689E4,1.3293961E5,2.7740773E4,1.6326042E5,1.1643953E4,1.3112937E4,8.9495086E4,4.344452E4,2.3089812E4,4.65096E3,2.7611148E4,1.3564927E5,1.9794208E3,9.664532E3,1.3000435E4,1.125024E2,5.130672E3,8.4364414E4,3.4348492E4,9.096026E3,1.2670736E4,1.0419077E4,1.1036932E3,3.5472666E3,2.3594027E4,4.0171226E3,1.1907888E5,1.6570383E4],"tree_param":{"num_deleted":"0","num_feature":"161","num_nodes":"31","size_leaf_vector":"1"}},{"base_weights":[1.0019676E-1,-3.844615E-1,1.9563511E-1,2.3844155E-2,-4.877048E-1,2.5141647E-1,-5.1473475E-1,-5.535804E-1,2.7137756E-1,-5.2692306E-1,-2.4682459E-1,3.076124E-1,5.8150157E-2,-2.0837002E-1,-5.292866E-1,-2.0182972E-1,-1.3858832E-1,1.3299374E-1,-7.43207E-2,-2.6579536E-2,-1.9214085E-1,1.9256382E-1,-2.1111411E-1,1.4285697E-1,8.612604E-2,1.2816788E-1,-1.1740588E-2,1.07329786E-1,-1.6850138E-1,-1.5734226E-1,-1.9153628E-1],"categories":[],"categories_nodes":[],"categories_segments":[],"categories_sizes":[],"default_left":[0,0,0,0,1,1,0,0,0,0,0,0,0,0,0,0,0,0,0,0,0,0,0,0,0,0,0,0,0,0,0],"id":17,"left_children":[1,3,5,7,9,11,13,15,17,19,21,23,25,27,29,-1,-1,-1,-1,-1,-1,-1,-1,-1,-1,-1,-1,-1,-1,-1,-1],"loss_changes":[2.5691066E4,3.85208E3,1.8388023E4,2.6363171E3,6.888926E2,4.67292E3,1.5051465E2,6.370117E0,6.049199E2,1.9325586E2,2.711927E3,2.033166E3,2.6204385E3,2.018709E2,7.973633E0,0E0,0E0,0E0,0E0,0E0,0E0,0E0,0E0,0E0,0E0,0E0,0E0,0E0,0E0,0E0,0E0],"parents":[2147483647,0,0,1,1,2,2,3,3,4,4,5,5,6,6,7,7,8,8,9,9,10,10,11,11,12,12,13,13,14,14],"right_children":[2,4,6,8,10,12,14,16,18,20,22,24,26,28,30,-1,-1,-1,-1,-1,-1,-1,-1,-1,-1,-1,-1,-1,-1,-1,-1],"split_conditions":[-9.1637945E-1,-4.018172E-1,3.05896E0,-3.146586E0,-8.961258E0,-8.8785925E0,3.4490585E0,-3.4146729E0,-2.306895E0,-3.586174E-1,-2.4821393E0,3.4102416E-1,4.6165046E-1,3.693914E0,3.8717918E0,-2.0182972E-1,-1.3858832E-1,1.3299374E-1,-7.43207E-2,-2.6579536E-2,-1.9214085E-1,1.9256382E-1,-2.1111411E-1,1.4285697E-1,8.612604E-2,1.2816788E-1,-1.1740588E-2,1.07329786E-1,-1.6850138E-1,-1.5734226E-1,-1.9153628E-1],"split_indices":[0,18,0,0,97,65,0,0,130,116,99,16,94,64,0,0,0,0,0,0,0,0,0,0,0,0,0,0,0,0,0],"split_type":[0,0,0,0,0,0,0,0,0,0,0,0,0,0,0,0,0,0,0,0,0,0,0,0,0,0,0,0,0,0,0],"sum_hessian":[5.5542006E5,9.137804E4,4.6404203E5,1.8442521E4,7.2935516E4,4.30257E5,3.378503E4,5.5334146E3,1.2909108E4,6.2722367E4,1.0213148E4,3.333333E5,9.6923695E4,1.5326727E3,3.225236E4,5.308874E3,2.2454047E2,1.0711362E4,2.1977454E3,9.2779395E2,6.179457E4,3.0929639E3,7.120185E3,1.4462466E5,1.8870866E5,2.263517E4,7.428852E4,5.194225E2,1.0132502E3,9.413187E2,3.1311041E4],"tree_param":{"num_deleted":"0","num_feature":"161","num_nodes":"31","size_leaf_vector":"1"}},{"base_weights":[7.4245684E-2,2.1733569E-2,4.5093137E-1,1.5526175E-1,-7.450356E-2,2.7200153E-1,5.421371E-1,-1.230111E-1,2.1762046E-1,-2.1330813E-1,3.546446E-2,1.3504311E-1,6.065556E-1,4.772498E-1,5.4408E-1,6.618743E-2,-9.903437E-2,5.813311E-2,1.5282051E-1,-9.920029E-2,1.4142805E-1,2.4247298E-1,-7.2796703E-3,1.8520768E-1,-5.9828376E-3,2.6207644E-1,1.691238E-1,5.097516E-3,1.8588154E-1,1.4765596E-1,1.9617137E-1],"categories":[],"categories_nodes":[],"categories_segments":[],"categories_sizes":[],"default_left":[0,0,0,0,0,0,0,0,0,0,0,1,0,0,0,0,0,0,0,0,0,0,0,0,0,0,0,0,0,0,0],"id":18,"left_children":[1,3,5,7,9,11,13,15,17,19,21,23,25,27,29,-1,-1,-1,-1,-1,-1,-1,-1,-1,-1,-1,-1,-1,-1,-1,-1],"loss_changes":[9.676727E3,5.5173374E3,9.7663184E2,3.1206396E3,3.8086726E3,9.259595E2,4.7382812E0,1.5365228E3,1.7062051E3,4.1619365E3,4.946765E3,8.252627E2,9.715112E1,2.10029E1,4.1083984E0,0E0,0E0,0E0,0E0,0E0,0E0,0E0,0E0,0E0,0E0,0E0,0E0,0E0,0E0,0E0,0E0],"parents":[2147483647,0,0,1,1,2,2,3,3,4,4,5,5,6,6,7,7,8,8,9,9,10,10,11,11,12,12,13,13,14,14],"right_children":[2,4,6,8,10,12,14,16,18,20,22,24,26,28,30,-1,-1,-1,-1,-1,-1,-1,-1,-1,-1,-1,-1,-1,-1,-1,-1],"split_conditions":[1.7849045E0,-3.8376427E-1,3.4490585E0,-2.0642586E-1,4.90942E-2,3.5453243E0,3.8717918E0,-2.5962257E0,-4.9554086E-1,9.727268E-1,-5.1238354E1,6.585625E-1,5.3286034E-1,3.728254E0,-5.996621E1,6.618743E-2,-9.903437E-2,5.813311E-2,1.5282051E-1,-9.920029E-2,1.4142805E-1,2.4247298E-1,-7.2796703E-3,1.8520768E-1,-5.9828376E-3,2.6207644E-1,1.691238E-1,5.097516E-3,1.8588154E-1,1.4765596E-1,1.9617137E-1],"split_indices":[0,0,0,21,8,127,0,0,36,0,129,146,105,32,133,0,0,0,0,0,0,0,0,0,0,0,0,0,0,0,0],"split_type":[0,0,0,0,0,0,0,0,0,0,0,0,0,0,0,0,0,0,0,0,0,0,0,0,0,0,0,0,0,0,0],"sum_hessian":[4.8920334E5,4.2935053E5,5.985283E4,1.7983308E5,2.4951744E5,2.0209422E4,3.9643406E4,3.292149E4,1.469116E5,1.1029687E5,1.3922058E5,1.4340265E4,5.8691577E3,1.1597106E3,3.8483695E4,1.0909289E4,2.20122E4,1.1555591E5,3.1355686E4,1.0002558E5,1.0271291E4,1.1173916E4,1.2804666E5,4.0944727E3,1.0245792E4,3.1065522E3,2.7626055E3,9.0373886E1,1.0693367E3,2.4303604E2,3.824066E4],"tree_param":{"num_deleted":"0","num_feature":"161","num_nodes":"31","size_leaf_vector":"1"}},{"base_weights":[-2.3730819E-1,-6.007469E-3,-4.8481303E-1,-1.8529403E-1,4.532278E-2,-3.4804064E-1,-5.091902E-1,3.5222735E-2,-4.367466E-1,-2.2220321E-2,1.8536884E-1,-4.3837872E-1,2.5125843E-2,-4.68804E-1,-5.181367E-1,7.519586E-2,-5.6508332E-2,-1.7454235E-1,-1.4419906E-2,-1.6130169E-1,-1.7882464E-3,9.542536E-2,-9.405473E-2,-1.8551894E-1,-1.2636463E-1,4.015251E-1,-7.630812E-2,-1.8213636E-1,-7.2478175E-2,-1.8886402E-1,-1.7133957E-1],"categories":[],"categories_nodes":[],"categories_segments":[],"categories_sizes":[],"default_left":[0,0,0,0,0,1,0,0,0,0,0,1,0,0,1,0,0,0,0,0,0,0,0,0,0,0,0,0,0,0,0],"id":19,"left_children":[1,3,5,7,9,11,13,15,17,19,21,23,25,27,29,-1,-1,-1,-1,-1,-1,-1,-1,-1,-1,-1,-1,-1,-1,-1,-1],"loss_changes":[1.739421E4,1.4454233E3,4.8919922E2,1.9384622E3,1.1550065E3,7.48614E2,4.4765625E1,6.216714E2,3.1159937E2,6.052164E2,1.4143165E3,1.20014404E2,1.1192183E3,2.2436572E2,2.7654297E1,0E0,0E0,0E0,0E0,0E0,0E0,0E0,0E0,0E0,0E0,0E0,0E0,0E0,0E0,0E0,0E0],"parents":[2147483647,0,0,1,1,2,2,3,3,4,4,5,5,6,6,7,7,8,8,9,9,10,10,11,11,12,12,13,13,14,14],"right_children":[2,4,6,8,10,12,14,16,18,20,22,24,26,28,30,-1,-1,-1,-1,-1,-1,-1,-1,-1,-1,-1,-1,-1,-1,-1,-1],"split_conditions":[-2.4334717E-1,-5.8502845E-2,7.198095E-2,-1.1090508E0,-1.735778E1,6.940793E-1,3.3046722E-1,3.2337796E-2,-3.343019E-2,-4.1052776E1,-3.1284776E-1,2.7242824E-1,1.0346199E-2,7.923139E-1,8.2534365E-2,7.519586E-2,-5.6508332E-2,-1.7454235E-1,-1.4419906E-2,-1.6130169E-1,-1.7882464E-3,9.542536E-2,-9.405473E-2,-1.8551894E-1,-1.2636463E-1,4.015251E-1,-7.630812E-2,-1.8213636E-1,-7.2478175E-2,-1.8886402E-1,-1.7133957E-1],"split_indices":[0,21,0,0,1,84,0,91,23,0,3,119,76,21,66,0,0,0,0,0,0,0,0,0,0,0,0,0,0,0,0],"split_type":[0,0,0,0,0,0,0,0,0,0,0,0,0,0,0,0,0,0,0,0,0,0,0,0,0,0,0,0,0,0,0],"sum_hessian":[3.038384E5,1.5706111E5,1.467773E5,3.4957777E4,1.2210333E5,2.2205395E4,1.2457191E5,1.8625021E4,1.6332757E4,8.237524E4,3.9728086E4,1.7877373E4,4.328022E3,2.260072E4,1.0197119E5,9.784288E3,8.840734E3,1.4566545E4,1.7662118E3,3.2065215E3,7.916872E4,3.371249E4,6.015596E3,9.5026045E3,8.374768E3,7.724354E2,3.5555867E3,1.9844998E4,2.7557222E3,8.8375484E4,1.3595704E4],"tree_param":{"num_deleted":"0","num_feature":"161","num_nodes":"31","size_leaf_vector":"1"}},{"base_weights":[7.156077E-2,-5.433449E-1,1.2654507E-1,-5.4662186E-1,-4.5291945E-1,1.6065739E-1,-5.136193E-1,-5.392385E-1,-5.574506E-1,-5.6128126E-1,-1.6476763E-2,-7.248268E-2,2.1689212E-1,-2.5230202E-1,-5.1527077E-1,-1.920999E-1,-1.9574092E-1,-2.0355399E-1,-1.9780593E-1,-2.0395139E-1,-1.2749922E-1,3.9099473E-1,-1.783749E-1,1.2195864E-1,-1.21587425E-1,1.00718945E-1,8.673526E-3,-1.7451128E-1,1.1151084E0,-1.4277658E-1,-1.8680464E-1],"categories":[],"categories_nodes":[],"categories_segments":[],"categories_sizes":[],"default_left":[0,0,0,0,0,0,0,0,0,0,0,0,1,0,0,0,0,0,0,0,0,0,0,0,0,0,0,0,0,0,0],"id":20,"left_children":[1,3,5,7,9,11,13,15,17,19,21,23,25,27,29,-1,-1,-1,-1,-1,-1,-1,-1,-1,-1,-1,-1,-1,-1,-1,-1],"loss_changes":[1.6898545E4,1.190918E1,1.0018729E4,2.8642578E0,6.8118195E1,5.710618E3,9.88623E0,3.0517578E-1,7.0996094E-1,1.0542297E0,1.5240535E2,9.23418E3,4.254537E3,1.1652903E2,9.731934E0,0E0,0E0,0E0,0E0,0E0,0E0,0E0,0E0,0E0,0E0,0E0,0E0,0E0,0E0,0E0,0E0],"parents":[2147483647,0,0,1,1,2,2,3,3,4,4,5,5,6,6,7,7,8,8,9,9,10,10,11,11,12,12,13,13,14,14],"right_children":[2,4,6,8,10,12,14,16,18,20,22,24,26,28,30,-1,-1,-1,-1,-1,-1,-1,-1,-1,-1,-1,-1,-1,-1,-1,-1],"split_conditions":[-3.146586E0,-3.4146729E0,3.4490585E0,-8.663368E0,-9.0467205E0,-3.610134E-1,-5.996621E1,-2.9076256E1,-3.0853179E0,-5.4713306E0,-2.4744217E0,-1.755708E-1,-5.23522E-1,3.2486566E2,3.8717918E0,-1.920999E-1,-1.9574092E-1,-2.0355399E-1,-1.9780593E-1,-2.0395139E-1,-1.2749922E-1,3.9099473E-1,-1.783749E-1,1.2195864E-1,-1.21587425E-1,1.00718945E-1,8.673526E-3,-1.7451128E-1,1.1151084E0,-1.4277658E-1,-1.8680464E-1],"split_indices":[0,0,0,0,33,0,133,2,6,1,107,20,34,0,0,0,0,0,0,0,0,0,0,0,0,0,0,0,0,0,0],"split_type":[0,0,0,0,0,0,0,0,0,0,0,0,0,0,0,0,0,0,0,0,0,0,0,0,0,0,0,0,0,0,0],"sum_hessian":[4.9980378E5,4.102296E4,4.587808E5,3.958344E4,1.4395172E3,4.3557134E5,2.3209465E4,2.3566182E4,1.6017263E4,1.1529675E3,2.8654965E2,8.464531E4,3.5092603E5,1.4672269E2,2.3062742E4,1.0506517E4,1.3059664E4,7.980013E3,8.0372495E3,1.1227705E3,3.0197044E1,8.640259E1,2.0014708E2,3.3189055E4,5.1456254E4,2.6461844E5,8.630759E4,1.3800174E2,8.720945E0,6.879882E2,2.2374754E4],"tree_param":{"num_deleted":"0","num_feature":"161","num_nodes":"31","size_leaf_vector":"1"}},{"base_weights":[6.810778E-2,2.7288696E-2,4.1373515E-1,2.5628972E-1,-4.4034394E-3,2.5039223E-1,5.239751E-1,4.6974686E-1,1.9864288E-1,-8.307554E-2,8.6937234E-2,1.2831952E-1,5.789864E-1,3.4666106E-1,5.251436E-1,1.8291703E-1,1.0969751E-1,3.6200196E-2,1.0753427E-1,-3.799107E-2,1.3694507E-1,1.2631726E-1,1.3282977E-3,1.9955322E-1,3.6212653E-3,2.5085464E-1,1.5673035E-1,1.8032412E-1,-3.3259064E-1,1.6025268E-1,1.899664E-1],"categories":[],"categories_nodes":[],"categories_segments":[],"categories_sizes":[],"default_left":[0,0,0,0,1,0,0,0,0,0,0,0,0,0,0,0,0,0,0,0,0,0,0,0,0,0,0,0,0,0,0],"id":21,"left_children":[1,3,5,7,9,11,13,15,17,19,21,23,25,27,29,-1,-1,-1,-1,-1,-1,-1,-1,-1,-1,-1,-1,-1,-1,-1,-1],"loss_changes":[6.420212E3,2.9538452E3,8.65417E2,6.087517E2,2.5691758E3,7.769303E2,5.76416E0,6.643823E1,3.8235474E2,1.9991564E3,3.6352231E3,7.115893E2,8.8489136E1,3.785853E1,5.559082E0,0E0,0E0,0E0,0E0,0E0,0E0,0E0,0E0,0E0,0E0,0E0,0E0,0E0,0E0,0E0,0E0],"parents":[2147483647,0,0,1,1,2,2,3,3,4,4,5,5,6,6,7,7,8,8,9,9,10,10,11,11,12,12,13,13,14,14],"right_children":[2,4,6,8,10,12,14,16,18,20,22,24,26,28,30,-1,-1,-1,-1,-1,-1,-1,-1,-1,-1,-1,-1,-1,-1,-1,-1],"split_conditions":[1.7849045E0,-8.663368E0,3.4490585E0,-3.301705E1,2.2149494E-2,3.588803E0,-5.6018967E1,-8.4397984E-1,8.499637E0,1.0405579E0,5.6927264E-1,1.7308118E0,4.5978677E-1,3.2486566E2,3.8717918E0,1.8291703E-1,1.0969751E-1,3.6200196E-2,1.0753427E-1,-3.799107E-2,1.3694507E-1,1.2631726E-1,1.3282977E-3,1.9955322E-1,3.6212653E-3,2.5085464E-1,1.5673035E-1,1.8032412E-1,-3.3259064E-1,1.6025268E-1,1.899664E-1],"split_indices":[0,0,0,0,72,95,70,5,32,0,23,29,104,0,0,0,0,0,0,0,0,0,0,0,0,0,0,0,0,0,0],"split_type":[0,0,0,0,0,0,0,0,0,0,0,0,0,0,0,0,0,0,0,0,0,0,0,0,0,0,0,0,0,0,0],"sum_hessian":[4.5506953E5,4.07003E5,4.8066555E4,4.9477973E4,3.5752503E5,1.936969E4,2.8696865E4,1.0519347E4,3.8958625E4,1.9208312E5,1.6544189E5,1.412401E4,5.245678E3,1.8982912E2,2.8507035E4,8.53386E3,1.9854863E3,1.9674637E4,1.9283988E4,1.8320762E5,8.875506E3,3.96679E4,1.2577399E5,3.0681838E3,1.1055826E4,2.8794624E3,2.366216E3,1.6981914E2,2.000998E1,8.829517E2,2.7624084E4],"tree_param":{"num_deleted":"0","num_feature":"161","num_nodes":"31","size_leaf_vector":"1"}},{"base_weights":[-1.9693725E-1,5.6470446E-3,-4.7171587E-1,-2.5341673E-2,2.5222886E-1,-3.4015012E-1,-4.9782458E-1,1.8250441E-2,-1.9391969E-1,3.8966948E-1,-1.5818328E-1,-4.3886355E-1,1.8792748E-2,-5.1301324E-1,-4.7192603E-1,3.8112853E-2,-3.4600824E-2,-1.7446831E-1,-2.530165E-3,2.2380683E-1,-2.9048547E-2,-9.563688E-2,3.186052E-2,-1.838464E-1,-1.3088019E-1,3.18412E-1,-6.715615E-2,-1.7447808E-1,-1.865202E-1,-9.4225414E-2,-1.7883246E-1],"categories":[],"categories_nodes":[],"categories_segments":[],"categories_sizes":[],"default_left":[0,1,0,0,0,1,1,0,1,0,0,0,0,0,0,0,0,0,0,0,0,0,0,0,0,0,0,0,0,0,0],"id":22,"left_children":[1,3,5,7,9,11,13,15,17,19,21,23,25,27,29,-1,-1,-1,-1,-1,-1,-1,-1,-1,-1,-1,-1,-1,-1,-1,-1],"loss_changes":[1.5018222E4,1.1866803E3,3.9312305E2,1.013836E3,9.780519E2,6.718782E2,3.733789E1,1.0984155E3,1.5400593E3,1.41752E3,1.1536086E2,8.025195E1,7.273593E2,8.452148E0,1.8425488E2,0E0,0E0,0E0,0E0,0E0,0E0,0E0,0E0,0E0,0E0,0E0,0E0,0E0,0E0,0E0,0E0],"parents":[2147483647,0,0,1,1,2,2,3,3,4,4,5,5,6,6,7,7,8,8,9,9,10,10,11,11,12,12,13,13,14,14],"right_children":[2,4,6,8,10,12,14,16,18,20,22,24,26,28,30,-1,-1,-1,-1,-1,-1,-1,-1,-1,-1,-1,-1,-1,-1,-1,-1],"split_conditions":[-1.9217682E-1,1.0809023E0,1.1805916E-1,-7.7377796E-1,3.2186198E0,6.9496554E-1,9.3415225E-1,1.5802345E0,1.40765E-1,-2.0849289E-1,-1.6319664E1,2.7984238E-1,2.2779612E-2,2.6782227E-1,4.6261978E-1,3.8112853E-2,-3.4600824E-2,-1.7446831E-1,-2.530165E-3,2.2380683E-1,-2.9048547E-2,-9.563688E-2,3.186052E-2,-1.838464E-1,-1.3088019E-1,3.18412E-1,-6.715615E-2,-1.7447808E-1,-1.865202E-1,-9.4225414E-2,-1.7883246E-1],"split_indices":[0,148,0,0,31,148,151,31,120,4,129,119,140,0,0,0,0,0,0,0,0,0,0,0,0,0,0,0,0,0,0],"split_type":[0,0,0,0,0,0,0,0,0,0,0,0,0,0,0,0,0,0,0,0,0,0,0,0,0,0,0,0,0,0,0],"sum_hessian":[2.697914E5,1.5529731E5,1.1449409E5,1.379603E5,1.7337012E4,1.8960969E4,9.5533125E4,1.0961592E5,2.834438E4,1.29876875E4,4.349323E3,1.4871038E4,4.0899304E3,6.020566E4,3.5327465E4,6.2065332E4,4.755059E4,1.1090784E4,1.7253598E4,8.697244E3,4.2904434E3,3.0294058E3,1.3199174E3,7.6087646E3,7.2622734E3,7.8349176E2,3.3064387E3,9.191104E3,5.101456E4,3.7337107E3,3.1593756E4],"tree_param":{"num_deleted":"0","num_feature":"161","num_nodes":"31","size_leaf_vector":"1"}},{"base_weights":[5.024194E-2,-5.3208095E-1,9.596E-2,-5.3586E-1,-4.305663E-1,1.2046624E-1,-4.9953213E-1,-1.9084546E-1,-5.441017E-1,-2.0035279E-1,-2.546243E-2,2.2030085E-1,3.3508983E-2,-5.0741225E-1,-3.9556634E-1,-1.9841614E-1,-1.9322452E-1,3.219952E-1,-1.9899336E-1,1.7223174E-2,1.2242796E-1,-1.3417831E-1,2.6894588E-2,-7.067538E-2,-1.8352169E-1,3.2887512E-1,-1.5595569E-1],"categories":[],"categories_nodes":[],"categories_segments":[],"categories_sizes":[],"default_left":[0,0,0,0,0,0,0,0,0,0,0,0,0,0,0,0,0,0,0,0,0,0,0,0,0,0,0],"id":23,"left_children":[1,3,5,7,9,11,13,-1,15,-1,17,19,21,23,25,-1,-1,-1,-1,-1,-1,-1,-1,-1,-1,-1,-1],"loss_changes":[1.2060741E4,1.2420898E1,6.1299136E3,1.2138672E0,6.064534E1,3.5024316E3,1.3401367E1,0E0,3.8012695E-1,0E0,1.3776646E2,3.8796006E3,3.6087693E3,1.12771E1,5.8265762E1,0E0,0E0,0E0,0E0,0E0,0E0,0E0,0E0,0E0,0E0,0E0,0E0],"parents":[2147483647,0,0,1,1,2,2,3,3,4,4,5,5,6,6,8,8,10,10,11,11,12,12,13,13,14,14],"right_children":[2,4,6,8,10,12,14,-1,16,-1,18,20,22,24,26,-1,-1,-1,-1,-1,-1,-1,-1,-1,-1,-1,-1],"split_conditions":[-3.146586E0,-3.4146729E0,3.4490585E0,-8.663368E0,-3.2167408E0,-2.422849E0,1.9190941E0,-1.9084546E-1,-3.0853179E0,-2.0035279E-1,-2.7045891E0,-5.275606E1,-6.4935684E-1,-5.5109758E-2,3.6965852E0,-1.9841614E-1,-1.9322452E-1,3.219952E-1,-1.9899336E-1,1.7223174E-2,1.2242796E-1,-1.3417831E-1,2.6894588E-2,-7.067538E-2,-1.8352169E-1,3.2887512E-1,-1.5595569E-1],"split_indices":[0,0,0,0,2,3,6,0,6,0,3,1,0,96,31,0,0,0,0,0,0,0,0,0,0,0,0],"split_type":[0,0,0,0,0,0,0,0,0,0,0,0,0,0,0,0,0,0,0,0,0,0,0,0,0,0,0],"sum_hessian":[4.530223E5,3.297685E4,4.2004544E5,3.1789162E4,1.1876893E3,4.0344338E5,1.6602078E4,1.878549E4,1.3003672E4,9.056873E2,2.8200198E2,1.8781436E5,2.1562902E5,1.5428767E4,1.173312E3,6.605131E3,6.3985405E3,1.02496284E2,1.7950569E2,7.697891E4,1.1083545E5,1.985406E4,1.9577495E5,1.17295105E2,1.5311472E4,3.2145584E1,1.1411664E3],"tree_param":{"num_deleted":"0","num_feature":"161","num_nodes":"27","size_leaf_vector":"1"}},{"base_weights":[6.075066E-2,3.8463283E-2,5.092067E-1,-7.999332E-2,8.539104E-2,2.7618918E-1,5.109209E-1,-1.2363912E-1,2.6748505E-1,2.7625801E-2,2.166487E-1,4.725167E-1,-7.8207994E-1,4.0064526E-1,5.145962E-1,1.5200352E-2,-8.985567E-2,-2.4956385E-2,1.4264244E-1,8.047357E-2,-7.814981E-3,1.6797902E-1,1.0733971E-2,1.876385E-1,-3.02143E-1,-4.0977323E-1,1.7444582E-1,1.7450161E-1,-1.0375089E-2,1.00753635E-1,1.8581444E-1],"categories":[],"categories_nodes":[],"categories_segments":[],"categories_sizes":[],"default_left":[0,1,0,0,0,0,0,0,0,0,0,0,0,0,0,0,0,0,0,0,0,0,0,0,0,0,0,0,0,0,0],"id":24,"left_children":[1,3,5,7,9,11,13,15,17,19,21,23,25,27,29,-1,-1,-1,-1,-1,-1,-1,-1,-1,-1,-1,-1,-1,-1,-1,-1],"loss_changes":[4.347733E3,2.3036316E3,8.084961E0,1.7833567E3,2.2504968E3,3.2070004E1,8.079102E0,2.1825203E3,5.690216E2,1.9920939E3,4.236036E3,8.699516E0,1.1493347E1,2.398677E1,7.0751953E0,0E0,0E0,0E0,0E0,0E0,0E0,0E0,0E0,0E0,0E0,0E0,0E0,0E0,0E0,0E0,0E0],"parents":[2147483647,0,0,1,1,2,2,3,3,4,4,5,5,6,6,7,7,8,8,9,9,10,10,11,11,12,12,13,13,14,14],"right_children":[2,4,6,8,10,12,14,16,18,20,22,24,26,28,30,-1,-1,-1,-1,-1,-1,-1,-1,-1,-1,-1,-1,-1,-1,-1,-1],"split_conditions":[3.4490585E0,1.8348824E0,-5.996621E1,-2.0438468E0,-7.8841275E-1,3.2486566E2,3.8717918E0,-2.4334717E-1,1.5642034E-2,-6.1795616E0,7.5158226E-1,9.247808E0,-6.468243E1,2.297955E0,-5.9249114E-2,1.5200352E-2,-8.985567E-2,-2.4956385E-2,1.4264244E-1,8.047357E-2,-7.814981E-3,1.6797902E-1,1.0733971E-2,1.876385E-1,-3.02143E-1,-4.0977323E-1,1.7444582E-1,1.7450161E-1,-1.0375089E-2,1.00753635E-1,1.8581444E-1],"split_indices":[0,64,133,129,67,0,0,0,150,0,52,118,68,40,32,0,0,0,0,0,0,0,0,0,0,0,0,0,0,0,0],"split_type":[0,0,0,0,0,0,0,0,0,0,0,0,0,0,0,0,0,0,0,0,0,0,0,0,0,0,0,0,0,0,0],"sum_hessian":[4.349957E5,4.144018E5,2.0593863E4,1.1758617E5,2.9681566E5,1.515767E2,2.0442287E4,1.0446523E5,1.3120944E4,2.0610988E5,9.070577E4,1.2832387E2,2.325283E1,6.6288257E2,1.9779404E4,4.5090867E4,5.9374363E4,3.6285962E3,9.492348E3,4.146069E4,1.6464919E5,3.87976E4,5.190817E4,1.2431142E2,4.012459E0,1.8228415E1,5.024417E0,5.542432E2,1.0863937E2,1.3136136E2,1.9648043E4],"tree_param":{"num_deleted":"0","num_feature":"161","num_nodes":"31","size_leaf_vector":"1"}},{"base_weights":[-1.6738068E-1,1.473461E-3,-4.6170062E-1,-1.2521724E-1,5.2756723E-2,-3.4444976E-1,-4.8846206E-1,2.1180944E-3,-3.6838922E-1,-2.4978283E-3,2.0039077E-1,-4.4148675E-1,3.955726E-3,-4.9909943E-1,-4.2696437E-1,4.1289125E-2,-5.5262778E-2,-1.6601671E-1,6.153602E-3,2.0693263E-2,-4.3519754E-2,-1.4293633E-1,8.843375E-2,-1.7350556E-1,-1.126502E-1,2.9399875E-1,-5.174115E-2,-1.6491513E-1,-1.8332419E-1,-1.1354063E-1,-1.8547215E-1],"categories":[],"categories_nodes":[],"categories_segments":[],"categories_sizes":[],"default_left":[0,1,0,0,0,0,1,0,1,0,0,0,0,0,0,0,0,0,0,0,0,0,0,0,0,0,0,0,0,0,0],"id":25,"left_children":[1,3,5,7,9,11,13,15,17,19,21,23,25,27,29,-1,-1,-1,-1,-1,-1,-1,-1,-1,-1,-1,-1,-1,-1,-1,-1],"loss_changes":[1.219202E4,1.0128515E3,2.804668E2,1.3909364E3,9.0524963E2,5.619968E2,4.741992E1,5.1654736E2,5.5208716E2,5.734155E2,8.172743E2,6.7505615E1,4.3486176E2,2.555957E1,1.0561426E2,0E0,0E0,0E0,0E0,0E0,0E0,0E0,0E0,0E0,0E0,0E0,0E0,0E0,0E0,0E0,0E0],"parents":[2147483647,0,0,1,1,2,2,3,3,4,4,5,5,6,6,7,7,8,8,9,9,10,10,11,11,12,12,13,13,14,14],"right_children":[2,4,6,8,10,12,14,16,18,20,22,24,26,28,30,-1,-1,-1,-1,-1,-1,-1,-1,-1,-1,-1,-1,-1,-1,-1,-1],"split_conditions":[-1.2810469E-1,3.027895E-1,1.8176651E-1,-9.1637945E-1,-1.5748832E1,6.3811594E-1,4.8228714E-4,3.5889262E-1,6.290124E-2,-1.3707604E-1,-2.2111175E0,3.6185908E-1,5.1329136E-2,3.8961792E-1,1.0912552E0,4.1289125E-2,-5.5262778E-2,-1.6601671E-1,6.153602E-3,2.0693263E-2,-4.3519754E-2,-1.4293633E-1,8.843375E-2,-1.7350556E-1,-1.126502E-1,2.9399875E-1,-5.174115E-2,-1.6491513E-1,-1.8332419E-1,-1.1354063E-1,-1.8547215E-1],"split_indices":[0,153,0,0,1,19,66,30,150,72,12,20,13,0,0,0,0,0,0,0,0,0,0,0,0,0,0,0,0,0,0],"split_type":[0,0,0,0,0,0,0,0,0,0,0,0,0,0,0,0,0,0,0,0,0,0,0,0,0,0,0,0,0,0,0],"sum_hessian":[2.453254E5,1.5589053E5,8.943488E4,4.4919496E4,1.1097104E5,1.662203E4,7.281285E4,2.9482287E4,1.5437207E4,8.074997E4,3.0221066E4,1.3000811E4,3.6212195E3,6.2069438E4,1.0743411E4,1.710757E4,1.2374717E4,1.244263E4,2.9945771E3,5.359706E4,2.715291E4,2.1276182E3,2.8093447E4,9.885994E3,3.1148154E3,5.561466E2,3.0650728E3,1.2310331E4,4.9759105E4,4.7463105E3,5.997101E3],"tree_param":{"num_deleted":"0","num_feature":"161","num_nodes":"31","size_leaf_vector":"1"}},{"base_weights":[3.4177378E-2,-5.248261E-1,7.193022E-2,-5.288685E-1,-4.2346787E-1,8.922054E-2,-4.885421E-1,-1.8832158E-1,-1.9309664E-1,-1.9693373E-1,-3.7783816E-2,-8.0628246E-2,1.373499E-1,-3.0118194E-1,-4.9495396E-1,3.1805217E-1,-1.6880341E-1,9.608052E-2,-9.7440526E-2,7.013375E-2,-5.2113277E-3,-1.6057105E-1,1.6948359E-1,-1.18792616E-1,-1.806035E-1],"categories":[],"categories_nodes":[],"categories_segments":[],"categories_sizes":[],"default_left":[0,0,0,0,0,0,0,0,0,0,0,0,1,0,0,0,0,0,0,0,0,0,0,0,0],"id":26,"left_children":[1,3,5,7,9,11,13,-1,-1,-1,15,17,19,21,23,-1,-1,-1,-1,-1,-1,-1,-1,-1,-1],"loss_changes":[8.924208E3,1.0737305E1,3.8386992E3,8.310547E-1,4.9117325E1,3.141245E3,1.4092285E1,0E0,0E0,0E0,1.0020435E2,5.603463E3,2.6123735E3,4.435766E1,1.2544678E1,0E0,0E0,0E0,0E0,0E0,0E0,0E0,0E0,0E0,0E0],"parents":[2147483647,0,0,1,1,2,2,3,3,4,4,5,5,6,6,10,10,11,11,12,12,13,13,14,14],"right_children":[2,4,6,8,10,12,14,-1,-1,-1,16,18,20,22,24,-1,-1,-1,-1,-1,-1,-1,-1,-1,-1],"split_conditions":[-3.146586E0,-3.4146729E0,3.4490585E0,-8.663368E0,-3.2167408E0,-2.9922676E-1,3.8717918E0,-1.8832158E-1,-1.9309664E-1,-1.9693373E-1,-2.7905617E0,-1.862545E-1,-5.23522E-1,1.9187288E0,-4.318763E-1,3.1805217E-1,-1.6880341E-1,9.608052E-2,-9.7440526E-2,7.013375E-2,-5.2113277E-3,-1.6057105E-1,1.6948359E-1,-1.18792616E-1,-1.806035E-1],"split_indices":[0,0,0,0,2,0,0,0,0,0,8,84,34,105,151,0,0,0,0,0,0,0,0,0,0],"split_type":[0,0,0,0,0,0,0,0,0,0,0,0,0,0,0,0,0,0,0,0,0,0,0,0,0],"sum_hessian":[4.228658E5,2.6751117E4,3.961147E5,2.5721088E4,1.0300306E3,3.8426125E5,1.1853443E4,1.4604977E4,1.111611E4,7.7977747E2,2.5025319E2,8.484437E4,2.9941688E5,3.9381418E2,1.1459629E4,7.944195E1,1.7081125E2,2.9994387E4,5.4849977E4,2.1720466E5,8.221223E4,3.319507E2,6.186346E1,4.5063776E2,1.1008991E4],"tree_param":{"num_deleted":"0","num_feature":"161","num_nodes":"25","size_leaf_vector":"1"}},{"base_weights":[5.4295946E-2,2.9387325E-2,3.408986E-1,-6.483189E-2,7.42908E-2,4.44422E-1,1.1661096E-1,-9.848876E-2,2.6280335E-1,1.3318309E-2,1.9014005E-1,3.3669907E-1,5.5701256E-1,-1.484466E-1,3.8834846E-1,1.2347612E-2,-7.426175E-2,-1.9496877E-2,1.3160853E-1,5.8375016E-2,-1.5811997E-2,2.1488008E-1,2.9940143E-2,1.7622527E-1,9.999467E-4,3.2900006E-1,1.8880077E-1,8.769205E-2,-1.1086864E-1,7.222105E-2,1.7824526E-1],"categories":[],"categories_nodes":[],"categories_segments":[],"categories_sizes":[],"default_left":[0,0,1,0,0,0,0,0,0,0,0,0,0,0,0,0,0,0,0,0,0,0,0,0,0,0,0,0,0,0,0],"id":27,"left_children":[1,3,5,7,9,11,13,15,17,19,21,23,25,27,29,-1,-1,-1,-1,-1,-1,-1,-1,-1,-1,-1,-1,-1,-1,-1,-1],"loss_changes":[2.9796477E3,1.6246688E3,7.7486523E2,1.3667864E3,1.8370172E3,2.7675928E2,7.5928503E2,1.6088541E3,3.761612E2,1.4516307E3,3.9019307E3,5.955968E2,1.2926172E2,3.3382996E2,1.0424292E2,0E0,0E0,0E0,0E0,0E0,0E0,0E0,0E0,0E0,0E0,0E0,0E0,0E0,0E0,0E0,0E0],"parents":[2147483647,0,0,1,1,2,2,3,3,4,4,5,5,6,6,7,7,8,8,9,9,10,10,11,11,12,12,13,13,14,14],"right_children":[2,4,6,8,10,12,14,16,18,20,22,24,26,28,30,-1,-1,-1,-1,-1,-1,-1,-1,-1,-1,-1,-1,-1,-1,-1,-1],"split_conditions":[1.7849045E0,2.0304832E0,7.783526E-1,-1.5149302E0,-5.59025E-1,2.4535882E0,3.7783673E0,-2.088337E-1,6.802686E-2,-3.990471E0,8.370037E-1,1.7559378E0,1.9371452E0,2.0187545E0,1.872468E0,1.2347612E-2,-7.426175E-2,-1.9496877E-2,1.3160853E-1,5.8375016E-2,-1.5811997E-2,2.1488008E-1,2.9940143E-2,1.7622527E-1,9.999467E-4,3.2900006E-1,1.8880077E-1,8.769205E-2,-1.1086864E-1,7.222105E-2,1.7824526E-1],"split_indices":[0,96,41,33,4,63,64,0,60,0,30,62,0,30,49,0,0,0,0,0,0,0,0,0,0,0,0,0,0,0,0],"split_type":[0,0,0,0,0,0,0,0,0,0,0,0,0,0,0,0,0,0,0,0,0,0,0,0,0,0,0,0,0,0,0],"sum_hessian":[4.1738375E5,3.840105E5,3.337323E4,1.23943734E5,2.6006678E5,2.2833223E4,1.0540008E4,1.1239815E5,1.1545586E4,1.703901E5,8.967669E4,1.1670891E4,1.1162332E4,5.335814E3,5.204194E3,5.03609E4,6.2037246E4,2.8271418E3,8.718444E3,4.732797E4,1.2306212E5,1.867254E4,7.100415E4,8.0063867E3,3.6645037E3,9.311553E2,1.0231177E4,1.5430753E3,3.7927385E3,1.8878601E3,3.3163335E3],"tree_param":{"num_deleted":"0","num_feature":"161","num_nodes":"31","size_leaf_vector":"1"}},{"base_weights":[-1.4015368E-1,-9.075246E-2,-3.429171E-1,-1.1010414E-1,1.01945475E-1,-2.648572E-1,-3.8459378E-1,-7.115039E-2,-2.454785E-1,2.8623527E-1,-2.0478216E-1,-2.8274915E-1,1.3030386E-1,-3.3401373E-1,-4.4211552E-1,-7.217605E-2,-1.24405455E-2,-5.8908693E-2,-1.355411E-1,4.94458E-2,1.5674561E-1,-1.7943107E-1,-5.341659E-2,-8.872604E-2,-1.4149795E-1,3.888547E-1,1.9501541E-3,-1.4906898E-1,-7.218211E-2,-1.2060328E-1,-1.6540238E-1],"categories":[],"categories_nodes":[],"categories_segments":[],"categories_sizes":[],"default_left":[0,1,0,0,0,0,0,0,0,0,0,0,0,0,0,0,0,0,0,0,0,0,0,0,0,0,0,0,0,0,0],"id":28,"left_children":[1,3,5,7,9,11,13,15,17,19,21,23,25,27,29,-1,-1,-1,-1,-1,-1,-1,-1,-1,-1,-1,-1,-1,-1,-1,-1],"loss_changes":[2.2637236E3,6.7766284E2,1.4393457E2,8.7082043E2,9.3753406E2,1.0901526E2,8.382324E1,6.069465E2,3.9563672E2,2.300376E2,1.0302695E2,5.892688E1,7.927635E1,1.6412463E2,2.4914062E1,0E0,0E0,0E0,0E0,0E0,0E0,0E0,0E0,0E0,0E0,0E0,0E0,0E0,0E0,0E0,0E0],"parents":[2147483647,0,0,1,1,2,2,3,3,4,4,5,5,6,6,7,7,8,8,9,9,10,10,11,11,12,12,13,13,14,14],"right_children":[2,4,6,8,10,12,14,16,18,20,22,24,26,28,30,-1,-1,-1,-1,-1,-1,-1,-1,-1,-1,-1,-1,-1,-1,-1,-1],"split_conditions":[-2.0849289E-1,1.0997372E0,-1.6707969E-1,-1.0463539E-1,5.922799E0,9.653713E-1,1.7019534E0,-1.354914E1,1.5025591E0,-4.2504363E0,-1.1455046E1,7.169035E0,1.6916103E0,9.722259E-1,-3.1965575E-1,-7.217605E-2,-1.24405455E-2,-5.8908693E-2,-1.355411E-1,4.94458E-2,1.5674561E-1,-1.7943107E-1,-5.341659E-2,-8.872604E-2,-1.4149795E-1,3.888547E-1,1.9501541E-3,-1.4906898E-1,-7.218211E-2,-1.2060328E-1,-1.6540238E-1],"split_indices":[4,52,3,40,96,7,95,37,159,2,5,160,32,86,131,0,0,0,0,0,0,0,0,0,0,0,0,0,0,0,0],"split_type":[0,0,0,0,0,0,0,0,0,0,0,0,0,0,0,0,0,0,0,0,0,0,0,0,0,0,0,0,0,0,0],"sum_hessian":[2.259957E5,1.8172238E5,4.427333E4,1.6513875E5,1.6583627E4,1.5412766E4,2.8860564E4,1.2823954E5,3.6899203E4,1.0359464E4,6.224164E3,1.4745413E4,6.673518E2,1.536053E4,1.3500033E4,2.8279947E4,9.995959E4,2.271361E4,1.4185593E4,5.1856167E3,5.1738467E3,1.00165027E3,5.2225137E3,1.1097631E4,3.6477822E3,7.665905E1,5.906928E2,9.600725E3,5.7598057E3,1.88347E3,1.1616563E4],"tree_param":{"num_deleted":"0","num_feature":"161","num_nodes":"31","size_leaf_vector":"1"}},{"base_weights":[2.2617143E-2,-1.0281426E-1,5.8216088E-2,-4.338576E-2,-6.6423583E-1,1.7998934E-1,-5.84628E-3,-1.589056E-2,-6.399957E-1,-1.1742716E0,-2.1063517E-1,1.4182507E-1,7.1010756E-1,-4.8484683E-1,1.1308762E-2,2.6940588E-2,-5.6985363E-2,-9.367702E-2,-3.5052267E-1,8.670293E-2,-4.790489E-1,4.1277155E-2,-2.1836141E-1,6.8779945E-2,-1.1079853E-2,2.8392923E-1,-5.3428136E-2,-2.6458648E-1,1.142766E-2,3.6459E-2,-3.652365E-2],"categories":[],"categories_nodes":[],"categories_segments":[],"categories_sizes":[],"default_left":[1,0,0,0,0,0,0,0,0,0,0,0,0,0,0,0,0,0,0,0,0,0,0,0,0,0,0,0,0,0,0],"id":29,"left_children":[1,3,5,7,9,11,13,15,17,19,21,23,25,27,29,-1,-1,-1,-1,-1,-1,-1,-1,-1,-1,-1,-1,-1,-1,-1,-1],"loss_changes":[1.764257E3,2.9142563E3,2.400886E3,1.295688E3,1.9340657E3,2.1463474E3,1.6571841E3,9.755428E2,4.4072205E2,8.7142773E2,5.7016516E2,8.409833E2,4.807976E2,9.0097986E2,1.9752023E3,0E0,0E0,0E0,0E0,0E0,0E0,0E0,0E0,0E0,0E0,0E0,0E0,0E0,0E0,0E0,0E0],"parents":[2147483647,0,0,1,1,2,2,3,3,4,4,5,5,6,6,7,7,8,8,9,9,10,10,11,11,12,12,13,13,14,14],"right_children":[2,4,6,8,10,12,14,16,18,20,22,24,26,28,30,-1,-1,-1,-1,-1,-1,-1,-1,-1,-1,-1,-1,-1,-1,-1,-1],"split_conditions":[-5.072088E1,2.2993565E-1,-2.3406982E0,-3.5306334E0,1.1238451E0,-3.1389396E0,-4.0397915E1,5.414261E-1,2.827203E-1,-6.78614E1,2.6369977E0,-7.891816E0,-2.4445167E0,3.940777E-1,-8.961258E0,2.6940588E-2,-5.6985363E-2,-9.367702E-2,-3.5052267E-1,8.670293E-2,-4.790489E-1,4.1277155E-2,-2.1836141E-1,6.8779945E-2,-1.1079853E-2,2.8392923E-1,-5.3428136E-2,-2.6458648E-1,1.142766E-2,3.6459E-2,-3.652365E-2],"split_indices":[97,7,35,3,30,34,129,21,17,97,127,34,67,136,97,0,0,0,0,0,0,0,0,0,0,0,0,0,0,0,0],"split_type":[0,0,0,0,0,0,0,0,0,0,0,0,0,0,0,0,0,0,0,0,0,0,0,0,0,0,0,0,0,0,0],"sum_hessian":[3.9510806E5,8.734605E4,3.0776203E5,7.898616E4,8.359892E3,1.06092945E5,2.016691E5,7.550737E4,3.478785E3,3.934401E3,4.4254907E3,9.896922E4,7.1237266E3,6.971954E3,1.9469712E5,4.61227E4,2.9384668E4,1.6278263E3,1.8509587E3,3.9155005E2,3.5428508E3,2.429834E3,1.9956566E3,7.700534E4,2.1963877E4,6.5264116E3,5.973151E2,4.6972715E3,2.2746829E3,1.08295555E5,8.640158E4],"tree_param":{"num_deleted":"0","num_feature":"161","num_nodes":"31","size_leaf_vector":"1"}},{"base_weights":[4.0430088E-2,2.6738819E-2,4.8803183E-1,-7.11038E-2,6.268389E-2,2.934986E-1,4.949563E-1,4.7799766E-2,-1.5704395E-1,-1.542365E-1,8.446185E-2,-3.3156604E-1,4.341486E-1,9.610983E-2,4.9836996E-1,-2.9731048E-2,7.537803E-2,-7.842128E-2,4.4874072E-2,-6.597859E-2,3.1639057E-1,1.19116575E-1,1.903506E-2,1.0145655E-1,-5.9961474E-1,-8.3962284E-2,1.6460995E-1,1.576813E-1,-3.5552353E-1,7.458555E-2,1.802638E-1],"categories":[],"categories_nodes":[],"categories_segments":[],"categories_sizes":[],"default_left":[0,1,0,0,0,0,0,0,0,0,0,0,0,0,0,0,0,0,0,0,0,0,0,0,0,0,0,0,0,0,0],"id":30,"left_children":[1,3,5,7,9,11,13,15,17,19,21,23,25,27,29,-1,-1,-1,-1,-1,-1,-1,-1,-1,-1,-1,-1,-1,-1,-1,-1],"loss_changes":[2.50356E3,1.3941504E3,1.6187988E1,1.0883284E3,1.369542E3,3.7000134E1,1.5891846E1,9.414196E2,1.0587219E3,7.93623E2,2.0505835E3,6.3944984E1,5.3893967E0,3.7699993E1,7.8825684E0,0E0,0E0,0E0,0E0,0E0,0E0,0E0,0E0,0E0,0E0,0E0,0E0,0E0,0E0,0E0,0E0],"parents":[2147483647,0,0,1,1,2,2,3,3,4,4,5,5,6,6,7,7,8,8,9,9,10,10,11,11,12,12,13,13,14,14],"right_children":[2,4,6,8,10,12,14,16,18,20,22,24,26,28,30,-1,-1,-1,-1,-1,-1,-1,-1,-1,-1,-1,-1,-1,-1,-1,-1],"split_conditions":[3.4490585E0,1.7990348E0,3.8717918E0,-2.7992916E-1,1.7704833E-1,3.9028847E0,-5.996621E1,-3.4707725E-1,-2.3765194E0,3.5627794E-1,6.935203E-1,1.7329748E0,7.920009E-2,3.2486566E2,-5.3042985E-2,-2.9731048E-2,7.537803E-2,-7.842128E-2,4.4874072E-2,-6.597859E-2,3.1639057E-1,1.19116575E-1,1.903506E-2,1.0145655E-1,-5.9961474E-1,-8.3962284E-2,1.6460995E-1,1.576813E-1,-3.5552353E-1,7.458555E-2,1.802638E-1],"split_indices":[0,160,0,0,27,32,133,135,1,0,30,40,88,0,160,0,0,0,0,0,0,0,0,0,0,0,0,0,0,0,0],"split_type":[0,0,0,0,0,0,0,0,0,0,0,0,0,0,0,0,0,0,0,0,0,0,0,0,0,0,0,0,0,0,0],"sum_hessian":[4.085298E5,3.964056E5,1.2124218E4,1.06503016E5,2.8990256E5,4.182235E2,1.1705994E4,4.468247E4,6.1820543E4,2.6449096E4,2.6345347E5,7.65719E1,3.416516E2,9.958639E1,1.1606407E4,2.4728719E4,1.9953752E4,5.0847316E4,1.0973227E4,2.5726814E4,7.222815E2,2.9932365E4,2.3352112E5,5.299393E1,2.3577969E1,1.1126271E1,3.3052533E2,7.615554E1,2.3430853E1,9.413552E1,1.1512272E4],"tree_param":{"num_deleted":"0","num_feature":"161","num_nodes":"31","size_leaf_vector":"1"}},{"base_weights":[-1.1012889E-1,3.3802092E-2,-4.3744832E-1,-1.117533E-1,6.949087E-2,-3.077866E-1,-4.7242647E-1,9.294818E-2,-3.732705E-1,1.2985912E-1,-4.6012956E-3,-4.208504E-1,4.3063357E-2,-4.8788226E-1,-3.8704088E-1,-1.705986E-1,5.2139405E-2,-1.5459159E-1,4.729556E-2,2.8425323E-2,1.1214159E-1,1.9998986E-2,-4.4065595E-2,-1.7109546E-1,-9.773144E-2,9.506458E-2,-1.4063339E-1,-1.573369E-1,-1.7975357E-1,-9.112858E-2,-1.8129951E-1],"categories":[],"categories_nodes":[],"categories_segments":[],"categories_sizes":[],"default_left":[0,1,0,0,0,1,1,1,0,0,0,1,0,0,0,0,0,0,0,0,0,0,0,0,0,0,0,0,0,0,0],"id":31,"left_children":[1,3,5,7,9,11,13,15,17,19,21,23,25,27,29,-1,-1,-1,-1,-1,-1,-1,-1,-1,-1,-1,-1,-1,-1,-1,-1],"loss_changes":[1.0076039E4,7.717031E2,2.9611523E2,1.5659943E3,5.3362195E2,5.5065173E2,6.770117E1,4.8265546E2,3.640039E2,6.077904E2,3.7958035E2,8.5200195E1,3.2446024E2,2.509668E1,1.2302063E2,0E0,0E0,0E0,0E0,0E0,0E0,0E0,0E0,0E0,0E0,0E0,0E0,0E0,0E0,0E0,0E0],"parents":[2147483647,0,0,1,1,2,2,3,3,4,4,5,5,6,6,7,7,8,8,9,9,10,10,11,11,12,12,13,13,14,14],"right_children":[2,4,6,8,10,12,14,16,18,20,22,24,26,28,30,-1,-1,-1,-1,-1,-1,-1,-1,-1,-1,-1,-1,-1,-1,-1,-1],"split_conditions":[-1.1238861E-1,7.143022E-5,2.1130943E-1,-1.1971359E0,1.7599581E0,6.3870513E-1,4.8228714E-4,-1.3251252E0,3.4611893E-1,-2.5823395E0,-1.3620304E-1,-6.047265E-1,2.2575254E0,3.8961792E-1,1.0912552E0,-1.705986E-1,5.2139405E-2,-1.5459159E-1,4.729556E-2,2.8425323E-2,1.1214159E-1,1.9998986E-2,-4.4065595E-2,-1.7109546E-1,-9.773144E-2,9.506458E-2,-1.4063339E-1,-1.573369E-1,-1.7975357E-1,-9.112858E-2,-1.8129951E-1],"split_indices":[0,54,0,0,63,51,66,54,58,2,105,35,63,0,0,0,0,0,0,0,0,0,0,0,0,0,0,0,0,0,0],"split_type":[0,0,0,0,0,0,0,0,0,0,0,0,0,0,0,0,0,0,0,0,0,0,0,0,0,0,0,0,0,0,0],"sum_hessian":[2.1387553E5,1.4855353E5,6.5322004E4,2.9251248E4,1.1930228E5,1.38799E4,5.14421E4,1.6408338E4,1.2842911E4,6.573912E4,5.3563168E4,1.0496978E4,3.3829224E3,4.3553668E4,7.8884326E3,1.3752656E3,1.5033072E4,1.1557133E4,1.285778E3,5.1351145E4,1.4387973E4,3.545781E4,1.810536E4,7.6925264E3,2.804452E3,2.2412485E3,1.141674E3,8.004151E3,3.554952E4,3.6726855E3,4.215747E3],"tree_param":{"num_deleted":"0","num_feature":"161","num_nodes":"31","size_leaf_vector":"1"}},{"base_weights":[1.7458348E-2,-5.193022E-1,4.9201798E-2,-5.2346003E-1,-4.235817E-1,-1.3728192E-1,7.991749E-2,-1.8658555E-1,-1.9072822E-1,-1.9446164E-1,-7.690006E-2,1.498139E-1,-3.058048E-1,1.04650535E-1,-2.0336571E-1,2.4310756E-1,-1.7152491E-1,8.034162E-2,-1.06150486E-1,3.0805858E-2,-1.4292821E-1,1.2521513E-1,2.6888747E-2,-1.304471E-1,-2.1604104E-3],"categories":[],"categories_nodes":[],"categories_segments":[],"categories_sizes":[],"default_left":[0,0,0,0,0,0,0,0,0,0,0,0,0,0,1,0,0,0,0,0,0,0,0,0,0],"id":32,"left_children":[1,3,5,7,9,11,13,-1,-1,-1,15,17,19,21,23,-1,-1,-1,-1,-1,-1,-1,-1,-1,-1],"loss_changes":[6.6036396E3,8.390625E0,2.0960352E3,4.0478516E-1,3.6583176E1,2.5037646E3,2.2013083E3,0E0,0E0,0E0,6.920852E1,6.244609E2,1.1641733E3,2.1050642E3,7.9162354E2,0E0,0E0,0E0,0E0,0E0,0E0,0E0,0E0,0E0,0E0],"parents":[2147483647,0,0,1,1,2,2,3,3,4,4,5,5,6,6,10,10,11,11,12,12,13,13,14,14],"right_children":[2,4,6,8,10,12,14,-1,-1,-1,16,18,20,22,24,-1,-1,-1,-1,-1,-1,-1,-1,-1,-1],"split_conditions":[-3.146586E0,-3.4146729E0,-6.1242676E-1,-8.663368E0,-3.2167408E0,-3.6475158E-1,1.7849045E0,-1.8658555E-1,-1.9072822E-1,-1.9446164E-1,-2.7975311E0,3.143036E-1,-2.3314056E0,1.4727426E-1,5.426885E-1,2.4310756E-1,-1.7152491E-1,8.034162E-2,-1.06150486E-1,3.0805858E-2,-1.4292821E-1,1.2521513E-1,2.6888747E-2,-1.304471E-1,-2.1604104E-3],"split_indices":[0,0,0,0,2,18,0,0,0,0,37,24,0,25,105,0,0,0,0,0,0,0,0,0,0],"split_type":[0,0,0,0,0,0,0,0,0,0,0,0,0,0,0,0,0,0,0,0,0,0,0,0,0],"sum_hessian":[3.8756616E5,2.16396E4,3.6592653E5,2.0734484E4,9.051166E2,5.1747746E4,3.141788E5,1.1470234E4,9.264249E3,6.76912E2,2.282046E2,1.9140342E4,3.2607406E4,2.889515E5,2.5227305E4,7.892746E1,1.4927715E2,1.643036E4,2.7099807E3,6.163325E3,2.644408E4,3.1694008E4,2.5725748E5,1.3971612E4,1.1255691E4],"tree_param":{"num_deleted":"0","num_feature":"161","num_nodes":"25","size_leaf_vector":"1"}},{"base_weights":[3.7035942E-2,2.6811047E-2,4.7767824E-1,-5.8349334E-2,5.5814963E-2,2.679718E-1,4.8573855E-1,-9.649424E-2,2.3027714E-1,5.954904E-3,1.3393545E-1,-4.322242E-1,4.0995842E-1,1.17641E-2,4.8949534E-1,4.8824726E-3,-7.960204E-2,7.4964887E-1,7.711284E-2,1.4937408E-1,-3.2545084E-3,1.11637205E-1,2.8681369E-3,1.0166713E-1,-5.0494486E-1,5.5044517E-2,1.748096E-1,-8.646322E-1,1.597035E-1,1.7841299E-1,1.00403994E-1],"categories":[],"categories_nodes":[],"categories_segments":[],"categories_sizes":[],"default_left":[0,0,0,0,0,0,0,0,0,0,0,0,0,0,0,0,0,0,0,0,0,0,0,0,0,0,0,0,0,0,0],"id":33,"left_children":[1,3,5,7,9,11,13,15,17,19,21,23,25,27,29,-1,-1,-1,-1,-1,-1,-1,-1,-1,-1,-1,-1,-1,-1,-1,-1],"loss_changes":[1.7947072E3,9.615811E2,1.5138916E1,1.0889309E3,1.1311383E3,3.3640785E1,1.5481934E1,1.1981973E3,3.4329254E2,1.0871024E3,2.5107007E3,4.008693E1,5.375828E0,7.342567E1,1.0940918E1,0E0,0E0,0E0,0E0,0E0,0E0,0E0,0E0,0E0,0E0,0E0,0E0,0E0,0E0,0E0,0E0],"parents":[2147483647,0,0,1,1,2,2,3,3,4,4,5,5,6,6,7,7,8,8,9,9,10,10,11,11,12,12,13,13,14,14],"right_children":[2,4,6,8,10,12,14,16,18,20,22,24,26,28,30,-1,-1,-1,-1,-1,-1,-1,-1,-1,-1,-1,-1,-1,-1,-1,-1],"split_conditions":[3.4490585E0,1.7597449E0,3.8717918E0,-1.7746754E0,-1.4072607E0,3.7796206E0,-5.9249114E-2,-2.0805664E-2,-5.0742835E-1,-3.0009487E1,7.578183E-1,2.8762696E0,4.261862E0,-2.6126754E0,9.251088E0,4.8824726E-3,-7.960204E-2,7.4964887E-1,7.711284E-2,1.4937408E-1,-3.2545084E-3,1.11637205E-1,2.8681369E-3,1.0166713E-1,-5.0494486E-1,5.5044517E-2,1.748096E-1,-8.646322E-1,1.597035E-1,1.7841299E-1,1.00403994E-1],"split_indices":[0,128,0,65,3,96,32,0,95,0,150,157,160,99,4,0,0,0,0,0,0,0,0,0,0,0,0,0,0,0,0],"split_type":[0,0,0,0,0,0,0,0,0,0,0,0,0,0,0,0,0,0,0,0,0,0,0,0,0,0,0,0,0,0,0],"sum_hessian":[3.983368E5,3.8930425E5,9.03256E3,9.890412E4,2.9040016E5,3.355933E2,8.696967E3,8.735936E4,1.1544758E4,1.7726355E5,1.131366E5,5.623426E1,2.79359E2,6.842391E1,8.628543E3,4.6391223E4,4.0968137E4,9.823248E1,1.1446525E4,6.2686367E3,1.709949E5,4.7168957E4,6.596765E4,3.2793266E1,2.3440998E1,6.4189804E1,2.1516922E2,9.692715E0,5.87312E1,8.384477E3,2.4406587E2],"tree_param":{"num_deleted":"0","num_feature":"161","num_nodes":"31","size_leaf_vector":"1"}},{"base_weights":[-9.206057E-2,2.6621478E-2,-4.27492E-1,-2.5035063E-2,1.2230747E-1,-3.1767815E-1,-4.670136E-1,2.7120315E-2,-1.8303522E-1,1.9278742E-1,-5.920537E-2,-4.279219E-1,2.8911127E-2,-4.858061E-1,-3.6154202E-1,5.2672822E-2,-2.3103978E-2,-1.567865E-1,-1.6107095E-2,1.263876E-1,2.9490758E-2,-1.24945655E-1,-1.8298143E-3,-1.7042165E-1,-1.0708591E-1,7.444642E-2,-1.2623468E-1,-1.8188794E-1,-1.6695544E-1,-7.3750705E-2,-1.8030526E-1],"categories":[],"categories_nodes":[],"categories_segments":[],"categories_sizes":[],"default_left":[0,0,0,0,0,0,0,0,1,0,0,0,0,1,0,0,0,0,0,0,0,0,0,0,0,0,0,0,0,0,0],"id":34,"left_children":[1,3,5,7,9,11,13,15,17,19,21,23,25,27,29,-1,-1,-1,-1,-1,-1,-1,-1,-1,-1,-1,-1,-1,-1,-1,-1],"loss_changes":[8.0331963E3,7.367439E2,2.287334E2,7.976719E2,6.685284E2,5.334187E2,7.668652E1,7.919622E2,8.387809E2,6.6054565E2,2.2772195E2,6.2689575E1,2.27597E2,1.3865723E1,1.2798273E2,0E0,0E0,0E0,0E0,0E0,0E0,0E0,0E0,0E0,0E0,0E0,0E0,0E0,0E0,0E0,0E0],"parents":[2147483647,0,0,1,1,2,2,3,3,4,4,5,5,6,6,7,7,8,8,9,9,10,10,11,11,12,12,13,13,14,14],"right_children":[2,4,6,8,10,12,14,16,18,20,22,24,26,28,30,-1,-1,-1,-1,-1,-1,-1,-1,-1,-1,-1,-1,-1,-1,-1,-1],"split_conditions":[-6.565857E-2,4.882831E-1,3.0400848E-1,-8.6644363E-1,3.0564408E0,7.190333E-1,8.0039024E-2,8.7297726E-1,1.4724445E-1,-1.3640928E-1,-2.3882732E1,-4.9627444E-1,2.2582607E0,9.760106E-1,1.1177902E0,5.2672822E-2,-2.3103978E-2,-1.567865E-1,-1.6107095E-2,1.263876E-1,2.9490758E-2,-1.24945655E-1,-1.8298143E-3,-1.7042165E-1,-1.0708591E-1,7.444642E-2,-1.2623468E-1,-1.8188794E-1,-1.6695544E-1,-7.3750705E-2,-1.8030526E-1],"split_indices":[0,18,0,0,31,21,2,31,121,8,4,3,31,155,0,0,0,0,0,0,0,0,0,0,0,0,0,0,0,0,0],"split_type":[0,0,0,0,0,0,0,0,0,0,0,0,0,0,0,0,0,0,0,0,0,0,0,0,0,0,0,0,0,0,0],"sum_hessian":[2.0178867E5,1.490521E5,5.2736562E4,9.679669E4,5.2255414E4,1.3959115E4,3.877745E4,7.277478E4,2.4021908E4,3.7640035E4,1.4615378E4,1.0590299E4,3.3688164E3,3.291006E4,5.867388E3,3.156494E4,4.120984E4,8.500446E3,1.5521462E4,1.5503392E4,2.2136645E4,2.31215E3,1.2303228E4,7.851181E3,2.739118E3,2.2941191E3,1.0746974E3,1.7475936E4,1.5434124E4,2.7626619E3,3.1047266E3],"tree_param":{"num_deleted":"0","num_feature":"161","num_nodes":"31","size_leaf_vector":"1"}},{"base_weights":[9.886111E-3,-5.1441187E-1,3.657567E-2,-1.8675333E-1,-4.157263E-1,-8.60088E-2,7.239163E-2,-1.9174628E-1,-7.491092E-2,2.0894594E-1,-2.0787436E-1,8.312302E-2,-4.6544325E-1,2.3557284E-1,-1.611311E-1,-5.33574E-2,1.09134994E-1,5.8686227E-2,-9.583341E-2,5.773225E-2,3.8012424E-3,-1.7150423E-1,-2.2974666E-2],"categories":[],"categories_nodes":[],"categories_segments":[],"categories_sizes":[],"default_left":[0,0,0,0,0,0,0,0,0,0,0,0,0,0,0,0,0,0,0,0,0,0,0],"id":35,"left_children":[1,3,5,-1,7,9,11,-1,13,15,17,19,21,-1,-1,-1,-1,-1,-1,-1,-1,-1,-1],"loss_changes":[5.154236E3,7.4384766E0,1.5388435E3,0E0,3.0154816E1,2.8486975E3,1.565584E3,0E0,5.3215622E1,7.796792E2,1.213291E3,1.4906282E3,2.3321655E1,0E0,0E0,0E0,0E0,0E0,0E0,0E0,0E0,0E0,0E0],"parents":[2147483647,0,0,1,1,2,2,4,4,5,5,6,6,8,8,9,9,10,10,11,11,12,12],"right_children":[2,4,6,-1,8,10,12,-1,14,16,18,20,22,-1,-1,-1,-1,-1,-1,-1,-1,-1,-1],"split_conditions":[-3.146586E0,-3.4146729E0,-2.7992916E-1,-1.8675333E-1,-3.2167408E0,-1.5654156E-1,3.8717918E0,-1.9174628E-1,-2.6745274E0,-1.1971359E0,-2.3314056E0,-3.995782E0,9.251088E0,2.3557284E-1,-1.611311E-1,-5.33574E-2,1.09134994E-1,5.8686227E-2,-9.583341E-2,5.773225E-2,3.8012424E-3,-1.7150423E-1,-2.2974666E-2],"split_indices":[0,0,0,0,2,118,0,0,105,0,0,2,4,0,0,0,0,0,0,0,0,0,0],"split_type":[0,0,0,0,0,0,0,0,0,0,0,0,0,0,0,0,0,0,0,0,0,0,0],"sum_hessian":[3.683341E5,1.7841033E4,3.5049306E5,1.7084174E4,7.5686E2,7.924975E4,2.712433E5,5.6313696E2,1.93723E2,2.3170002E4,5.6079746E4,2.6593794E5,5.305401E3,6.526046E1,1.2846255E2,4.835785E3,1.8334217E4,7.620783E3,4.8458965E4,1.2881415E5,1.3712377E5,5.164319E3,1.4108205E2],"tree_param":{"num_deleted":"0","num_feature":"161","num_nodes":"23","size_leaf_vector":"1"}},{"base_weights":[3.493191E-2,2.7815823E-2,4.7247824E-1,9.8161146E-2,-2.3249509E-3,-1.6862568E-1,4.7858247E-1,4.100536E-2,4.1909176E-1,-4.3442428E-2,1.0166586E-1,4.0363503E-1,-1.244881E0,-4.129956E-2,4.8349956E-1,5.752196E-3,1.8975748E-1,2.676576E-1,5.7717387E-2,3.4172856E-3,-3.9985858E-2,8.9488804E-2,-1.3774863E-2,1.7759053E-1,-1.1307217E-1,-5.549225E-1,-1.7695734E-2,-5.1165485E-1,1.8013373E-1,1.7686479E-1,9.180099E-2],"categories":[],"categories_nodes":[],"categories_segments":[],"categories_sizes":[],"default_left":[0,0,0,0,1,0,0,0,0,0,0,0,0,0,0,0,0,0,0,0,0,0,0,0,0,0,0,0,0,0,0],"id":36,"left_children":[1,3,5,7,9,11,13,15,17,19,21,23,25,27,29,-1,-1,-1,-1,-1,-1,-1,-1,-1,-1,-1,-1,-1,-1,-1,-1],"loss_changes":[1.2124486E3,8.124325E2,2.4468262E1,2.10821E3,1.1469684E3,3.7157608E1,1.5800659E1,1.1868667E3,1.4583657E3,6.88194E2,1.5625698E3,2.7042475E0,7.337372E0,4.4634518E1,1.0762207E1,0E0,0E0,0E0,0E0,0E0,0E0,0E0,0E0,0E0,0E0,0E0,0E0,0E0,0E0,0E0,0E0],"parents":[2147483647,0,0,1,1,2,2,3,3,4,4,5,5,6,6,7,7,8,8,9,9,10,10,11,11,12,12,13,13,14,14],"right_children":[2,4,6,8,10,12,14,16,18,20,22,24,26,28,30,-1,-1,-1,-1,-1,-1,-1,-1,-1,-1,-1,-1,-1,-1,-1,-1],"split_conditions":[3.8717918E0,-3.8247494E1,-5.6018967E1,2.910517E-1,-4.7042045E-1,3.2486566E2,-5.3814888E-2,-5.78633E-1,1.1238451E0,1.1805916E-1,7.923139E-1,-2.4085708E-1,-6.49094E1,7.499489E1,9.251088E0,5.752196E-3,1.8975748E-1,2.676576E-1,5.7717387E-2,3.4172856E-3,-3.9985858E-2,8.9488804E-2,-1.3774863E-2,1.7759053E-1,-1.1307217E-1,-5.549225E-1,-1.7695734E-2,-5.1165485E-1,1.8013373E-1,1.7686479E-1,9.180099E-2],"split_indices":[0,129,70,8,130,0,128,36,30,0,21,82,4,0,4,0,0,0,0,0,0,0,0,0,0,0,0,0,0,0,0],"split_type":[0,0,0,0,0,0,0,0,0,0,0,0,0,0,0,0,0,0,0,0,0,0,0,0,0,0,0,0,0,0,0],"sum_hessian":[3.8940506E5,3.8317434E5,6.230739E3,1.1493235E5,2.68242E5,5.851487E1,6.172224E3,9.755884E4,1.7373506E4,1.9223411E5,7.600788E4,3.8610214E1,1.9904654E1,5.7761402E1,6.1144624E3,9.278291E4,4.7759424E3,7.708222E3,9.665284E3,1.0783238E5,8.440172E4,3.707815E4,3.892973E4,3.4599995E1,4.010221E0,1.5717245E1,4.187408E0,1.5824071E1,4.1937332E1,5.9117285E3,2.0273395E2],"tree_param":{"num_deleted":"0","num_feature":"161","num_nodes":"31","size_leaf_vector":"1"}},{"base_weights":[-7.756096E-2,1.7139649E-2,-4.2147255E-1,-4.2393054E-3,1.7944925E-1,-3.2321352E-1,-4.5919612E-1,3.291074E-2,-1.2731768E-1,2.6305306E-1,-1.0096177E-1,-4.227363E-1,6.1027255E-2,-4.8233867E-1,-3.4183392E-1,4.151776E-2,-1.0054621E-2,-1.5086189E-1,-9.732114E-3,1.4515008E-1,8.322655E-3,-8.016666E-3,-1.6464585E-1,-1.735753E-1,-1.1573987E-1,2.3326115E-1,-2.3864368E-2,-1.8114969E-1,-1.6625834E-1,-6.658345E-2,-1.7777056E-1],"categories":[],"categories_nodes":[],"categories_segments":[],"categories_sizes":[],"default_left":[0,1,0,0,0,1,1,0,1,0,0,1,0,1,0,0,0,0,0,0,0,0,0,0,0,0,0,0,0,0,0],"id":37,"left_children":[1,3,5,7,9,11,13,15,17,19,21,23,25,27,29,-1,-1,-1,-1,-1,-1,-1,-1,-1,-1,-1,-1,-1,-1,-1,-1],"loss_changes":[6.260297E3,5.22992E2,1.5368604E2,6.0893805E2,4.1126135E2,4.404286E2,8.128027E1,5.129579E2,9.0339703E2,4.5436475E2,1.12999016E2,5.4868896E1,1.7715161E2,1.0480469E1,1.1774487E2,0E0,0E0,0E0,0E0,0E0,0E0,0E0,0E0,0E0,0E0,0E0,0E0,0E0,0E0,0E0,0E0],"parents":[2147483647,0,0,1,1,2,2,3,3,4,4,5,5,6,6,7,7,8,8,9,9,10,10,11,11,12,12,13,13,14,14],"right_children":[2,4,6,8,10,12,14,16,18,20,22,24,26,28,30,-1,-1,-1,-1,-1,-1,-1,-1,-1,-1,-1,-1,-1,-1,-1,-1],"split_conditions":[7.520819E-3,1.1012102E0,3.5627794E-1,-8.189659E-1,3.2160232E0,7.8829104E-1,8.2534365E-2,-9.6871424E-1,1.4139012E-1,-2.0792961E-1,-6.1242676E-1,5.0449216E-1,-5.4182632E1,1.0231162E0,1.1177902E0,4.151776E-2,-1.0054621E-2,-1.5086189E-1,-9.732114E-3,1.4515008E-1,8.322655E-3,-8.016666E-3,-1.6464585E-1,-1.735753E-1,-1.1573987E-1,2.3326115E-1,-2.3864368E-2,-1.8114969E-1,-1.6625834E-1,-6.658345E-2,-1.7777056E-1],"split_indices":[0,116,0,0,95,53,66,105,152,100,0,120,65,156,0,0,0,0,0,0,0,0,0,0,0,0,0,0,0,0,0],"split_type":[0,0,0,0,0,0,0,0,0,0,0,0,0,0,0,0,0,0,0,0,0,0,0,0,0,0,0,0,0,0,0],"sum_hessian":[1.9221736E5,1.5071652E5,4.1500844E4,1.3317594E5,1.754058E4,1.1515596E4,2.9985246E4,1.0229876E5,3.0877182E4,1.3512057E4,4.0285225E3,9.146458E3,2.369138E3,2.5043771E4,4.9414736E3,4.3445305E4,5.8853457E4,7.8978447E3,2.2979336E4,8.529465E3,4.9825923E3,3.3007527E3,7.2776984E2,5.761302E3,3.3851562E3,4.2158426E2,1.9475536E3,1.2405812E4,1.263796E4,2.432575E3,2.5088987E3],"tree_param":{"num_deleted":"0","num_feature":"161","num_nodes":"31","size_leaf_vector":"1"}},{"base_weights":[4.485973E-3,-5.1035964E-1,2.6905626E-2,-1.8546188E-1,-4.054958E-1,-9.2614464E-2,5.815617E-2,-5.09577E-1,-2.001449E-2,-3.1231763E-2,-5.952157E-1,2.0611195E-1,-3.7291767E-3,-1.8788564E-1,-7.648857E-2,1.9380444E-1,-1.470627E-1,-2.1287969E-1,6.809444E-3,-4.2506233E-1,-5.5585254E-2,6.0552776E-2,2.5465587E-1,-9.1410376E-2,9.055507E-3],"categories":[],"categories_nodes":[],"categories_segments":[],"categories_sizes":[],"default_left":[0,0,0,0,0,0,0,0,0,0,1,0,0,0,0,0,0,0,0,0,0,0,0,0,0],"id":38,"left_children":[1,3,5,-1,7,9,11,13,15,17,19,21,23,-1,-1,-1,-1,-1,-1,-1,-1,-1,-1,-1,-1],"loss_changes":[4.0608945E3,7.199951E0,1.2592273E3,0E0,2.6022682E1,2.1558218E3,2.4470837E3,1.7602081E0,3.0368935E1,1.7491377E3,1.9627854E3,1.4976531E3,1.361726E3,0E0,0E0,0E0,0E0,0E0,0E0,0E0,0E0,0E0,0E0,0E0,0E0],"parents":[2147483647,0,0,1,1,2,2,4,4,5,5,6,6,7,7,8,8,9,9,10,10,11,11,12,12],"right_children":[2,4,6,-1,8,10,12,14,16,18,20,22,24,-1,-1,-1,-1,-1,-1,-1,-1,-1,-1,-1,-1],"split_conditions":[-3.146586E0,-3.4146729E0,-5.1177444E1,-1.8546188E-1,-7.988779E0,3.2729015E-1,-2.523174E0,-5.5225697E0,-2.6133416E0,-1.1971359E0,1.1230092E0,-3.1206255E0,-5.442219E-1,-1.8788564E-1,-7.648857E-2,1.9380444E-1,-1.470627E-1,-2.1287969E-1,6.809444E-3,-4.2506233E-1,-5.5585254E-2,6.0552776E-2,2.5465587E-1,-9.1410376E-2,9.055507E-3],"split_indices":[0,0,65,0,65,40,3,129,42,0,62,2,0,0,0,0,0,0,0,0,0,0,0,0,0],"split_type":[0,0,0,0,0,0,0,0,0,0,0,0,0,0,0,0,0,0,0,0,0,0,0,0,0],"sum_hessian":[3.5181397E5,1.4680009E4,3.3713394E5,1.4032155E4,6.478536E2,6.987805E4,2.672559E5,5.0986615E2,1.3798744E2,6.227363E4,7.6044185E3,7.881715E4,1.8843875E5,4.8882727E2,2.103885E1,5.6457863E1,8.152958E1,5.1164272E3,5.7157203E4,3.265418E3,4.3390005E3,7.3276695E4,5.5404517E3,1.9502215E4,1.6893653E5],"tree_param":{"num_deleted":"0","num_feature":"161","num_nodes":"25","size_leaf_vector":"1"}},{"base_weights":[2.8788194E-2,2.3094049E-2,4.6106324E-1,-1.5158154E-1,3.7269972E-2,1.2285445E-1,4.771454E-1,-3.608365E-2,-3.517087E-1,2.7048005E-2,2.3563097E-1,1.8109222E-1,-7.2649163E-1,4.8955065E-1,1.4848994E-1,-5.0845653E-2,7.320685E-2,2.2759342E-1,-1.4439751E-1,1.8458964E-2,-3.7411723E-2,-5.5047534E-2,1.3818638E-1,-1.3334377E0,-7.72266E-2,8.0889255E-2,1.7830929E-1,-3.364044E0,1.7268388E-1],"categories":[],"categories_nodes":[],"categories_segments":[],"categories_sizes":[],"default_left":[0,0,0,0,0,0,0,0,0,1,0,0,0,0,0,0,0,0,0,0,0,0,0,0,0,0,0,0,0],"id":39,"left_children":[1,3,5,7,9,11,13,15,17,19,21,-1,23,25,27,-1,-1,-1,-1,-1,-1,-1,-1,-1,-1,-1,-1,-1,-1],"loss_changes":[9.475001E2,9.4080444E2,2.7162354E1,6.5920233E2,7.12546E2,7.4156006E1,1.9404053E1,4.5535724E2,5.0746448E2,1.0604126E3,9.918537E2,0E0,1.0754453E2,6.9022217E0,5.5528424E2,0E0,0E0,0E0,0E0,0E0,0E0,0E0,0E0,0E0,0E0,0E0,0E0,0E0,0E0],"parents":[2147483647,0,0,1,1,2,2,3,3,4,4,5,5,6,6,7,7,8,8,9,9,10,10,12,12,13,13,14,14],"right_children":[2,4,6,8,10,12,14,16,18,20,22,-1,24,26,28,-1,-1,-1,-1,-1,-1,-1,-1,-1,-1,-1,-1,-1,-1],"split_conditions":[3.8717918E0,7.886342E-2,-4.318763E-1,-5.442219E-1,-1.3060234E0,6.471652E1,9.251088E0,-1.6377004E0,-4.8984656E-1,4.1953236E-1,2.9510117E-1,1.8109222E-1,7.499489E1,-7.100944E0,9.756076E0,-5.0845653E-2,7.320685E-2,2.2759342E-1,-1.4439751E-1,1.8458964E-2,-3.7411723E-2,-5.5047534E-2,1.3818638E-1,-1.3334377E0,-7.72266E-2,8.0889255E-2,1.7830929E-1,-3.364044E0,1.7268388E-1],"split_indices":[0,29,151,0,1,0,4,66,120,102,0,0,0,48,15,0,0,0,0,0,0,0,0,0,0,0,0,0,0],"split_type":[0,0,0,0,0,0,0,0,0,0,0,0,0,0,0,0,0,0,0,0,0,0,0,0,0,0,0,0,0],"sum_hessian":[3.8494112E5,3.7993747E5,5.003675E3,2.8518844E4,3.5141862E5,2.2752167E2,4.776153E3,1.8083582E4,1.0435262E4,3.341978E5,1.7220793E4,1.5745175E2,7.006992E1,4.6019604E3,1.7419247E2,1.2565528E4,5.518054E3,4.9827524E2,9.936986E3,2.8202844E5,5.216937E4,4.7553057E3,1.2465487E4,9.365852E0,6.0704067E1,9.8684364E1,4.5032764E3,4.9547825E0,1.692377E2],"tree_param":{"num_deleted":"0","num_feature":"161","num_nodes":"29","size_leaf_vector":"1"}},{"base_weights":[-6.4187765E-2,1.4548065E-2,-4.0792754E-1,-4.536322E-1,2.1634119E-2,-3.079464E-1,-4.4806933E-1,-4.9593484E-1,-2.4741225E-1,-1.7667245E-2,8.9615375E-2,-4.387002E-1,-1.9937432E-3,-4.751699E-1,-3.1221342E-1,-1.8263292E-1,-1.3715534E-1,-1.2996222E-1,1.5394728E-1,1.3782965E-2,-4.8476733E-2,5.2602597E-2,-2.1907695E-2,-1.737131E-1,-1.1198193E-1,-2.4821885E-2,3.1505895E-1,-1.8044072E-1,-1.623583E-1,-4.5037508E-2,-1.7335232E-1],"categories":[],"categories_nodes":[],"categories_segments":[],"categories_sizes":[],"default_left":[0,0,0,0,1,0,0,0,0,0,0,1,0,0,0,0,0,0,0,0,0,0,0,0,0,0,0,0,0,0,0],"id":40,"left_children":[1,3,5,7,9,11,13,15,17,19,21,23,25,27,29,-1,-1,-1,-1,-1,-1,-1,-1,-1,-1,-1,-1,-1,-1,-1,-1],"loss_changes":[4.9846797E3,4.9715472E2,1.376211E2,1.936856E1,3.9440546E2,3.934973E2,9.0015625E1,2.2303467E0,2.9470259E1,6.1233215E2,4.597835E2,3.840808E1,1.7308728E2,1.2631836E1,1.2906125E2,0E0,0E0,0E0,0E0,0E0,0E0,0E0,0E0,0E0,0E0,0E0,0E0,0E0,0E0,0E0,0E0],"parents":[2147483647,0,0,1,1,2,2,3,3,4,4,5,5,6,6,7,7,8,8,9,9,10,10,11,11,12,12,13,13,14,14],"right_children":[2,4,6,8,10,12,14,16,18,20,22,24,26,28,30,-1,-1,-1,-1,-1,-1,-1,-1,-1,-1,-1,-1,-1,-1,-1,-1],"split_conditions":[3.4267426E-2,-4.5965466E1,3.7299347E-1,-5.134943E1,4.887228E-1,5.77081E-1,1.17938995E-1,-9.664917E0,-9.194565E-1,-1.1971359E0,3.1772196E0,-4.5092964E-1,1.0507803E0,1.0231162E0,1.0912552E0,-1.8263292E-1,-1.3715534E-1,-1.2996222E-1,1.5394728E-1,1.3782965E-2,-4.8476733E-2,5.2602597E-2,-2.1907695E-2,-1.737131E-1,-1.1198193E-1,-2.4821885E-2,3.1505895E-1,-1.8044072E-1,-1.623583E-1,-4.5037508E-2,-1.7335232E-1],"split_indices":[0,0,0,0,82,19,2,34,132,0,127,35,138,156,0,0,0,0,0,0,0,0,0,0,0,0,0,0,0,0,0],"split_type":[0,0,0,0,0,0,0,0,0,0,0,0,0,0,0,0,0,0,0,0,0,0,0,0,0,0,0,0,0,0,0],"sum_hessian":[1.8417562E5,1.4985202E5,3.4323617E4,2.233301E3,1.476187E5,9.835358E3,2.4488258E4,1.8519907E3,3.8131033E2,9.35413E4,5.407741E4,6.890261E3,2.9450974E3,2.0413645E4,4.0746145E3,1.6820673E3,1.699234E2,3.2678528E2,5.4525047E1,6.32779E4,3.0263402E4,3.931448E4,1.4762929E4,5.126757E3,1.763504E3,2.7370889E3,2.0800842E2,9.815369E3,1.0598274E4,1.9364568E3,2.1381577E3],"tree_param":{"num_deleted":"0","num_feature":"161","num_nodes":"31","size_leaf_vector":"1"}},{"base_weights":[1.7679082E-3,-5.0628936E-1,2.0622954E-2,-1.8431371E-1,-3.842509E-1,1.7049204E-1,-5.1904577E-3,-5.122816E-1,-4.7545186E-3,2.118681E-1,-5.066431E-1,-1.7553769E-1,4.277002E-2,-1.8678132E-1,-1.065879E-1,1.8553692E-1,-1.3133115E-1,2.4829842E-2,1.4047652E-1,6.646125E-2,-2.9641944E-1,-1.7289083E-1,-3.5310544E-2,3.3922825E-2,-2.9981017E-2],"categories":[],"categories_nodes":[],"categories_segments":[],"categories_sizes":[],"default_left":[0,0,0,0,0,0,0,0,0,0,0,0,0,0,0,0,0,0,0,0,0,0,0,0,0],"id":41,"left_children":[1,3,5,-1,7,9,11,13,15,17,19,21,23,-1,-1,-1,-1,-1,-1,-1,-1,-1,-1,-1,-1],"loss_changes":[3.263845E3,8.27417E0,1.2709286E3,0E0,2.6595398E1,1.3525076E3,2.289647E3,4.265213E-1,2.6239122E1,1.1593102E3,6.088347E2,1.4530511E3,1.418514E3,0E0,0E0,0E0,0E0,0E0,0E0,0E0,0E0,0E0,0E0,0E0,0E0],"parents":[2147483647,0,0,1,1,2,2,4,4,5,5,6,6,7,7,8,8,9,9,10,10,11,11,12,12],"right_children":[2,4,6,-1,8,10,12,14,16,18,20,22,24,-1,-1,-1,-1,-1,-1,-1,-1,-1,-1,-1,-1],"split_conditions":[-3.146586E0,-3.4146729E0,1.7011864E-1,-1.8431371E-1,-9.0467205E0,4.9485302E-1,-3.5305023E-2,-5.4713306E0,-2.6141784E0,-4.0708542E-1,2.5749195E-4,8.200763E-1,-9.013943E0,-1.8678132E-1,-1.065879E-1,1.8553692E-1,-1.3133115E-1,2.4829842E-2,1.4047652E-1,6.646125E-2,-2.9641944E-1,-1.7289083E-1,-3.5310544E-2,3.3922825E-2,-2.9981017E-2],"split_indices":[0,0,25,0,33,0,0,1,138,0,32,31,1,0,0,0,0,0,0,0,0,0,0,0,0],"split_type":[0,0,0,0,0,0,0,0,0,0,0,0,0,0,0,0,0,0,0,0,0,0,0,0,0],"sum_hessian":[3.407113E5,1.2191099E4,3.2852022E5,1.1644674E4,5.464252E2,4.8269367E4,2.8025084E5,4.0832025E2,1.3810489E2,4.5490383E4,2.7789844E3,6.1568312E4,2.1868253E5,3.9494562E2,1.337464E1,5.6317356E1,8.178754E1,2.5255836E4,2.0234547E4,8.733707E2,1.9056138E3,1.2476832E4,4.909148E4,1.5528702E5,6.3395516E4],"tree_param":{"num_deleted":"0","num_feature":"161","num_nodes":"25","size_leaf_vector":"1"}},{"base_weights":[2.5872385E-2,2.1254716E-2,4.5417213E-1,-5.250016E-2,4.6643138E-2,1.1316502E-1,4.7591254E-1,-8.47834E-2,1.14428535E-1,-5.7504054E-2,6.993218E-2,1.8054536E-1,-6.2858045E-1,4.886767E-1,2.1871226E-1,4.322891E-4,-7.1411744E-2,8.452817E-2,-1.4240731E-2,8.893587E-2,-3.7772037E-2,7.435862E-2,1.654386E-2,-3.729877E-1,1.2130979E-1,-3.2094084E-2,1.7775612E-1,-4.7702008E-1,1.7210317E-1],"categories":[],"categories_nodes":[],"categories_segments":[],"categories_sizes":[],"default_left":[0,0,0,0,0,0,1,0,0,0,0,0,0,0,0,0,0,0,0,0,0,0,0,0,0,0,0,0,0],"id":42,"left_children":[1,3,5,7,9,11,13,15,17,19,21,-1,23,25,27,-1,-1,-1,-1,-1,-1,-1,-1,-1,-1,-1,-1,-1,-1],"loss_changes":[7.5321106E2,7.055433E2,3.0062073E1,5.199796E2,6.798696E2,7.082341E1,1.2428894E1,7.896222E2,2.898441E2,7.3978253E2,7.503811E2,0E0,3.361924E1,1.0741821E1,7.364267E1,0E0,0E0,0E0,0E0,0E0,0E0,0E0,0E0,0E0,0E0,0E0,0E0,0E0,0E0],"parents":[2147483647,0,0,1,1,2,2,3,3,4,4,5,5,6,6,7,7,8,8,9,9,10,10,12,12,13,13,14,14],"right_children":[2,4,6,8,10,12,14,16,18,20,22,-1,24,26,28,-1,-1,-1,-1,-1,-1,-1,-1,-1,-1,-1,-1,-1,-1],"split_conditions":[3.8717918E0,1.7558614E0,-4.6061772E-1,-2.8661063E0,-6.876987E-1,6.471652E1,9.206445E0,5.974388E-2,4.506878E-1,-1.0859018E1,6.935203E-1,1.8054536E-1,-1.8162489E0,-6.061478E0,9.905064E0,4.322891E-4,-7.1411744E-2,8.452817E-2,-1.4240731E-2,8.893587E-2,-3.7772037E-2,7.435862E-2,1.654386E-2,-3.729877E-1,1.2130979E-1,-3.2094084E-2,1.7775612E-1,-4.7702008E-1,1.7210317E-1],"split_indices":[0,32,53,97,11,0,36,0,150,0,30,0,35,82,63,0,0,0,0,0,0,0,0,0,0,0,0,0,0],"split_type":[0,0,0,0,0,0,0,0,0,0,0,0,0,0,0,0,0,0,0,0,0,0,0,0,0,0,0,0,0],"sum_hessian":[3.8084703E5,3.767858E5,4.0612268E3,9.64863E4,2.802995E5,2.4377184E2,3.8174548E3,8.085065E4,1.563565E4,5.1224625E4,2.2907489E5,1.6021382E2,8.3558014E1,3.636105E3,1.8135004E2,4.601636E4,3.4834285E4,8.775365E3,6.8602847E3,6.9006113E3,4.4324016E4,3.4199676E4,1.948752E5,5.870811E1,2.48499E1,3.1607666E1,3.6044973E3,2.5493483E1,1.5585655E2],"tree_param":{"num_deleted":"0","num_feature":"161","num_nodes":"29","size_leaf_vector":"1"}},{"base_weights":[-5.411783E-2,1.0054679E-2,-3.9302847E-1,-4.9100226E-1,1.5350788E-2,-4.5891947E-1,-3.2156053E-1,-1.8155238E-1,-3.6392918E-1,3.9883863E-2,-7.9111494E-2,-3.835209E-1,-4.813061E-1,-4.4026105E-3,-4.151592E-1,-1.7467336E-1,1.671998E-2,2.0997344E-2,-4.7612946E-2,-1.488209E-1,-7.334727E-4,-1.703866E-1,-8.78468E-2,-1.7408566E-1,-4.610307E-2,5.9208933E-2,-9.851057E-2,-6.7814174E-3,-1.6074842E-1],"categories":[],"categories_nodes":[],"categories_segments":[],"categories_sizes":[],"default_left":[0,0,1,0,0,0,0,0,0,0,1,1,0,0,0,0,0,0,0,0,0,0,0,0,0,0,0,0,0],"id":43,"left_children":[1,3,5,7,9,11,13,-1,15,17,19,21,23,25,27,-1,-1,-1,-1,-1,-1,-1,-1,-1,-1,-1,-1,-1,-1],"loss_changes":[3.8899434E3,3.9907477E2,1.3394385E2,2.4768372E0,3.4486795E2,2.4818848E1,4.0558496E2,0E0,7.6233673E0,3.7503806E2,7.904662E2,4.241809E1,9.074219E0,1.4164334E2,1.3112439E2,0E0,0E0,0E0,0E0,0E0,0E0,0E0,0E0,0E0,0E0,0E0,0E0,0E0,0E0],"parents":[2147483647,0,0,1,1,2,2,3,3,4,4,5,5,6,6,8,8,9,9,10,10,11,11,12,12,13,13,14,14],"right_children":[2,4,6,8,10,12,14,-1,16,18,20,22,24,26,28,-1,-1,-1,-1,-1,-1,-1,-1,-1,-1,-1,-1,-1,-1],"split_conditions":[5.974388E-2,-5.134943E1,8.6096716E-1,-1.0522907E1,-7.303333E-1,2.4928474E-1,5.0296783E-1,-1.8155238E-1,-5.7372753E1,-7.1019405E-1,1.7085204E-1,4.5510864E-1,6.889996E-4,1.888177E0,1.4182864E0,-1.7467336E-1,1.671998E-2,2.0997344E-2,-4.7612946E-2,-1.488209E-1,-7.334727E-4,-1.703866E-1,-8.78468E-2,-1.7408566E-1,-4.610307E-2,5.9208933E-2,-9.851057E-2,-6.7814174E-3,-1.6074842E-1],"split_indices":[0,0,152,66,0,0,0,0,0,99,57,88,1,158,160,0,0,0,0,0,0,0,0,0,0,0,0,0,0],"split_type":[0,0,0,0,0,0,0,0,0,0,0,0,0,0,0,0,0,0,0,0,0,0,0,0,0,0,0,0,0],"sum_hessian":[1.788571E5,1.5038312E5,2.8473975E4,1.5719462E3,1.4881117E5,1.4812208E4,1.3661768E4,1.4202206E3,1.5172563E2,1.18131484E5,3.0679693E4,3.3952139E3,1.1416994E4,3.1133308E3,1.0548437E4,1.16974655E2,3.475098E1,1.0670096E5,1.1430528E4,5.7475376E3,2.4932156E4,2.0643372E3,1.3308766E3,1.1343883E4,7.31109E1,1.9135189E3,1.1998118E3,7.7368225E2,9.774754E3],"tree_param":{"num_deleted":"0","num_feature":"161","num_nodes":"29","size_leaf_vector":"1"}},{"base_weights":[-5.380292E-4,-5.0310975E-1,1.5295246E-2,-1.8336824E-1,-3.7433818E-1,-9.374035E-2,4.1579265E-2,-1.8652382E-1,-2.813092E-2,-4.1104473E-2,-4.6145055E-1,1.695015E-1,-1.549193E-2,1.7061405E-1,-1.7923675E-1,-2.1724446E-1,-6.694524E-5,-3.8661775E-1,-6.439105E-2,4.8473537E-2,2.3850138E-1,-2.5860265E-2,3.6052763E-2],"categories":[],"categories_nodes":[],"categories_segments":[],"categories_sizes":[],"default_left":[0,0,1,0,0,0,0,0,0,0,0,0,0,0,0,0,0,0,0,0,0,0,0],"id":44,"left_children":[1,3,5,-1,7,9,11,-1,13,15,17,19,21,-1,-1,-1,-1,-1,-1,-1,-1,-1,-1],"loss_changes":[2.6341414E3,7.9416504E0,9.1973157E2,0E0,2.3457214E1,1.2064602E3,1.8878673E3,0E0,3.3117256E1,1.2547812E3,1.350793E3,1.3706523E3,1.1650332E3,0E0,0E0,0E0,0E0,0E0,0E0,0E0,0E0,0E0,0E0],"parents":[2147483647,0,0,1,1,2,2,4,4,5,5,6,6,8,8,9,9,10,10,11,11,12,12],"right_children":[2,4,6,-1,8,10,12,-1,14,16,18,20,22,-1,-1,-1,-1,-1,-1,-1,-1,-1,-1],"split_conditions":[-3.146586E0,-3.4146729E0,-5.431792E1,-1.8336824E-1,-3.2167408E0,5.6893146E-1,-2.540465E0,-1.8652382E-1,-2.7696373E0,-1.2982111E0,9.787823E-1,-3.1389396E0,4.618988E-1,1.7061405E-1,-1.7923675E-1,-2.1724446E-1,-6.694524E-5,-3.8661775E-1,-6.439105E-2,4.8473537E-2,2.3850138E-1,-2.5860265E-2,3.6052763E-2],"split_indices":[0,0,97,0,2,140,35,0,131,0,124,34,39,0,0,0,0,0,0,0,0,0,0],"split_type":[0,0,0,0,0,0,0,0,0,0,0,0,0,0,0,0,0,0,0,0,0,0,0],"sum_hessian":[3.3103025E5,1.0109481E4,3.2092078E5,9.638961E3,4.7052084E2,6.233405E4,2.5858672E5,3.3209973E2,1.3842111E2,5.4529535E4,7.804518E3,7.977441E4,1.7881231E5,6.69052E1,7.1515915E1,3.6976843E3,5.083185E4,2.4631035E3,5.3414146E3,7.450831E4,5.266091E3,1.2023232E5,5.8579996E4],"tree_param":{"num_deleted":"0","num_feature":"161","num_nodes":"23","size_leaf_vector":"1"}},{"base_weights":[2.1784132E-2,-4.2403326E-3,9.6555635E-2,-4.1006446E-2,1.2973411E-1,5.433028E-1,1.4940585E-2,2.9285783E-2,-1.5602678E-1,5.8077514E-1,5.093496E-2,2.2089389E-1,8.5509205E-1,-1.5398727E-1,1.3192424E-1,-2.8081797E-4,6.9170445E-2,-8.549766E-2,-2.37511E-2,1.6367897E-2,2.5767776E-1,6.477946E-3,1.9011506E-1,-4.3721907E-2,1.8743114E-1,7.0403886E-1,2.548615E-1,7.5827986E-2,-7.5689115E-2,9.146802E-2,2.206238E-2],"categories":[],"categories_nodes":[],"categories_segments":[],"categories_sizes":[],"default_left":[0,0,1,0,0,1,0,0,0,0,0,0,0,0,0,0,0,0,0,0,0,0,0,0,0,0,0,0,0,0,0],"id":45,"left_children":[1,3,5,7,9,11,13,15,17,19,21,23,25,27,29,-1,-1,-1,-1,-1,-1,-1,-1,-1,-1,-1,-1,-1,-1,-1,-1],"loss_changes":[7.3309924E2,1.3766085E3,3.5466191E3,1.7730007E3,2.1388647E3,1.5102021E3,1.6253647E3,6.6645514E2,6.1022363E2,6.4673804E2,8.052407E2,7.582136E2,1.2355386E3,6.903814E2,4.193081E2,0E0,0E0,0E0,0E0,0E0,0E0,0E0,0E0,0E0,0E0,0E0,0E0,0E0,0E0,0E0,0E0],"parents":[2147483647,0,0,1,1,2,2,3,3,4,4,5,5,6,6,7,7,8,8,9,9,10,10,11,11,12,12,13,13,14,14],"right_children":[2,4,6,8,10,12,14,16,18,20,22,24,26,28,30,-1,-1,-1,-1,-1,-1,-1,-1,-1,-1,-1,-1,-1,-1,-1,-1],"split_conditions":[6.934624E-1,2.646993E-1,2.9581133E-1,-2.4334717E-1,6.128103E-1,-5.484771E0,2.6101182E0,-1.4600962E-1,1.5096146E-1,1.2251905E0,5.041805E-1,1.0912552E0,-1.0265136E0,1.0192875E0,1.0106567E0,-2.8081797E-4,6.9170445E-2,-8.549766E-2,-2.37511E-2,1.6367897E-2,2.5767776E-1,6.477946E-3,1.9011506E-1,-4.3721907E-2,1.8743114E-1,7.0403886E-1,2.548615E-1,7.5827986E-2,-7.5689115E-2,9.146802E-2,2.206238E-2],"split_indices":[0,8,144,0,27,98,64,39,13,32,3,0,135,62,120,0,0,0,0,0,0,0,0,0,0,0,0,0,0,0,0],"split_type":[0,0,0,0,0,0,0,0,0,0,0,0,0,0,0,0,0,0,0,0,0,0,0,0,0,0,0,0,0,0,0],"sum_hessian":[3.767415E5,2.7947147E5,9.7270016E4,2.1929253E5,6.017895E4,1.5024231E4,8.224578E4,1.3611158E5,8.3180945E4,8.949017E3,5.1229934E4,7.387166E3,7.637066E3,3.3651582E4,4.85942E4,1.14899984E5,2.1211604E4,4.3671297E4,3.9509652E4,1.80256E3,7.146456E3,4.7922656E4,3.3072786E3,3.4488335E3,