{"learner":{"attributes":{},"feature_names":[],"feature_types":[],"gradient_booster":{"model":{"gbtree_model_param":{"num_parallel_tree":"1","num_trees":"300"},"iteration_indptr":[0,3,6,9,12,15,18,21,24,27,30,33,36,39,42,45,48,51,54,57,60,63,66,69,72,75,78,81,84,87,90,93,96,99,102,105,108,111,114,117,120,123,126,129,132,135,138,141,144,147,150,153,156,159,162,165,168,171,174,177,180,183,186,189,192,195,198,201,204,207,210,213,216,219,222,225,228,231,234,237,240,243,246,249,252,255,258,261,264,267,270,273,276,279,282,285,288,291,294,297,300],"tree_info":[0,1,2,0,1,2,0,1,2,0,1,2,0,1,2,0,1,2,0,1,2,0,1,2,0,1,2,0,1,2,0,1,2,0,1,2,0,1,2,0,1,2,0,1,2,0,1,2,0,1,2,0,1,2,0,1,2,0,1,2,0,1,2,0,1,2,0,1,2,0,1,2,0,1,2,0,1,2,0,1,2,0,1,2,0,1,2,0,1,2,0,1,2,0,1,2,0,1,2,0,1,2,0,1,2,0,1,2,0,1,2,0,1,2,0,1,2,0,1,2,0,1,2,0,1,2,0,1,2,0,1,2,0,1,2,0,1,2,0,1,2,0,1,2,0,1,2,0,1,2,0,1,2,0,1,2,0,1,2,0,1,2,0,1,2,0,1,2,0,1,2,0,1,2,0,1,2,0,1,2,0,1,2,0,1,2,0,1,2,0,1,2,0,1,2,0,1,2,0,1,2,0,1,2,0,1,2,0,1,2,0,1,2,0,1,2,0,1,2,0,1,2,0,1,2,0,1,2,0,1,2,0,1,2,0,1,2,0,1,2,0,1,2,0,1,2,0,1,2,0,1,2,0,1,2,0,1,2,0,1,2,0,1,2,0,1,2,0,1,2,0,1,2,0,1,2,0,1,2,0,1,2,0,1,2,0,1,2,0,1,2,0,1,2,0,1,2,0,1,2],"trees":[{"base_weights":[1.5218651E-1,-7.997011E-2,1.4460393E0,9.308798E-1,-3.7461483E-1,8.967052E-1,1.4917015E0,1.2601912E0,5.586656E-1,-4.6132395E-1,3.106886E-2,1.2599168E0,-8.365404E-2,1.2927655E0,5.3903633E-1,5.226007E-1,4.1054326E-1,5.727307E-2,3.703479E-1,-1.6941966E-1,1.272958E-1,-3.7750423E-2,1.9265705E-1,1.9625372E-1,4.9707073E-1,-1.6537417E-1,3.75818E-1,5.2748144E-1,1.9038782E-1],"categories":[],"categories_nodes":[],"categories_segments":[],"categories_sizes":[],"default_left":[0,0,0,0,0,1,0,0,0,0,0,0,0,0,0,0,0,0,0,0,0,0,0,0,0,0,0,0,0],"id":0,"left_children":[1,3,5,7,9,11,13,15,17,19,21,23,25,27,-1,-1,-1,-1,-1,-1,-1,-1,-1,-1,-1,-1,-1,-1,-1],"loss_changes":[2.3375506E5,1.9652114E5,2.9683594E3,1.8252852E4,1.797164E4,3.2362285E3,1.20296875E2,1.8107031E3,1.313058E4,3.1855781E3,6.164864E3,5.72001E2,1.041742E3,3.9593604E2,0E0,0E0,0E0,0E0,0E0,0E0,0E0,0E0,0E0,0E0,0E0,0E0,0E0,0E0,0E0],"parents":[2147483647,0,0,1,1,2,2,3,3,4,4,5,5,6,6,7,7,8,8,9,9,10,10,11,11,12,12,13,13],"right_children":[2,4,6,8,10,12,14,16,18,20,22,24,26,28,-1,-1,-1,-1,-1,-1,-1,-1,-1,-1,-1,-1,-1,-1,-1],"split_conditions":[2.269218E0,-1.141405E0,3.092834E0,-6.223592E0,-3.4368736E-1,1.9008735E0,3.478447E0,-2.184454E1,-1.0812098E0,1.877083E0,2.4992623E0,2.5428054E0,3.7983315E0,2.1030517E0,5.3903633E-1,5.226007E-1,4.1054326E-1,5.727307E-2,3.703479E-1,-1.6941966E-1,1.272958E-1,-3.7750423E-2,1.9265705E-1,1.9625372E-1,4.9707073E-1,-1.6537417E-1,3.75818E-1,5.2748144E-1,1.9038782E-1],"split_indices":[0,0,0,0,2,137,0,0,6,0,127,160,160,103,0,0,0,0,0,0,0,0,0,0,0,0,0,0,0],"split_type":[0,0,0,0,0,0,0,0,0,0,0,0,0,0,0,0,0,0,0,0,0,0,0,0,0,0,0,0,0],"sum_hessian":[7.782055E5,6.5981544E5,1.1839006E5,1.4891712E5,5.108983E5,9.08725E3,1.0930281E5,7.9010914E4,6.990621E4,4.2093034E5,8.996799E4,6.6304585E3,2.456792E3,3.0102117E3,1.062926E5,3.0403256E4,4.860766E4,3.7787566E4,3.2118646E4,4.1618822E5,4.742116E3,7.086072E4,1.9107275E4,9.59617E2,5.6708413E3,1.843217E3,6.1357495E2,2.4550425E3,5.551693E2],"tree_param":{"num_deleted":"0","num_feature":"161","num_nodes":"29","size_leaf_vector":"1"}},{"base_weights":[-6.034701E-1,-2.9414538E-1,-7.1991026E-1,-6.168361E-1,-1.9849454E-1,-5.902738E-1,-7.346801E-1,-7.1581936E-1,-4.8947385E-1,-5.420259E-1,-9.643935E-2,-6.4124954E-1,-1.7592359E-1,-7.1063006E-1,-7.415329E-1,-2.6249278E-1,-2.2050844E-1,-1.24281354E-1,-1.9752672E-1,-4.474072E-2,-2.5223333E-1,1.4637907E-2,-1.6062583E-1,-2.6191372E-1,-1.899765E-1,2.120474E-2,-2.219238E-1,-2.6270965E-1,-1.9117647E-1,-2.682527E-1,-2.5800988E-1],"categories":[],"categories_nodes":[],"categories_segments":[],"categories_sizes":[],"default_left":[0,0,0,0,0,0,0,0,0,0,0,0,0,0,0,0,0,0,0,0,0,0,0,0,0,0,0,0,0,0,0],"id":1,"left_children":[1,3,5,7,9,11,13,15,17,19,21,23,25,27,29,-1,-1,-1,-1,-1,-1,-1,-1,-1,-1,-1,-1,-1,-1,-1,-1],"loss_changes":[2.8016625E4,6.5660625E3,1.0815938E3,6.128379E2,5.753008E3,1.2208574E3,8.30625E1,3.7228516E1,1.815127E2,2.4903418E3,6.066315E3,5.0389648E2,6.55271E2,3.8596484E2,3.490625E1,0E0,0E0,0E0,0E0,0E0,0E0,0E0,0E0,0E0,0E0,0E0,0E0,0E0,0E0,0E0,0E0],"parents":[2147483647,0,0,1,1,2,2,3,3,4,4,5,5,6,6,7,7,8,8,9,9,10,10,11,11,12,12,13,13,14,14],"right_children":[2,4,6,8,10,12,14,16,18,20,22,24,26,28,30,-1,-1,-1,-1,-1,-1,-1,-1,-1,-1,-1,-1,-1,-1,-1,-1],"split_conditions":[-3.26092E-1,-1.3475377E1,5.31E-3,-2.399648E1,-1.564535E-1,7.511526E-1,3.71102E-1,-2.433555E0,1.0992484E0,-1.244102E0,-3.49991E-1,2.531956E-1,2.1347508E0,7.920807E-1,2.0144975E-1,-2.6249278E-1,-2.2050844E-1,-1.24281354E-1,-1.9752672E-1,-4.474072E-2,-2.5223333E-1,1.4637907E-2,-1.6062583E-1,-2.6191372E-1,-1.899765E-1,2.120474E-2,-2.219238E-1,-2.6270965E-1,-1.9117647E-1,-2.682527E-1,-2.5800988E-1],"split_indices":[0,0,0,0,22,19,0,67,127,0,5,24,31,21,2,0,0,0,0,0,0,0,0,0,0,0,0,0,0,0,0],"split_type":[0,0,0,0,0,0,0,0,0,0,0,0,0,0,0,0,0,0,0,0,0,0,0,0,0,0,0,0,0,0,0],"sum_hessian":[7.77859E5,2.1273356E5,5.6512544E5,4.8638785E4,1.6409478E5,5.7805098E4,5.0732034E5,2.7365924E4,2.1272861E4,3.7582562E4,1.2651222E5,5.147215E4,6.332948E3,1.1252292E5,3.947974E5,2.4233285E4,3.1326384E3,6.1928916E3,1.5079971E4,1.0343576E4,2.7238984E4,9.088571E4,3.5626508E4,2.9242404E4,2.2229744E4,4.13151E3,2.2014387E3,1.0169337E5,1.0829551E4,3.4463228E5,5.016512E4],"tree_param":{"num_deleted":"0","num_feature":"161","num_nodes":"31","size_leaf_vector":"1"}},{"base_weights":[4.5068002E-1,-6.3285375E-1,7.1385956E-1,1.2797388E-1,-6.819161E-1,1.0486534E0,-6.760484E-1,-7.103345E-1,1.3010122E0,-7.473904E-1,-5.0248265E-1,1.2018462E0,7.933832E-1,-7.984557E-2,-7.420838E-1,-2.686843E-1,3.635107E-1,-2.447471E-1,4.8996103E-1,-2.6993036E-1,-2.3862597E-1,1.5984508E-1,-2.0581457E-1,2.6454598E-1,4.524761E-1,-2.2957465E-2,3.0734617E-1,-1.2678005E-1,2.8770867E-1,-1.9810034E-1,-2.690898E-1],"categories":[],"categories_nodes":[],"categories_segments":[],"categories_sizes":[],"default_left":[0,0,0,0,0,0,0,0,0,0,0,0,0,0,0,0,0,0,0,0,0,0,0,0,0,0,0,0,0,0,0],"id":2,"left_children":[1,3,5,7,9,11,13,15,17,19,21,23,25,27,29,-1,-1,-1,-1,-1,-1,-1,-1,-1,-1,-1,-1,-1,-1,-1,-1],"loss_changes":[2.2196966E5,5.678285E3,2.9142738E5,9.063568E3,1.6784766E3,1.9735812E4,4.7862656E3,3.33719E2,4.5741797E2,2.0886719E1,2.5035898E3,8.1051562E3,9.7929375E3,2.9024453E3,1.1269531E2,0E0,0E0,0E0,0E0,0E0,0E0,0E0,0E0,0E0,0E0,0E0,0E0,0E0,0E0,0E0,0E0],"parents":[2147483647,0,0,1,1,2,2,3,3,4,4,5,5,6,6,7,7,8,8,9,9,10,10,11,11,12,12,13,13,14,14],"right_children":[2,4,6,8,10,12,14,16,18,20,22,24,26,28,30,-1,-1,-1,-1,-1,-1,-1,-1,-1,-1,-1,-1,-1,-1,-1,-1],"split_conditions":[-1.056621E0,-1.2945968E0,2.090275E0,-2.9944172E0,-3.067793E0,-2.4979084E0,3.092834E0,-1.244102E0,-3.318317E0,-3.318317E0,-2.1978228E0,-3.94811E-1,-5.30367E-1,1.7598097E0,3.478447E0,-2.686843E-1,3.635107E-1,-2.447471E-1,4.8996103E-1,-2.6993036E-1,-2.3862597E-1,1.5984508E-1,-2.0581457E-1,2.6454598E-1,4.524761E-1,-2.2957465E-2,3.0734617E-1,-1.2678005E-1,2.8770867E-1,-1.9810034E-1,-2.690898E-1],"split_indices":[0,18,0,5,0,2,0,0,0,0,13,0,0,136,0,0,0,0,0,0,0,0,0,0,0,0,0,0,0,0,0],"split_type":[0,0,0,0,0,0,0,0,0,0,0,0,0,0,0,0,0,0,0,0,0,0,0,0,0,0,0,0,0,0,0],"sum_hessian":[7.7839056E5,1.5211561E5,6.2627494E5,9.214925E3,1.4290069E5,5.0470456E5,1.2157037E5,5.37447E3,3.8404548E3,1.0469491E5,3.8205773E4,3.1541434E5,1.8929023E5,1.2122658E4,1.0944771E5,5.264815E3,1.09655205E2,1.1258579E2,3.727869E3,1.0177828E5,2.9166296E3,2.6034705E3,3.5602305E4,3.3252285E4,2.8216203E5,1.2451988E4,1.7683825E5,9.255842E3,2.866816E3,2.9932458E3,1.0645446E5],"tree_param":{"num_deleted":"0","num_feature":"161","num_nodes":"31","size_leaf_vector":"1"}},{"base_weights":[1.1882776E-1,-5.2736856E-2,9.045978E-1,5.9909004E-1,-2.9051688E-1,5.697012E-1,9.4046956E-1,7.777068E-1,3.1809327E-1,-3.740843E-1,3.365181E-2,1.815252E-1,8.978883E-1,8.1807464E-1,9.438971E-1,3.254762E-1,2.534298E-1,-4.3191724E-2,2.0152006E-1,-1.5126054E-1,-7.365603E-2,-3.0451987E-2,1.5369621E-1,3.086303E-1,-8.8254414E-2,2.6638475E-1,3.6641058E-1,3.3902857E-1,9.486926E-2,3.401183E-1,3.350294E-1],"categories":[],"categories_nodes":[],"categories_segments":[],"categories_sizes":[],"default_left":[0,0,0,0,0,0,0,0,0,0,0,0,0,0,0,0,0,0,0,0,0,0,0,0,0,0,0,0,0,0,0],"id":3,"left_children":[1,3,5,7,9,11,13,15,17,19,21,23,25,27,29,-1,-1,-1,-1,-1,-1,-1,-1,-1,-1,-1,-1,-1,-1,-1,-1],"loss_changes":[1.0233689E5,9.6571625E4,1.6337812E3,8.358523E3,1.236757E4,1.6769258E3,5.078125E1,9.4827344E2,6.852623E3,2.8348672E3,4.351235E3,1.7395682E3,1.3434229E2,2.2983472E2,5.15625E-1,0E0,0E0,0E0,0E0,0E0,0E0,0E0,0E0,0E0,0E0,0E0,0E0,0E0,0E0,0E0,0E0],"parents":[2147483647,0,0,1,1,2,2,3,3,4,4,5,5,6,6,7,7,8,8,9,9,10,10,11,11,12,12,13,13,14,14],"right_children":[2,4,6,8,10,12,14,16,18,20,22,24,26,28,30,-1,-1,-1,-1,-1,-1,-1,-1,-1,-1,-1,-1,-1,-1,-1,-1],"split_conditions":[2.090275E0,-1.056621E0,3.092834E0,-4.729746E0,-4.47219E-1,3.5986423E0,3.478447E0,-2.0101027E1,-1.0335206E0,6.0910326E-1,2.3001676E0,1.2770901E0,3.6906912E0,2.1298835E0,6.22E-4,3.254762E-1,2.534298E-1,-4.3191724E-2,2.0152006E-1,-1.5126054E-1,-7.365603E-2,-3.0451987E-2,1.5369621E-1,3.086303E-1,-8.8254414E-2,2.6638475E-1,3.6641058E-1,3.3902857E-1,9.486926E-2,3.401183E-1,3.350294E-1],"split_indices":[0,0,0,0,2,64,0,0,9,14,159,55,63,135,129,0,0,0,0,0,0,0,0,0,0,0,0,0,0,0,0],"split_type":[0,0,0,0,0,0,0,0,0,0,0,0,0,0,0,0,0,0,0,0,0,0,0,0,0,0,0,0,0,0,0],"sum_hessian":[7.5911606E5,6.230751E5,1.3604095E5,1.6653923E5,4.565359E5,1.3163544E4,1.22877414E5,1.01817055E5,6.472218E4,3.629666E5,9.356929E4,6.031321E3,7.132223E3,3.353865E3,1.1952355E5,3.750916E4,6.4307895E4,2.301194E4,4.1710242E4,2.8537097E5,7.759565E4,7.194095E4,2.1628336E4,2.3338691E3,3.6974517E3,3.0813347E3,4.0508884E3,2.7417273E3,6.1213763E2,1.12051805E5,7.471745E3],"tree_param":{"num_deleted":"0","num_feature":"161","num_nodes":"31","size_leaf_vector":"1"}},{"base_weights":[-5.061399E-1,-2.2613843E-1,-6.2808824E-1,-4.7884703E-1,-1.438346E-1,-5.0102407E-1,-6.431885E-1,-6.154431E-1,-3.6635166E-1,-4.820507E-1,-4.321749E-2,-5.537E-1,-9.172592E-2,-6.188712E-1,-6.4979166E-1,-2.2800438E-1,-1.8194433E-1,-7.736597E-2,-1.5587348E-1,-2.4402082E-2,-2.2948535E-1,1.6586274E-2,-1.6482665E-1,-2.3112631E-1,-1.6383006E-1,1.9863038E-1,-9.885007E-2,-2.3017041E-1,-1.574139E-1,-2.3539498E-1,-2.2388275E-1],"categories":[],"categories_nodes":[],"categories_segments":[],"categories_sizes":[],"default_left":[0,0,0,0,0,0,0,0,0,0,0,1,0,0,0,0,0,0,0,0,0,0,0,0,0,0,0,0,0,0,0],"id":4,"left_children":[1,3,5,7,9,11,13,15,17,19,21,23,25,27,29,-1,-1,-1,-1,-1,-1,-1,-1,-1,-1,-1,-1,-1,-1,-1,-1],"loss_changes":[2.277125E4,4.208174E3,8.9103125E2,7.635908E2,5.193836E3,1.0639102E3,6.628125E1,4.3901367E1,2.7499E2,2.252901E3,4.35507E3,3.8050293E2,6.6237805E2,3.2976953E2,3.6765625E1,0E0,0E0,0E0,0E0,0E0,0E0,0E0,0E0,0E0,0E0,0E0,0E0,0E0,0E0,0E0,0E0],"parents":[2147483647,0,0,1,1,2,2,3,3,4,4,5,5,6,6,7,7,8,8,9,9,10,10,11,11,12,12,13,13,14,14],"right_children":[2,4,6,8,10,12,14,16,18,20,22,24,26,28,30,-1,-1,-1,-1,-1,-1,-1,-1,-1,-1,-1,-1,-1,-1,-1,-1],"split_conditions":[-2.84997E-1,-1.0665847E1,3.3272E-2,-2.399648E1,-1.564535E-1,7.511526E-1,3.71102E-1,-1.4781494E0,1.0967288E0,-1.141405E0,-3.204085E-1,2.5378633E-1,2.2849645E-1,7.869341E-1,2.0144975E-1,-2.2800438E-1,-1.8194433E-1,-7.736597E-2,-1.5587348E-1,-2.4402082E-2,-2.2948535E-1,1.6586274E-2,-1.6482665E-1,-2.3112631E-1,-1.6383006E-1,1.9863038E-1,-9.885007E-2,-2.3017041E-1,-1.574139E-1,-2.3539498E-1,-2.2388275E-1],"split_indices":[0,0,0,0,22,19,0,4,95,0,4,152,12,21,2,0,0,0,0,0,0,0,0,0,0,0,0,0,0,0,0],"split_type":[0,0,0,0,0,0,0,0,0,0,0,0,0,0,0,0,0,0,0,0,0,0,0,0,0,0,0,0,0,0,0],"sum_hessian":[6.6688744E5,2.023292E5,4.6455822E5,4.970583E4,1.5262338E5,4.934747E4,4.1521075E5,2.2446262E4,2.7259566E4,3.4993117E4,1.1763026E5,4.3720383E4,5.627083E3,8.86905E4,3.2652025E5,1.9301432E4,3.14483E3,8.330069E3,1.8929496E4,9.546579E3,2.544654E4,9.678807E4,2.0842184E4,2.3061654E4,2.065873E4,1.2447573E3,4.3823257E3,7.9695945E4,8.994553E3,2.8480784E5,4.1712426E4],"tree_param":{"num_deleted":"0","num_feature":"161","num_nodes":"31","size_leaf_vector":"1"}},{"base_weights":[3.1256485E-1,3.7252024E-1,-5.2347113E-3,4.0137035E-1,-1.0638259E-1,5.0917406E-2,-4.8744884E-1,2.3588544E-1,4.583218E-1,-5.088953E-1,1.0846838E-1,3.7544423E-1,9.208392E-3,-2.8548408E-1,-5.837096E-1,1.207201E-1,4.0899977E-2,1.6997845E-1,4.4299968E-2,4.8656706E-2,-2.0305969E-1,-2.9061396E-2,1.074408E-1,8.86723E-3,2.044512E-1,2.508207E-2,-8.9036964E-2,-1.0942329E-1,2.806813E-1,-1.7740889E-1,-2.2873384E-1],"categories":[],"categories_nodes":[],"categories_segments":[],"categories_sizes":[],"default_left":[1,1,0,0,0,0,0,0,1,0,0,0,0,0,0,0,0,0,0,0,0,0,0,0,0,0,0,0,0,0,0],"id":5,"left_children":[1,3,5,7,9,11,13,15,17,19,21,23,25,27,29,-1,-1,-1,-1,-1,-1,-1,-1,-1,-1,-1,-1,-1,-1,-1,-1],"loss_changes":[1.5110352E4,9.217922E3,3.4081887E3,5.9304375E3,3.2784187E3,1.5260177E3,2.5506274E2,1.9591143E3,2.1722734E3,4.6876392E2,8.8841797E2,8.6694775E2,1.5496007E3,8.363922E1,4.1437256E1,0E0,0E0,0E0,0E0,0E0,0E0,0E0,0E0,0E0,0E0,0E0,0E0,0E0,0E0,0E0,0E0],"parents":[2147483647,0,0,1,1,2,2,3,3,4,4,5,5,6,6,7,7,8,8,9,9,10,10,11,11,12,12,13,13,14,14],"right_children":[2,4,6,8,10,12,14,16,18,20,22,24,26,28,30,-1,-1,-1,-1,-1,-1,-1,-1,-1,-1,-1,-1,-1,-1,-1,-1],"split_conditions":[2.0714226E0,-1.0324943E0,3.1491265E0,-4.0085342E1,4.0366667E-4,3.6278534E0,1.5639976E0,3.956615E-1,2.0665162E0,0E0,5.721191E-1,4.830069E-1,-3.7720186E-1,1.3535347E0,1.0413225E0,1.207201E-1,4.0899977E-2,1.6997845E-1,4.4299968E-2,4.8656706E-2,-2.0305969E-1,-2.9061396E-2,1.074408E-1,8.86723E-3,2.044512E-1,2.508207E-2,-8.9036964E-2,-1.0942329E-1,2.806813E-1,-1.7740889E-1,-2.2873384E-1],"split_indices":[157,97,144,97,160,160,11,20,125,1,152,8,2,4,2,0,0,0,0,0,0,0,0,0,0,0,0,0,0,0,0],"split_type":[0,0,0,0,0,0,0,0,0,0,0,0,0,0,0,0,0,0,0,0,0,0,0,0,0,0,0,0,0,0,0],"sum_hessian":[7.930351E5,6.6716844E5,1.25866734E5,6.2926056E5,3.7907812E4,1.12739516E5,1.3127221E4,1.6111392E5,4.681467E5,1.3191961E4,2.4715854E4,1.2838504E4,9.990101E4,4.238463E3,8.888757E3,8.884929E4,7.2264625E4,4.4958634E5,1.8560342E4,1.0405724E3,1.2151388E4,1.238376E4,1.2332094E4,4.5488105E3,8.289693E3,8.084649E4,1.9054514E4,4.1669243E3,7.1538574E1,3.224795E3,5.6639624E3],"tree_param":{"num_deleted":"0","num_feature":"161","num_nodes":"31","size_leaf_vector":"1"}},{"base_weights":[1.0219534E-1,-3.830815E-2,7.40699E-1,5.0294614E-1,-2.5282863E-1,4.3893337E-1,7.8265804E-1,6.315516E-1,2.5444478E-1,-3.2404456E-1,4.5303043E-2,1.1084703E-1,7.1067387E-1,7.895476E-1,7.0369047E-1,2.6168612E-1,1.9587767E-1,-3.7214536E-2,1.9341196E-1,-1.4620046E-1,-8.356001E-2,1.1785391E-1,-4.3355986E-2,2.1059616E-1,-1.0408985E-1,1.07332006E-1,2.8774977E-1,2.8658834E-1,2.7139255E-1,-1.957889E-1,2.689485E-1],"categories":[],"categories_nodes":[],"categories_segments":[],"categories_sizes":[],"default_left":[0,0,0,0,1,0,1,0,0,0,0,0,0,0,0,0,0,0,0,0,0,0,0,0,0,0,0,0,0,0,0],"id":6,"left_children":[1,3,5,7,9,11,13,15,17,19,21,23,25,27,29,-1,-1,-1,-1,-1,-1,-1,-1,-1,-1,-1,-1,-1,-1,-1,-1],"loss_changes":[6.455166E4,6.8477875E4,1.6428906E3,5.3497383E3,8.967574E3,1.4125327E3,6.1429688E1,9.194219E2,5.7773296E3,2.572129E3,3.807265E3,1.3617183E3,3.1662598E2,2.3816406E1,4.9579004E2,0E0,0E0,0E0,0E0,0E0,0E0,0E0,0E0,0E0,0E0,0E0,0E0,0E0,0E0,0E0,0E0],"parents":[2147483647,0,0,1,1,2,2,3,3,4,4,5,5,6,6,7,7,8,8,9,9,10,10,11,11,12,12,13,13,14,14],"right_children":[2,4,6,8,10,12,14,16,18,20,22,24,26,28,30,-1,-1,-1,-1,-1,-1,-1,-1,-1,-1,-1,-1,-1,-1,-1,-1],"split_conditions":[1.968426E0,-9.91352E-1,3.092834E0,-3.841227E0,-3.463833E-1,3.5477676E0,2.2602284E0,-1.3475377E1,-8.8491684E-1,-2.907955E0,5.85188E-1,1.730954E0,2.3164132E0,-1.9413742E-1,3.6765242E0,2.6168612E-1,1.9587767E-1,-3.7214536E-2,1.9341196E-1,-1.4620046E-1,-8.356001E-2,1.1785391E-1,-4.3355986E-2,2.1059616E-1,-1.0408985E-1,1.07332006E-1,2.8774977E-1,2.8658834E-1,2.7139255E-1,-1.957889E-1,2.689485E-1],"split_indices":[0,0,0,0,34,128,72,0,8,3,20,119,63,97,96,0,0,0,0,0,0,0,0,0,0,0,0,0,0,0,0],"split_type":[0,0,0,0,0,0,0,0,0,0,0,0,0,0,0,0,0,0,0,0,0,0,0,0,0,0,0,0,0,0,0],"sum_hessian":[7.1954194E5,5.897645E5,1.29777445E5,1.6739944E5,4.2236506E5,1.5843563E4,1.1393388E5,1.1030986E5,5.7089582E4,3.4092647E5,8.14386E4,7.178272E3,8.665292E3,1.0478304E5,9.150838E3,5.276568E4,5.754418E4,2.5202916E4,3.1886668E4,1.8012644E5,1.6080003E5,3.0140725E4,5.129788E4,3.2844395E3,3.8938325E3,1.5332427E3,7.1320493E3,8.8552414E4,1.6230628E4,3.0717368E2,8.843664E3],"tree_param":{"num_deleted":"0","num_feature":"161","num_nodes":"31","size_leaf_vector":"1"}},{"base_weights":[-4.3894333E-1,-1.200075E-1,-5.711302E-1,-5.2141786E-1,-6.8599686E-2,-4.0909353E-1,-5.938633E-1,-5.715489E-1,-4.0856776E-1,-3.9050883E-1,4.922084E-4,-6.11191E-1,-2.5046748E-1,-5.40495E-1,-5.9896845E-1,-2.1339482E-1,-1.8652691E-1,-7.511018E-2,-1.6892357E-1,-4.129164E-2,-2.0247288E-1,2.2884885E-2,-1.6058213E-1,-2.2321653E-1,-1.813438E-1,-1.4904988E-1,4.421413E-2,-2.0970277E-1,-8.351166E-2,-2.1742429E-1,-2.0329057E-1],"categories":[],"categories_nodes":[],"categories_segments":[],"categories_sizes":[],"default_left":[0,0,0,0,0,0,0,0,0,0,0,0,0,0,0,0,0,0,0,0,0,0,0,0,0,0,0,0,0,0,0],"id":7,"left_children":[1,3,5,7,9,11,13,15,17,19,21,23,25,27,29,-1,-1,-1,-1,-1,-1,-1,-1,-1,-1,-1,-1,-1,-1,-1,-1],"loss_changes":[2.401221E4,3.4439106E3,1.4830469E3,1.0695508E2,3.2905403E3,1.5881787E3,9.5890625E1,1.4557129E1,7.0628174E1,1.2395354E3,3.4309421E3,2.0418457E1,1.6949188E3,3.9960938E2,5.475E1,0E0,0E0,0E0,0E0,0E0,0E0,0E0,0E0,0E0,0E0,0E0,0E0,0E0,0E0,0E0,0E0],"parents":[2147483647,0,0,1,1,2,2,3,3,4,4,5,5,6,6,7,7,8,8,9,9,10,10,11,11,12,12,13,13,14,14],"right_children":[2,4,6,8,10,12,14,16,18,20,22,24,26,28,30,-1,-1,-1,-1,-1,-1,-1,-1,-1,-1,-1,-1,-1,-1,-1,-1],"split_conditions":[-4.19509E-1,-2.184454E1,-2.4927E-2,-2.9915962E1,-2.7058712E-1,1.6713518E-1,1.47707E-1,-3.7705986E1,4.397533E0,-1.141405E0,-4.499665E-1,1.07833266E-1,-2.0622892E0,7.8690624E-1,1.01253E-1,-2.1339482E-1,-1.8652691E-1,-7.511018E-2,-1.6892357E-1,-4.129164E-2,-2.0247288E-1,2.2884885E-2,-1.6058213E-1,-2.2321653E-1,-1.813438E-1,-1.4904988E-1,4.421413E-2,-2.0970277E-1,-8.351166E-2,-2.1742429E-1,-2.0329057E-1],"split_indices":[0,0,0,0,21,24,0,0,64,0,3,24,34,22,2,0,0,0,0,0,0,0,0,0,0,0,0,0,0,0,0],"split_type":[0,0,0,0,0,0,0,0,0,0,0,0,0,0,0,0,0,0,0,0,0,0,0,0,0,0,0,0,0,0,0],"sum_hessian":[5.6956194E5,1.6689222E5,4.0266972E5,1.8946002E4,1.4794622E5,4.9544715E4,3.53125E5,1.3115629E4,5.830373E3,2.6142033E4,1.2180418E5,2.1785742E4,2.775897E4,3.0839443E4,3.2228556E5,9.3802705E3,3.735359E3,1.358308E3,4.472065E3,1.0038548E4,1.6103485E4,1.0672924E5,1.50749375E4,2.0122785E4,1.662957E3,1.9301594E4,8.457377E3,2.7142416E4,3.6970276E3,2.8132553E5,4.0960047E4],"tree_param":{"num_deleted":"0","num_feature":"161","num_nodes":"31","size_leaf_vector":"1"}},{"base_weights":[2.2665665E-1,-5.391565E-1,3.8366196E-1,3.656632E-2,-5.9978765E-1,5.3552777E-1,-5.748137E-1,-6.393999E-1,5.297615E-1,-6.567393E-1,-4.6673936E-1,5.999885E-1,2.7976364E-1,-1.2662733E-1,-6.2146497E-1,-2.3466924E-1,-1.9441249E-2,2.0910982E-2,2.9559368E-1,-2.3713222E-1,-2.1417764E-1,5.7389226E-2,-1.9054317E-1,9.9260375E-2,2.2637598E-1,-1.0808133E-1,1.24003895E-1,-1.5359989E-1,1.6950959E-1,-1.4723E-1,-2.2604495E-1],"categories":[],"categories_nodes":[],"categories_segments":[],"categories_sizes":[],"default_left":[0,0,0,0,0,0,0,0,0,0,0,0,0,0,0,0,0,0,0,0,0,0,0,0,0,0,0,0,0,0,0],"id":8,"left_children":[1,3,5,7,9,11,13,15,17,19,21,23,25,27,29,-1,-1,-1,-1,-1,-1,-1,-1,-1,-1,-1,-1,-1,-1,-1,-1],"loss_changes":[9.391741E4,4.6389375E3,9.435336E4,4.2219707E3,9.107383E2,9.225016E3,1.8536387E3,3.8927734E1,1.0060747E3,9.8125E0,1.4116636E3,4.1783594E3,4.2263555E3,1.4988264E3,1.095918E2,0E0,0E0,0E0,0E0,0E0,0E0,0E0,0E0,0E0,0E0,0E0,0E0,0E0,0E0,0E0,0E0],"parents":[2147483647,0,0,1,1,2,2,3,3,4,4,5,5,6,6,7,7,8,8,9,9,10,10,11,11,12,12,13,13,14,14],"right_children":[2,4,6,8,10,12,14,16,18,20,22,24,26,28,30,-1,-1,-1,-1,-1,-1,-1,-1,-1,-1,-1,-1,-1,-1,-1,-1],"split_conditions":[-9.91352E-1,-8.7378573E-1,2.269218E0,-3.067793E0,-3.067793E0,-6.6386695E0,3.092834E0,-6.3888397E0,-3.7554126E0,-3.318317E0,-2.1880443E0,-4.72368E-1,-3.05048E-1,1.6503633E0,3.478447E0,-2.3466924E-1,-1.9441249E-2,2.0910982E-2,2.9559368E-1,-2.3713222E-1,-2.1417764E-1,5.7389226E-2,-1.9054317E-1,9.9260375E-2,2.2637598E-1,-1.0808133E-1,1.24003895E-1,-1.5359989E-1,1.6950959E-1,-1.4723E-1,-2.2604495E-1],"split_indices":[0,18,0,0,0,1,0,1,34,0,12,0,0,105,0,0,0,0,0,0,0,0,0,0,0,0,0,0,0,0,0],"split_type":[0,0,0,0,0,0,0,0,0,0,0,0,0,0,0,0,0,0,0,0,0,0,0,0,0,0,0,0,0,0,0],"sum_hessian":[7.8110125E5,1.328936E5,6.482076E5,1.2661996E4,1.202316E5,5.5955006E5,8.8657555E4,5.3411694E3,7.3208267E3,8.418993E4,3.604167E4,4.4691247E5,1.1263761E5,8.358624E3,8.029893E4,5.2297505E3,1.1141898E2,2.7957007E3,4.525126E3,8.1590945E4,2.5989846E3,3.2731294E3,3.2768543E4,3.649517E4,4.104173E5,1.1302442E4,1.0133517E5,5.564564E3,2.79406E3,2.3630886E3,7.793584E4],"tree_param":{"num_deleted":"0","num_feature":"161","num_nodes":"31","size_leaf_vector":"1"}},{"base_weights":[9.11777E-2,-1.8916456E-2,6.187663E-1,3.9263636E-1,-1.7890714E-1,3.6182752E-1,6.670201E-1,5.478473E-1,2.4747558E-1,-2.8944185E-1,-2.4982417E-2,1.7800088E-1,7.931365E-1,5.262189E-1,6.713431E-1,2.3563585E-1,1.7729081E-1,3.937683E-2,2.0896351E-1,-1.1548037E-1,7.771648E-3,3.1805092E-1,-2.6449125E-2,2.2589754E-1,-6.5196254E-3,3.695173E-1,2.5179672E-1,2.8260976E-2,2.3901191E-1,2.4366263E-1,2.3327078E-1],"categories":[],"categories_nodes":[],"categories_segments":[],"categories_sizes":[],"default_left":[0,0,0,0,0,0,0,0,0,0,0,0,0,0,0,0,0,0,0,0,0,0,0,0,0,0,0,0,0,0,0],"id":9,"left_children":[1,3,5,7,9,11,13,15,17,19,21,23,25,27,29,-1,-1,-1,-1,-1,-1,-1,-1,-1,-1,-1,-1,-1,-1,-1,-1],"loss_changes":[3.7714E4,3.537166E4,1.3895938E3,3.3879336E3,6.5813936E3,1.405292E3,5.709375E1,4.290293E2,3.5730747E3,2.1944238E3,7.1218184E3,1.0957325E3,1.15076416E2,1.7355249E2,1.13203125E1,0E0,0E0,0E0,0E0,0E0,0E0,0E0,0E0,0E0,0E0,0E0,0E0,0E0,0E0,0E0,0E0],"parents":[2147483647,0,0,1,1,2,2,3,3,4,4,5,5,6,6,7,7,8,8,9,9,10,10,11,11,12,12,13,13,14,14],"right_children":[2,4,6,8,10,12,14,16,18,20,22,24,26,28,30,-1,-1,-1,-1,-1,-1,-1,-1,-1,-1,-1,-1,-1,-1,-1,-1],"split_conditions":[1.877083E0,-1.244102E0,3.092834E0,-7.236763E0,-3.0574897E-1,3.5715783E0,3.478447E0,-2.399648E1,-1.171673E0,5.4910266E-1,-2.11699E-1,7.843999E-1,2.090275E0,3.7147462E0,-9.097986E-2,2.3563585E-1,1.7729081E-1,3.937683E-2,2.0896351E-1,-1.1548037E-1,7.771648E-3,3.1805092E-1,-2.6449125E-2,2.2589754E-1,-6.5196254E-3,3.695173E-1,2.5179672E-1,2.8260976E-2,2.3901191E-1,2.4366263E-1,2.3327078E-1],"split_indices":[0,0,0,0,4,159,0,0,4,75,0,150,0,32,1,0,0,0,0,0,0,0,0,0,0,0,0,0,0,0,0],"split_type":[0,0,0,0,0,0,0,0,0,0,0,0,0,0,0,0,0,0,0,0,0,0,0,0,0,0,0,0,0,0,0],"sum_hessian":[6.4929506E5,5.371969E5,1.1209819E5,1.5037572E5,3.8682116E5,1.7725102E4,9.4373086E4,7.2670805E4,7.770491E4,2.2514306E5,1.6167808E5,1.2429137E4,5.295965E3,2.8148855E3,9.1558195E4,2.4825068E4,4.7845734E4,5.4926633E4,2.277828E4,2.045356E5,2.0607459E4,8.191186E3,1.534869E5,3.774855E3,8.654282E3,1.5146873E3,3.7812778E3,6.624901E2,2.1523953E3,7.409853E4,1.7459672E4],"tree_param":{"num_deleted":"0","num_feature":"161","num_nodes":"31","size_leaf_vector":"1"}},{"base_weights":[-3.79507E-1,-1.0061988E-1,-5.3849787E-1,-3.6709866E-1,-3.3461116E-2,-3.896645E-1,-5.565237E-1,-8.7773874E-2,-5.487118E-1,-2.7548614E-1,6.4323984E-2,-4.5628792E-1,2.2023426E-2,-5.2503866E-1,-5.656583E-1,-2.0308451E-1,1.1343103E-2,-2.0029658E-1,2.3285787E-1,-2.784087E-2,-1.3480946E-1,6.0892E-2,-7.044391E-2,-2.0185068E-1,-1.2701227E-1,2.2005476E-1,-7.256464E-2,-1.9974208E-1,-1.0492609E-1,-2.05795E-1,-1.8897521E-1],"categories":[],"categories_nodes":[],"categories_segments":[],"categories_sizes":[],"default_left":[0,0,0,0,0,1,0,0,0,0,0,1,0,0,1,0,0,0,0,0,0,0,0,0,0,0,0,0,0,0,0],"id":10,"left_children":[1,3,5,7,9,11,13,15,17,19,21,23,25,27,29,-1,-1,-1,-1,-1,-1,-1,-1,-1,-1,-1,-1,-1,-1,-1,-1],"loss_changes":[2.1239484E4,3.1126494E3,8.1827344E2,1.77598E3,3.2877065E3,9.040825E2,7.796875E1,7.838767E2,1.9484277E2,7.840476E2,2.6965747E3,3.0630957E2,6.051334E2,4.259004E2,5.1203125E1,0E0,0E0,0E0,0E0,0E0,0E0,0E0,0E0,0E0,0E0,0E0,0E0,0E0,0E0,0E0,0E0],"parents":[2147483647,0,0,1,1,2,2,3,3,4,4,5,5,6,6,7,7,8,8,9,9,10,10,11,11,12,12,13,13,14,14],"right_children":[2,4,6,8,10,12,14,16,18,20,22,24,26,28,30,-1,-1,-1,-1,-1,-1,-1,-1,-1,-1,-1,-1,-1,-1,-1,-1],"split_conditions":[-2.46851E-1,-1.380386E-1,3.3272E-2,-1.141405E0,-7.236763E0,7.464349E-1,3.71102E-1,-2.2353625E0,5.5565096E-2,5.0646195E0,-2.673768E-1,2.465154E-1,1.9969787E-1,8.225177E-1,2.0380095E-1,-2.0308451E-1,1.1343103E-2,-2.0029658E-1,2.3285787E-1,-2.784087E-2,-1.3480946E-1,6.0892E-2,-7.044391E-2,-2.0185068E-1,-1.2701227E-1,2.2005476E-1,-7.256464E-2,-1.9974208E-1,-1.0492609E-1,-2.05795E-1,-1.8897521E-1],"split_indices":[0,22,0,0,0,51,0,19,23,32,38,56,43,22,66,0,0,0,0,0,0,0,0,0,0,0,0,0,0,0,0],"split_type":[0,0,0,0,0,0,0,0,0,0,0,0,0,0,0,0,0,0,0,0,0,0,0,0,0,0,0,0,0,0,0],"sum_hessian":[4.7900888E5,1.7392583E5,3.0508306E5,3.500908E4,1.3891675E5,3.2960598E4,2.7212244E5,1.3794433E4,2.1214646E4,3.9974703E4,9.894204E4,2.8369463E4,4.5911357E3,6.1208496E4,2.1091395E5,2.7617532E3,1.1032679E4,2.1079984E4,1.3466248E2,1.3317365E4,2.665734E4,7.051431E4,2.8427725E4,1.4118917E4,1.4250547E4,1.2624421E3,3.3286934E3,5.428172E4,6.926779E3,1.8384186E5,2.7072092E4],"tree_param":{"num_deleted":"0","num_feature":"161","num_nodes":"31","size_leaf_vector":"1"}},{"base_weights":[1.7301443E-1,-4.679179E-1,2.968598E-1,2.6438432E-2,-5.451983E-1,4.0171573E-1,-5.3861326E-1,-5.9402466E-1,3.8342178E-1,-5.815971E-1,-3.1517288E-1,4.59057E-1,1.8168934E-1,-1.7940608E-1,-5.8091223E-1,-2.1790898E-1,-9.855961E-2,1.8305382E-1,-1.7225677E-1,-1.1031003E-1,-2.1490301E-1,1.88109E-1,-2.2564667E-1,1.0102415E-1,1.7827134E-1,-1.1708948E-1,8.3901905E-2,-1.699048E-1,1.6043536E-1,-2.113602E-1,-1.987324E-1],"categories":[],"categories_nodes":[],"categories_segments":[],"categories_sizes":[],"default_left":[0,0,0,0,1,1,0,0,0,0,0,0,0,0,0,0,0,0,0,0,0,0,0,0,0,0,0,0,0,0,0],"id":11,"left_children":[1,3,5,7,9,11,13,15,17,19,21,23,25,27,29,-1,-1,-1,-1,-1,-1,-1,-1,-1,-1,-1,-1,-1,-1,-1,-1],"loss_changes":[5.6063863E4,4.3696562E3,5.1855484E4,3.4253513E3,8.279863E2,6.63525E3,1.0028008E3,2.0233643E1,1.058394E3,3.6067383E2,3.5285566E3,2.6902734E3,2.8315688E3,1.2720596E3,1.0246094E1,0E0,0E0,0E0,0E0,0E0,0E0,0E0,0E0,0E0,0E0,0E0,0E0,0E0,0E0,0E0,0E0],"parents":[2147483647,0,0,1,1,2,2,3,3,4,4,5,5,6,6,7,7,8,8,9,9,10,10,11,11,12,12,13,13,14,14],"right_children":[2,4,6,8,10,12,14,16,18,20,22,24,26,28,30,-1,-1,-1,-1,-1,-1,-1,-1,-1,-1,-1,-1,-1,-1,-1,-1],"split_conditions":[-9.36028E-1,-6.4739627E-1,2.49345E0,-3.067793E0,-7.4666886E0,-6.6467643E0,3.478447E0,-3.318317E0,3.438561E-1,-3.740533E-1,-2.433555E0,-1.77731E-1,-3.26092E-1,2.2602284E0,-1.9413742E-1,-2.1790898E-1,-9.855961E-2,1.8305382E-1,-1.7225677E-1,-1.1031003E-1,-2.1490301E-1,1.88109E-1,-2.2564667E-1,1.0102415E-1,1.7827134E-1,-1.1708948E-1,8.3901905E-2,-1.699048E-1,1.6043536E-1,-2.113602E-1,-1.987324E-1],"split_indices":[0,18,0,0,65,33,0,0,23,18,67,0,0,72,97,0,0,0,0,0,0,0,0,0,0,0,0,0,0,0,0],"split_type":[0,0,0,0,0,0,0,0,0,0,0,0,0,0,0,0,0,0,0,0,0,0,0,0,0,0,0,0,0,0,0],"sum_hessian":[7.0630025E5,1.143753E5,5.9192494E5,1.5462661E4,9.891263E4,5.2591994E5,6.600499E4,5.647036E3,9.815625E3,8.5397914E4,1.3514725E4,4.1719366E5,1.08726305E5,6.95423E3,5.905076E4,5.4540728E3,1.9296312E2,8.5722295E3,1.2433955E3,4.5146396E3,8.088327E4,3.664157E3,9.850567E3,7.026973E4,3.4692394E5,1.0003699E4,9.872261E4,4.737259E3,2.2169714E3,4.8598438E4,1.0452324E4],"tree_param":{"num_deleted":"0","num_feature":"161","num_nodes":"31","size_leaf_vector":"1"}},{"base_weights":[8.4285714E-2,-2.9769503E-3,5.444961E-1,2.6881E-1,-1.421939E-1,3.375031E-1,6.075979E-1,4.303169E-1,1.522341E-1,-2.5514516E-1,7.7330326E-3,1.6590835E-1,7.152239E-1,6.1186826E-1,5.8979267E-1,2.098045E-1,1.3250488E-1,-1.079938E-2,1.5464553E-1,-1.0516097E-1,3.3294577E-2,3.1939378E-1,-1.24583505E-2,2.1255636E-1,-3.5966217E-4,3.3012408E-1,2.272953E-1,2.0938048E-1,2.2062123E-1,-7.830399E-2,2.1257904E-1],"categories":[],"categories_nodes":[],"categories_segments":[],"categories_sizes":[],"default_left":[0,0,0,0,0,0,0,0,0,0,0,0,0,0,0,0,0,0,0,0,0,0,0,0,0,0,0,0,0,0,0],"id":12,"left_children":[1,3,5,7,9,11,13,15,17,19,21,23,25,27,29,-1,-1,-1,-1,-1,-1,-1,-1,-1,-1,-1,-1,-1,-1,-1,-1],"loss_changes":[2.340705E4,1.853864E4,1.2132539E3,3.1245967E3,5.486694E3,1.406812E3,5.0546875E0,6.601035E2,4.8714863E3,2.3747646E3,5.1838237E3,1.0577052E3,1.14143555E2,1.3261719E0,7.979492E0,0E0,0E0,0E0,0E0,0E0,0E0,0E0,0E0,0E0,0E0,0E0,0E0,0E0,0E0,0E0,0E0],"parents":[2147483647,0,0,1,1,2,2,3,3,4,4,5,5,6,6,7,7,8,8,9,9,10,10,11,11,12,12,13,13,14,14],"right_children":[2,4,6,8,10,12,14,16,18,20,22,24,26,28,30,-1,-1,-1,-1,-1,-1,-1,-1,-1,-1,-1,-1,-1,-1,-1,-1],"split_conditions":[1.805935E0,-6.30506E-1,3.478447E0,-6.223592E0,-2.150929E-1,3.550929E0,-2.1598944E-1,-2.399648E1,-7.121373E-1,9.86149E-1,-3.7805073E1,6.752981E-1,2.090275E0,3.909108E0,0E0,2.098045E-1,1.3250488E-1,-1.079938E-2,1.5464553E-1,-1.0516097E-1,3.3294577E-2,3.1939378E-1,-1.24583505E-2,2.1255636E-1,-3.5966217E-4,3.3012408E-1,2.272953E-1,2.0938048E-1,2.2062123E-1,-7.830399E-2,2.1257904E-1],"split_indices":[0,0,0,0,4,127,65,0,70,0,97,51,0,0,75,0,0,0,0,0,0,0,0,0,0,0,0,0,0,0,0],"split_type":[0,0,0,0,0,0,0,0,0,0,0,0,0,0,0,0,0,0,0,0,0,0,0,0,0,0,0,0,0,0,0],"sum_hessian":[5.8285556E5,4.899541E5,9.290151E4,1.6595897E5,3.2399512E5,2.1705895E4,7.119562E4,6.9571016E4,9.638795E4,1.8478327E5,1.3921184E5,1.4926414E4,6.7794795E3,5.7396336E4,1.3799278E4,2.0166264E4,4.940475E4,5.81679E4,3.8220055E4,1.6702156E5,1.7761705E4,6.3931987E3,1.3281866E5,4.211642E3,1.0714772E4,1.9871959E3,4.7922837E3,1.7988572E3,5.559748E4,1.1766391E1,1.3787512E4],"tree_param":{"num_deleted":"0","num_feature":"161","num_nodes":"31","size_leaf_vector":"1"}},{"base_weights":[-3.274555E-1,-8.230278E-2,-5.1748294E-1,-3.0894727E-1,-7.5147E-3,-3.9371917E-1,-5.295313E-1,-3.6921278E-2,-5.018195E-1,-2.0169821E-1,5.6745782E-2,-4.7819358E-1,1.5655162E-2,-4.931624E-1,-5.3916603E-1,-1.696853E-1,1.969506E-2,-1.901787E-1,-5.9725694E-2,-4.045979E-3,-1.1410068E-1,4.798942E-2,-6.427179E-2,-1.914077E-1,-1.1673543E-1,2.8397718E-1,-6.873175E-2,-1.8970098E-1,-8.5463315E-2,-1.9679977E-1,-1.7644984E-1],"categories":[],"categories_nodes":[],"categories_segments":[],"categories_sizes":[],"default_left":[0,0,0,0,0,0,0,0,0,0,0,0,0,0,1,0,0,0,0,0,0,0,0,0,0,0,0,0,0,0,0],"id":13,"left_children":[1,3,5,7,9,11,13,15,17,19,21,23,25,27,29,-1,-1,-1,-1,-1,-1,-1,-1,-1,-1,-1,-1,-1,-1,-1,-1],"loss_changes":[1.8879242E4,2.9995764E3,3.4021094E2,2.3035688E3,1.6603529E3,7.0052466E2,7.263281E1,7.251553E2,2.2821387E2,7.261987E2,1.8008185E3,1.3809766E2,5.5373267E2,3.7646875E2,6.020703E1,0E0,0E0,0E0,0E0,0E0,0E0,0E0,0E0,0E0,0E0,0E0,0E0,0E0,0E0,0E0,0E0],"parents":[2147483647,0,0,1,1,2,2,3,3,4,4,5,5,6,6,7,7,8,8,9,9,10,10,11,11,12,12,13,13,14,14],"right_children":[2,4,6,8,10,12,14,16,18,20,22,24,26,28,30,-1,-1,-1,-1,-1,-1,-1,-1,-1,-1,-1,-1,-1,-1,-1,-1],"split_conditions":[-1.08322E-1,1.64E-4,8.2581E-2,-9.91352E-1,-7.236763E0,7.1494496E-1,3.71102E-1,-2.0101027E1,4.169186E-1,5.9204698E0,-1.539605E-1,-4.937825E-1,-2.3601357E1,8.338553E-1,2.0362736E-1,-1.696853E-1,1.969506E-2,-1.901787E-1,-5.9725694E-2,-4.045979E-3,-1.1410068E-1,4.798942E-2,-6.427179E-2,-1.914077E-1,-1.1673543E-1,2.8397718E-1,-6.873175E-2,-1.8970098E-1,-8.5463315E-2,-1.9679977E-1,-1.7644984E-1],"split_indices":[0,22,0,0,0,84,0,0,26,64,70,3,2,22,34,0,0,0,0,0,0,0,0,0,0,0,0,0,0,0,0],"split_type":[0,0,0,0,0,0,0,0,0,0,0,0,0,0,0,0,0,0,0,0,0,0,0,0,0,0,0,0,0,0,0],"sum_hessian":[4.0525797E5,1.7696212E5,2.2829584E5,4.3905086E4,1.3305703E5,2.02559E4,2.0803995E5,1.8215389E4,2.5689697E4,3.3083266E4,9.9973766E4,1.6790924E4,3.464976E3,4.3581617E4,1.6445833E5,3.172078E3,1.5043312E4,2.3813695E4,1.8760017E3,1.2472414E4,2.0610852E4,7.542981E4,2.4543955E4,1.2458716E4,4.3322075E3,7.299854E2,2.7349907E3,3.8495555E4,5.086064E3,1.426295E5,2.182882E4],"tree_param":{"num_deleted":"0","num_feature":"161","num_nodes":"31","size_leaf_vector":"1"}},{"base_weights":[1.3298646E-1,-4.0225318E-1,2.3651877E-1,5.6801908E-2,-5.1111686E-1,3.0941105E-1,-5.4004115E-1,-5.664658E-1,3.19825E-1,-5.497294E-1,-2.1813029E-1,4.186867E-1,1.8440305E-1,-2.583516E-1,-5.510675E-1,-2.0850095E-1,-6.947715E-2,1.554222E-1,-1.3093103E-1,-5.8026794E-2,-2.0180617E-1,2.2847655E-1,-2.1680562E-1,1.7248084E-1,8.856152E-2,-1.5453021E-1,7.614763E-2,-1.8409051E-1,1.3273749E-1,-1.995872E-1,-1.7771E-1],"categories":[],"categories_nodes":[],"categories_segments":[],"categories_sizes":[],"default_left":[0,0,0,0,0,0,0,0,0,0,0,0,0,0,0,0,0,0,0,0,0,0,0,0,0,0,0,0,0,0,0],"id":14,"left_children":[1,3,5,7,9,11,13,15,17,19,21,23,25,27,29,-1,-1,-1,-1,-1,-1,-1,-1,-1,-1,-1,-1,-1,-1,-1,-1],"loss_changes":[3.5008195E4,5.117131E3,2.996445E4,3.2179983E3,9.3621484E2,6.610586E3,1.4094727E2,2.75271E1,1.0560188E3,3.0800586E2,3.1578435E3,2.694246E3,3.7563198E3,2.7196262E2,8.115234E0,0E0,0E0,0E0,0E0,0E0,0E0,0E0,0E0,0E0,0E0,0E0,0E0,0E0,0E0,0E0,0E0],"parents":[2147483647,0,0,1,1,2,2,3,3,4,4,5,5,6,6,7,7,8,8,9,9,10,10,11,11,12,12,13,13,14,14],"right_children":[2,4,6,8,10,12,14,16,18,20,22,24,26,28,30,-1,-1,-1,-1,-1,-1,-1,-1,-1,-1,-1,-1,-1,-1,-1,-1],"split_conditions":[-8.38646E-1,-4.8103377E-1,3.092834E0,-3.067793E0,-6.754862E0,-1.0927109E0,3.478447E0,-6.3888397E0,3.4482652E-1,-3.7104E-1,-2.4182072E0,7.438735E-1,-3.427888E1,2.073384E0,1.06275E-3,-2.0850095E-1,-6.947715E-2,1.554222E-1,-1.3093103E-1,-5.8026794E-2,-2.0180617E-1,2.2847655E-1,-2.1680562E-1,1.7248084E-1,8.856152E-2,-1.5453021E-1,7.614763E-2,-1.8409051E-1,1.3273749E-1,-1.995872E-1,-1.7771E-1],"split_indices":[0,18,0,0,1,3,0,1,55,83,3,21,129,39,65,0,0,0,0,0,0,0,0,0,0,0,0,0,0,0,0],"split_type":[0,0,0,0,0,0,0,0,0,0,0,0,0,0,0,0,0,0,0,0,0,0,0,0,0,0,0,0,0,0,0],"sum_hessian":[6.317477E5,1.0239335E5,5.293544E5,1.962776E4,8.2765586E4,4.8393053E5,4.5423844E4,5.824556E3,1.3803203E4,7.312731E4,9.638277E3,2.582122E5,2.2571831E5,1.7119905E3,4.371185E4,5.632422E3,1.9213423E2,1.1861636E4,1.9415674E3,1.9858229E3,7.114149E4,2.9928848E3,6.645392E3,1.9127694E5,6.693526E4,9.552012E3,2.1616631E5,1.2199469E3,4.9204355E2,4.1300227E4,2.4116255E3],"tree_param":{"num_deleted":"0","num_feature":"161","num_nodes":"31","size_leaf_vector":"1"}},{"base_weights":[7.727135E-2,9.444117E-3,4.9240977E-1,1.9887798E-1,-1.0036327E-1,2.9702106E-1,5.685436E-1,-8.051665E-2,2.6322147E-1,-1.7070737E-1,1.1128579E-1,1.4742927E-1,6.539965E-1,5.710225E-1,5.3033304E-1,9.8793626E-2,-1.00470856E-1,7.624256E-2,1.9505583E-1,-1.2267782E-1,-4.205775E-2,1.08208515E-1,-2.8766444E-2,1.8807042E-1,-3.9535374E-4,2.7224323E-1,2.0321642E-1,1.9144206E-1,2.059676E-1,-2.900009E-2,1.9711313E-1],"categories":[],"categories_nodes":[],"categories_segments":[],"categories_sizes":[],"default_left":[0,0,0,0,1,0,0,0,0,1,0,0,0,0,0,0,0,0,0,0,0,0,0,0,0,0,0,0,0,0,0],"id":15,"left_children":[1,3,5,7,9,11,13,15,17,19,21,23,25,27,29,-1,-1,-1,-1,-1,-1,-1,-1,-1,-1,-1,-1,-1,-1,-1,-1],"loss_changes":[1.4867754E4,9.440963E3,1.1029297E3,2.9940767E3,4.27769E3,1.1103518E3,4.751953E0,2.197407E3,1.9397959E3,1.9759521E3,2.59398E3,8.162377E2,5.5762695E1,1.8769531E0,3.4355774E1,0E0,0E0,0E0,0E0,0E0,0E0,0E0,0E0,0E0,0E0,0E0,0E0,0E0,0E0,0E0,0E0],"parents":[2147483647,0,0,1,1,2,2,3,3,4,4,5,5,6,6,7,7,8,8,9,9,10,10,11,11,12,12,13,13,14,14],"right_children":[2,4,6,8,10,12,14,16,18,20,22,24,26,28,30,-1,-1,-1,-1,-1,-1,-1,-1,-1,-1,-1,-1,-1,-1,-1,-1],"split_conditions":[1.805935E0,-4.45263E-1,3.478447E0,-1.380386E-1,-3.4789234E-1,3.6746233E0,6.22E-4,-2.564293E0,-5.4378176E-1,1.6399145E0,7.82211E-1,6.5945876E-1,3.650383E-1,3.909108E0,4.579905E-1,9.8793626E-2,-1.00470856E-1,7.624256E-2,1.9505583E-1,-1.2267782E-1,-4.205775E-2,1.08208515E-1,-2.8766444E-2,1.8807042E-1,-3.9535374E-4,2.7224323E-1,2.0321642E-1,1.9144206E-1,2.059676E-1,-2.900009E-2,1.9711313E-1],"split_indices":[0,0,0,22,66,159,129,0,67,128,21,82,137,0,147,0,0,0,0,0,0,0,0,0,0,0,0,0,0,0,0],"split_type":[0,0,0,0,0,0,0,0,0,0,0,0,0,0,0,0,0,0,0,0,0,0,0,0,0,0,0,0,0,0,0],"sum_hessian":[5.2801675E5,4.5386347E5,7.415329E4,1.6654612E5,2.8731734E5,2.079367E4,5.3359613E4,3.1175309E4,1.3537083E5,2.1564525E5,7.1672086E4,1.4654193E4,6.139477E3,5.009574E4,3.263876E3,1.1183806E4,1.9991502E4,1.14274625E5,2.1096197E4,5.1882207E4,1.6376305E5,3.601463E4,3.5657457E4,4.156848E3,1.0497346E4,2.8624878E3,3.2769893E3,1.3909479E3,4.8704793E4,8.9296265E1,3.1745798E3],"tree_param":{"num_deleted":"0","num_feature":"161","num_nodes":"31","size_leaf_vector":"1"}},{"base_weights":[-2.8018945E-1,-4.993774E-2,-4.9377134E-1,-2.4565846E-1,2.1100262E-2,-3.8035384E-1,-5.0995785E-1,7.442863E-3,-4.4329643E-1,5.4668974E-2,-3.097077E-1,-4.5776045E-1,4.6005193E-3,-5.190305E-1,-4.5476633E-1,5.6739904E-2,-8.2941584E-2,-1.8976147E-1,-1.07837014E-1,-7.610723E-3,1.4358993E-1,-2.574179E-2,-1.384231E-1,-1.840358E-1,-1.10430926E-1,2.1696182E-1,-6.314872E-2,-1.716198E-1,-1.9064619E-1,-1.2058162E-1,-1.9000551E-1],"categories":[],"categories_nodes":[],"categories_segments":[],"categories_sizes":[],"default_left":[0,1,0,0,0,0,1,0,0,0,0,1,0,0,0,0,0,0,0,0,0,0,0,0,0,0,0,0,0,0,0],"id":16,"left_children":[1,3,5,7,9,11,13,15,17,19,21,23,25,27,29,-1,-1,-1,-1,-1,-1,-1,-1,-1,-1,-1,-1,-1,-1,-1,-1],"loss_changes":[1.7079783E4,2.32376E3,3.3057812E2,2.2263894E3,1.361759E3,6.7065283E2,7.871484E1,6.970763E2,3.009702E2,2.904963E3,2.0126514E2,1.5108936E2,4.0587408E2,6.014453E1,1.9466309E2,0E0,0E0,0E0,0E0,0E0,0E0,0E0,0E0,0E0,0E0,0E0,0E0,0E0,0E0,0E0,0E0],"parents":[2147483647,0,0,1,1,2,2,3,3,4,4,5,5,6,6,7,7,8,8,9,9,10,10,11,11,12,12,13,13,14,14],"right_children":[2,4,6,8,10,12,14,16,18,20,22,24,26,28,30,-1,-1,-1,-1,-1,-1,-1,-1,-1,-1,-1,-1,-1,-1,-1,-1],"split_conditions":[-9.108E-2,1.4033522E-1,1.47707E-1,-1.056621E0,-1.997215E-1,7.14426E-1,6.7096E-2,1.3482267E-1,-1.5043627E-1,-2.5174663E0,-2.220816E-1,-4.762588E-1,-2.2495373E1,3.71102E-1,9.86149E-1,5.6739904E-2,-8.2941584E-2,-1.8976147E-1,-1.07837014E-1,-7.610723E-3,1.4358993E-1,-2.574179E-2,-1.384231E-1,-1.840358E-1,-1.10430926E-1,2.1696182E-1,-6.314872E-2,-1.716198E-1,-1.9064619E-1,-1.2058162E-1,-1.9000551E-1],"split_indices":[0,119,0,0,35,20,66,27,118,34,131,35,130,0,0,0,0,0,0,0,0,0,0,0,0,0,0,0,0,0,0],"split_type":[0,0,0,0,0,0,0,0,0,0,0,0,0,0,0,0,0,0,0,0,0,0,0,0,0,0,0,0,0,0,0],"sum_hessian":[3.4730772E5,1.6713222E5,1.801755E5,4.450675E4,1.2262547E5,2.2505547E4,1.5766995E5,1.9515525E4,2.4991225E4,1.1132918E5,1.1296286E4,1.87376E4,3.7679458E3,1.3540323E5,2.226671E4,1.1962702E4,7.5528237E3,1.5784671E4,9.206555E3,9.123515E4,2.0094027E4,2.7000286E3,8.596257E3,1.3837395E4,4.900206E3,8.711891E2,2.8967568E3,2.7018105E4,1.0838513E5,8.434131E3,1.383258E4],"tree_param":{"num_deleted":"0","num_feature":"161","num_nodes":"31","size_leaf_vector":"1"}},{"base_weights":[1.0045553E-1,-3.350173E-1,1.8974108E-1,1.0594385E-1,-4.8174998E-1,2.432378E-1,-5.1536167E-1,-5.4837024E-1,2.962686E-1,-5.244572E-1,-2.4107727E-1,3.02537E-1,4.3736383E-2,-1.8836544E-1,-5.299708E-1,-2.0209165E-1,-7.222126E-2,1.454984E-1,-9.903569E-2,-3.0417016E-2,-1.9410944E-1,3.3194676E-1,-1.6313507E-1,1.6610533E-1,9.395378E-2,1.1653322E-1,-1.3229574E-2,1.518141E-1,-1.6689226E-1,-1.9228485E-1,-1.65034E-1],"categories":[],"categories_nodes":[],"categories_segments":[],"categories_sizes":[],"default_left":[0,0,0,0,0,1,0,0,0,0,0,1,0,0,0,0,0,0,0,0,0,0,0,0,0,0,0,0,0,0,0],"id":17,"left_children":[1,3,5,7,9,11,13,15,17,19,21,23,25,27,29,-1,-1,-1,-1,-1,-1,-1,-1,-1,-1,-1,-1,-1,-1,-1,-1],"loss_changes":[2.2029508E4,6.2375713E3,1.7735617E4,2.997646E3,7.4334375E2,5.170084E3,1.582998E2,2.4400146E1,1.1496323E3,3.982207E2,2.6898972E3,2.223871E3,2.256409E3,2.3855156E2,9.1875E0,0E0,0E0,0E0,0E0,0E0,0E0,0E0,0E0,0E0,0E0,0E0,0E0,0E0,0E0,0E0,0E0],"parents":[2147483647,0,0,1,1,2,2,3,3,4,4,5,5,6,6,7,7,8,8,9,9,10,10,11,11,12,12,13,13,14,14],"right_children":[2,4,6,8,10,12,14,16,18,20,22,24,26,28,30,-1,-1,-1,-1,-1,-1,-1,-1,-1,-1,-1,-1,-1,-1,-1,-1],"split_conditions":[-7.06858E-1,-3.740533E-1,3.092834E0,-3.067793E0,-7.2959733E0,-6.6647277E0,3.478447E0,-6.3888397E0,3.0059946E-1,-3.0526114E-1,-2.166274E0,1.673276E0,8.3093184E-1,3.7147462E0,6.22E-4,-2.0209165E-1,-7.222126E-2,1.454984E-1,-9.903569E-2,-3.0417016E-2,-1.9410944E-1,3.3194676E-1,-1.6313507E-1,1.6610533E-1,9.395378E-2,1.1653322E-1,-1.3229574E-2,1.518141E-1,-1.6689226E-1,-1.9228485E-1,-1.65034E-1],"split_indices":[0,18,0,0,1,65,0,1,24,147,10,96,32,32,129,0,0,0,0,0,0,0,0,0,0,0,0,0,0,0,0],"split_type":[0,0,0,0,0,0,0,0,0,0,0,0,0,0,0,0,0,0,0,0,0,0,0,0,0,0,0,0,0,0,0],"sum_hessian":[5.665791E5,9.64007E4,4.701784E5,2.4068953E4,7.233175E4,4.3702184E5,3.3156555E4,5.4230986E3,1.8645854E4,6.142988E4,1.0901875E4,3.368863E5,1.0013556E5,1.4185773E3,3.1737979E4,5.2271484E3,1.9594992E2,1.56844E4,2.961454E3,1.9909993E3,5.943888E4,1.6806765E3,9.221198E3,6.98462E4,2.670401E5,2.2358549E4,7.7777016E4,4.4084744E2,9.7772986E2,2.9990307E4,1.7476732E3],"tree_param":{"num_deleted":"0","num_feature":"161","num_nodes":"31","size_leaf_vector":"1"}},{"base_weights":[7.211901E-2,2.8446233E-2,5.200272E-1,2.649277E-1,-1.36827E-2,2.9334474E-1,5.4240143E-1,5.07983E-1,2.0117584E-1,-1.2026938E-1,6.3326776E-2,5.072954E-1,-1.7009303E-1,5.455654E-1,4.943259E-1,1.92728E-1,1.1891396E-1,4.951043E-2,1.5469362E-1,-5.3205363E-2,1.3981067E-1,2.0023353E-1,6.967886E-3,4.5850117E-2,1.8924357E-1,-1.7091833E-1,2.1241114E-1,1.7690758E-1,1.969564E-1,-4.685085E-2,1.8583912E-1],"categories":[],"categories_nodes":[],"categories_segments":[],"categories_sizes":[],"default_left":[0,0,0,0,0,0,0,0,0,0,0,0,0,0,0,0,0,0,0,0,0,0,0,0,0,0,0,0,0,0,0],"id":18,"left_children":[1,3,5,7,9,11,13,15,17,19,21,23,25,27,29,-1,-1,-1,-1,-1,-1,-1,-1,-1,-1,-1,-1,-1,-1,-1,-1],"loss_changes":[9.4956875E3,4.406565E3,2.1857227E2,1.0362412E3,3.0815654E3,3.8444937E2,5.7001953E0,6.740527E1,7.706255E2,2.2045515E3,4.723604E3,1.8455994E1,2.8401096E2,2.7929688E0,3.3349426E1,0E0,0E0,0E0,0E0,0E0,0E0,0E0,0E0,0E0,0E0,0E0,0E0,0E0,0E0,0E0,0E0],"parents":[2147483647,0,0,1,1,2,2,3,3,4,4,5,5,6,6,7,7,8,8,9,9,10,10,11,11,12,12,13,13,14,14],"right_children":[2,4,6,8,10,12,14,16,18,20,22,24,26,28,30,-1,-1,-1,-1,-1,-1,-1,-1,-1,-1,-1,-1,-1,-1,-1,-1],"split_conditions":[2.770406E0,-4.729746E0,3.478447E0,-2.399648E1,-3.5533252E-1,2.1030517E0,6.22E-4,-9.052182E-1,-4.793875E0,1.176254E0,-3.8301464E1,6.63905E-2,3.6533568E0,3.909108E0,4.579905E-1,1.92728E-1,1.1891396E-1,4.951043E-2,1.5469362E-1,-5.3205363E-2,1.3981067E-1,2.0023353E-1,6.967886E-3,4.5850117E-2,1.8924357E-1,-1.7091833E-1,2.1241114E-1,1.7690758E-1,1.969564E-1,-4.685085E-2,1.8583912E-1],"split_indices":[0,0,0,0,6,103,129,68,2,0,129,120,127,0,147,0,0,0,0,0,0,0,0,0,0,0,0,0,0,0,0],"split_type":[0,0,0,0,0,0,0,0,0,0,0,0,0,0,0,0,0,0,0,0,0,0,0,0,0,0,0,0,0,0,0],"sum_hessian":[4.8542978E5,4.4230447E5,4.3125332E4,6.688047E4,3.75424E5,3.8754712E3,3.924986E4,1.3895725E4,5.2984742E4,1.574715E5,2.179525E5,2.6513528E3,1.2241184E3,3.6816516E4,2.4333438E3,1.2038916E4,1.8568087E3,4.1443918E4,1.1540827E4,1.4938845E5,8.08305E3,1.7850818E4,2.0010167E5,1.2271815E2,2.5286348E3,8.7412054E2,3.4999786E2,1.0240515E3,3.5792465E4,8.2255806E1,2.351088E3],"tree_param":{"num_deleted":"0","num_feature":"161","num_nodes":"31","size_leaf_vector":"1"}},{"base_weights":[-2.333695E-1,-2.1721106E-2,-4.7425175E-1,-2.2592963E-1,3.4864765E-2,-4.01012E-1,-5.0253797E-1,3.5459928E-3,-4.44436E-1,-4.351639E-1,5.516962E-2,-4.6602628E-1,-6.978563E-2,-5.148823E-1,-4.3183875E-1,-1.9612077E-1,2.2162877E-2,-1.7177331E-1,-3.2496817E-2,1.1628885E-1,-1.6735463E-1,3.0198636E-2,-8.768182E-2,-1.8253085E-1,-1.3895234E-1,4.0482245E-2,-1.7043059E-1,-1.9013524E-1,-1.7934495E-1,-1.0357507E-1,-1.8690412E-1],"categories":[],"categories_nodes":[],"categories_segments":[],"categories_sizes":[],"default_left":[0,1,0,0,0,0,0,1,0,0,0,1,0,0,0,0,0,0,0,0,0,0,0,0,0,0,0,0,0,0,0],"id":19,"left_children":[1,3,5,7,9,11,13,15,17,19,21,23,25,27,29,-1,-1,-1,-1,-1,-1,-1,-1,-1,-1,-1,-1,-1,-1,-1,-1],"loss_changes":[1.54719E4,1.8666696E3,2.938418E2,1.7575038E3,1.2072444E3,8.5164795E2,8.913672E1,5.439373E2,2.079685E2,1.1814441E2,1.0401646E3,1.08316895E2,4.774643E2,1.905664E1,1.9151807E2,0E0,0E0,0E0,0E0,0E0,0E0,0E0,0E0,0E0,0E0,0E0,0E0,0E0,0E0,0E0,0E0],"parents":[2147483647,0,0,1,1,2,2,3,3,4,4,5,5,6,6,7,7,8,8,9,9,10,10,11,11,12,12,13,13,14,14],"right_children":[2,4,6,8,10,12,14,16,18,20,22,24,26,28,30,-1,-1,-1,-1,-1,-1,-1,-1,-1,-1,-1,-1,-1,-1,-1,-1],"split_conditions":[-5.731E-2,1.64E-4,3.71102E-1,-9.36028E-1,-2.6723757E1,7.19475E-1,2.0144975E-1,-2.1198552E0,4.2330793E-1,1.5773472E0,-2.3235226E-1,-1.0106049E0,2.2765257E0,8.2518375E-1,1.052628E0,-1.9612077E-1,2.2162877E-2,-1.7177331E-1,-3.2496817E-2,1.1628885E-1,-1.6735463E-1,3.0198636E-2,-8.768182E-2,-1.8253085E-1,-1.3895234E-1,4.0482245E-2,-1.7043059E-1,-1.9013524E-1,-1.7934495E-1,-1.0357507E-1,-1.8690412E-1],"split_indices":[0,86,0,0,0,20,2,85,90,96,67,99,31,151,0,0,0,0,0,0,0,0,0,0,0,0,0,0,0,0,0],"split_type":[0,0,0,0,0,0,0,0,0,0,0,0,0,0,0,0,0,0,0,0,0,0,0,0,0,0,0,0,0,0,0],"sum_hessian":[3.0347484E5,1.6154036E5,1.4193447E5,3.5049574E4,1.2649079E5,3.954868E4,1.0238579E5,1.7096158E4,1.7953418E4,5.237175E3,1.2125361E5,3.305928E4,6.489398E3,8.716088E4,1.5224907E4,1.6350312E3,1.5461126E4,1.6435072E4,1.5183466E3,1.97111E2,5.040064E3,1.1062089E5,1.0632727E4,2.1857555E4,1.1201728E4,4.471348E3,2.0180498E3,4.8551676E4,3.860921E4,5.7463623E3,9.478544E3],"tree_param":{"num_deleted":"0","num_feature":"161","num_nodes":"31","size_leaf_vector":"1"}},{"base_weights":[7.2019555E-2,-5.4073924E-1,1.1983604E-1,-5.474065E-1,-3.839646E-1,1.5198748E-1,-5.1484394E-1,-5.401346E-1,-5.623915E-1,-5.501924E-1,2.5543678E-1,-6.781977E-2,2.0048675E-1,-5.2057064E-1,-4.207253E-1,-1.9191639E-1,-1.9568862E-1,-2.0578921E-1,-1.9778138E-1,-2.049053E-1,-3.8947523E-2,4.3784964E-1,-1.6303548E-1,1.1702631E-1,-1.0752246E-1,9.734858E-2,1.8765137E-2,-1.5458736E-1,-1.8832172E-1,2.1435304E-1,-1.6497068E-1],"categories":[],"categories_nodes":[],"categories_segments":[],"categories_sizes":[],"default_left":[0,0,0,0,0,0,0,0,0,0,0,0,0,0,0,0,0,0,0,0,0,0,0,0,0,0,0,0,0,0,0],"id":20,"left_children":[1,3,5,7,9,11,13,15,17,19,21,23,25,27,29,-1,-1,-1,-1,-1,-1,-1,-1,-1,-1,-1,-1,-1,-1,-1,-1],"loss_changes":[1.4950723E4,3.839746E1,9.658723E3,3.5566406E0,1.606403E2,4.802629E3,1.2081543E1,2.890625E-1,1.0739746E0,1.0000305E1,2.1306125E2,7.386271E3,3.8288584E3,4.7661133E0,5.038562E1,0E0,0E0,0E0,0E0,0E0,0E0,0E0,0E0,0E0,0E0,0E0,0E0,0E0,0E0,0E0,0E0],"parents":[2147483647,0,0,1,1,2,2,3,3,4,4,5,5,6,6,7,7,8,8,9,9,10,10,11,11,12,12,13,13,14,14],"right_children":[2,4,6,8,10,12,14,16,18,20,22,24,26,28,30,-1,-1,-1,-1,-1,-1,-1,-1,-1,-1,-1,-1,-1,-1,-1,-1],"split_conditions":[-3.067793E0,-3.318317E0,3.478447E0,-6.223592E0,-6.7837567E0,-3.48013E-1,6.22E-4,-2.184454E1,-1.0812098E0,-5.0107937E0,-2.500901E0,-1.4901543E-1,-7.825302E-1,3.909108E0,4.579905E-1,-1.9191639E-1,-1.9568862E-1,-2.0578921E-1,-1.9778138E-1,-2.049053E-1,-3.8947523E-2,4.3784964E-1,-1.6303548E-1,1.1702631E-1,-1.0752246E-1,9.734858E-2,1.8765137E-2,-1.5458736E-1,-1.8832172E-1,2.1435304E-1,-1.6497068E-1],"split_indices":[0,0,0,0,65,0,129,0,6,129,106,21,2,0,147,0,0,0,0,0,0,0,0,0,0,0,0,0,0,0,0],"split_type":[0,0,0,0,0,0,0,0,0,0,0,0,0,0,0,0,0,0,0,0,0,0,0,0,0,0,0,0,0,0,0],"sum_hessian":[5.102608E5,3.693506E4,4.7332575E5,3.542599E4,1.5090701E3,4.5050497E5,2.2820785E4,2.387638E4,1.1549606E4,1.1978099E3,3.112601E2,8.143353E4,3.6907144E5,2.1507617E4,1.3131687E3,7.900737E3,1.5975645E4,6.724181E3,4.825425E3,1.1481947E3,4.9615276E1,1.3178261E2,1.794775E2,3.0139064E4,5.1294465E4,2.5084289E5,1.18228555E5,5.8879626E2,2.091882E4,4.6238888E1,1.2669298E3],"tree_param":{"num_deleted":"0","num_feature":"161","num_nodes":"31","size_leaf_vector":"1"}},{"base_weights":[6.546098E-2,3.3114046E-2,4.9683058E-1,-9.339726E-2,8.238718E-2,5.241003E-1,2.6903212E-1,5.0471056E-2,-1.83396E-1,2.5011408E-1,4.1382436E-2,5.260108E-1,4.1411933E-1,-4.4536015E-1,4.8413217E-1,-1.5235832E-2,1.4843003E-1,-9.075433E-2,5.361349E-2,1.8382956E-1,7.3974535E-2,-2.3526859E-2,6.1723586E-2,1.7688243E-1,1.9080438E-1,-5.5854505E-1,1.6495965E-1,-2.2806299E-1,1.6774656E-2,1.1428826E-1,1.8365923E-1],"categories":[],"categories_nodes":[],"categories_segments":[],"categories_sizes":[],"default_left":[0,1,0,0,0,1,0,0,0,0,0,0,0,0,0,0,0,0,0,0,0,0,0,0,0,0,0,0,0,0,0],"id":21,"left_children":[1,3,5,7,9,11,13,15,17,19,21,23,25,27,29,-1,-1,-1,-1,-1,-1,-1,-1,-1,-1,-1,-1,-1,-1,-1,-1],"loss_changes":[6.355877E3,2.6413914E3,1.9723877E2,1.5378983E3,2.097376E3,5.7441406E0,5.225372E2,1.5347146E3,1.6681799E3,6.964458E2,3.4021187E3,3.6079102E0,4.311933E1,7.28862E1,1.1174805E1,0E0,0E0,0E0,0E0,0E0,0E0,0E0,0E0,0E0,0E0,0E0,0E0,0E0,0E0,0E0,0E0],"parents":[2147483647,0,0,1,1,2,2,3,3,4,4,5,5,6,6,7,7,8,8,9,9,10,10,11,11,12,12,13,13,14,14],"right_children":[2,4,6,8,10,12,14,16,18,20,22,24,26,28,30,-1,-1,-1,-1,-1,-1,-1,-1,-1,-1,-1,-1,-1,-1,-1,-1],"split_conditions":[2.770406E0,1.8418009E0,2.0936925E0,-1.77731E-1,-3.067793E0,1.536E-3,3.796143E0,-2.17666E-1,-1.7746998E0,-2.6723757E1,-1.2587758E0,3.909108E0,1.052375E-1,1.5312339E0,4.397533E0,-1.5235832E-2,1.4843003E-1,-9.075433E-2,5.361349E-2,1.8382956E-1,7.3974535E-2,-2.3526859E-2,6.1723586E-2,1.7688243E-1,1.9080438E-1,-5.5854505E-1,1.6495965E-1,-2.2806299E-1,1.6774656E-2,1.1428826E-1,1.8365923E-1],"split_indices":[0,64,7,0,0,97,32,68,1,0,3,0,109,2,64,0,0,0,0,0,0,0,0,0,0,0,0,0,0,0,0],"split_type":[0,0,0,0,0,0,0,0,0,0,0,0,0,0,0,0,0,0,0,0,0,0,0,0,0,0,0,0,0,0,0],"sum_hessian":[4.555048E5,4.237317E5,3.177312E4,1.1877357E5,3.0495812E5,2.8375045E4,3.3980747E3,4.570764E4,7.306593E4,5.990716E4,2.4505097E5,2.7886838E4,4.8820615E2,7.861235E2,2.6119514E3,3.637908E4,9.328564E3,6.0549145E4,1.2516782E4,8.760029E3,5.1147133E4,1.3460056E5,1.10450414E5,2.8982136E3,2.4988625E4,9.963211E0,4.7824295E2,5.684375E2,2.1768596E2,3.5464288E2,2.2573083E3],"tree_param":{"num_deleted":"0","num_feature":"161","num_nodes":"31","size_leaf_vector":"1"}},{"base_weights":[-2.0086862E-1,-1.9919958E-2,-4.5362794E-1,-4.972039E-2,2.4294505E-1,-3.712318E-1,-4.8605564E-1,8.170562E-3,-2.2443542E-1,4.0548676E-1,-2.122451E-1,-4.4224593E-1,-1.9012075E-2,-5.012441E-1,-4.0184134E-1,7.080969E-2,-2.0508539E-2,-1.747898E-1,-3.3119924E-2,2.4173954E-1,-2.8983636E-2,-2.0668398E-1,-4.8713066E-2,-1.748198E-1,-1.21265315E-1,5.9137996E-2,-1.5904105E-1,-1.8671983E-1,-1.7275205E-1,-9.129738E-2,-1.8287686E-1],"categories":[],"categories_nodes":[],"categories_segments":[],"categories_sizes":[],"default_left":[0,1,0,0,0,1,1,0,1,0,0,0,0,1,0,0,0,0,0,0,0,0,0,0,0,0,0,0,0,0,0],"id":22,"left_children":[1,3,5,7,9,11,13,15,17,19,21,23,25,27,29,-1,-1,-1,-1,-1,-1,-1,-1,-1,-1,-1,-1,-1,-1,-1,-1],"loss_changes":[1.2389319E4,1.2366803E3,3.0179297E2,1.4341785E3,1.1894402E3,7.984336E2,1.0352734E2,1.3079236E3,1.2202086E3,1.5314714E3,1.17696014E2,1.2125537E2,4.151809E2,2.533789E1,1.9493237E2,0E0,0E0,0E0,0E0,0E0,0E0,0E0,0E0,0E0,0E0,0E0,0E0,0E0,0E0,0E0,0E0],"parents":[2147483647,0,0,1,1,2,2,3,3,4,4,5,5,6,6,7,7,8,8,9,9,10,10,11,11,12,12,13,13,14,14],"right_children":[2,4,6,8,10,12,14,16,18,20,22,24,26,28,30,-1,-1,-1,-1,-1,-1,-1,-1,-1,-1,-1,-1,-1,-1,-1,-1],"split_conditions":[-4.082E-2,1.1325021E0,3.71102E-1,-5.95232E-1,3.315337E0,7.877733E-1,2.0380095E-1,1.7850845E0,1.4623007E-1,-7.053127E-2,-1.0753724E1,4.8859832E-1,2.2765257E0,8.2518375E-1,1.076403E0,7.080969E-2,-2.0508539E-2,-1.747898E-1,-3.3119924E-2,2.4173954E-1,-2.8983636E-2,-2.0668398E-1,-4.8713066E-2,-1.748198E-1,-1.21265315E-1,5.9137996E-2,-1.5904105E-1,-1.8671983E-1,-1.7275205E-1,-9.129738E-2,-1.8287686E-1],"split_indices":[0,148,0,0,31,53,66,32,152,4,4,23,31,151,0,0,0,0,0,0,0,0,0,0,0,0,0,0,0,0,0],"split_type":[0,0,0,0,0,0,0,0,0,0,0,0,0,0,0,0,0,0,0,0,0,0,0,0,0,0,0,0,0,0,0],"sum_hessian":[2.7088412E5,1.5786834E5,1.1301578E5,1.4179425E5,1.6074095E4,3.192059E4,8.1095195E4,1.0650523E5,3.5289023E4,1.1844653E4,4.229442E3,2.6564441E4,5.356147E3,6.869987E4,1.239533E4,2.7349348E4,7.915588E4,1.1875084E4,2.341394E4,7.654536E3,4.1901167E3,7.403652E2,3.489077E3,1.881829E4,7.7461523E3,3.736752E3,1.6193951E3,3.7838785E4,3.086108E4,5.1736943E3,7.2216357E3],"tree_param":{"num_deleted":"0","num_feature":"161","num_nodes":"31","size_leaf_vector":"1"}},{"base_weights":[5.2082818E-2,-5.2892977E-1,9.111895E-2,-5.3710765E-1,-3.5654762E-1,1.13935E-1,-5.014553E-1,-1.909805E-1,-5.496968E-1,-5.520318E-1,1.9342077E-1,1.9378877E-1,1.1368936E-2,-5.09171E-1,-3.7972867E-1,-2.0104906E-1,-1.9398305E-1,-2.0165578E-1,-8.296967E-2,3.556619E-1,-1.5649073E-1,1.4223131E-2,1.009076E-1,-1.1232151E-1,1.9326035E-2,-1.3773952E-1,-1.8462887E-1,-1.5766808E-1,1.2197295E-1],"categories":[],"categories_nodes":[],"categories_segments":[],"categories_sizes":[],"default_left":[0,0,0,0,0,0,0,0,0,0,0,0,0,0,0,0,0,0,0,0,0,0,0,0,0,0,0,0,0],"id":23,"left_children":[1,3,5,7,9,11,13,-1,15,17,19,21,23,25,27,-1,-1,-1,-1,-1,-1,-1,-1,-1,-1,-1,-1,-1,-1],"loss_changes":[1.0672823E4,4.1572266E1,5.961743E3,2.0610352E0,1.4468332E2,3.4775825E3,1.5161133E1,0E0,6.2353516E-1,2.4630432E0,1.7679E2,3.186293E3,2.5433162E3,6.9768066E0,4.109207E1,0E0,0E0,0E0,0E0,0E0,0E0,0E0,0E0,0E0,0E0,0E0,0E0,0E0,0E0],"parents":[2147483647,0,0,1,1,2,2,3,3,4,4,5,5,6,6,8,8,9,9,10,10,11,11,12,12,13,13,14,14],"right_children":[2,4,6,8,10,12,14,-1,16,18,20,22,24,26,28,-1,-1,-1,-1,-1,-1,-1,-1,-1,-1,-1,-1,-1,-1],"split_conditions":[-3.067793E0,-3.318317E0,3.478447E0,-6.223592E0,-7.4993777E0,-2.4979084E0,1.06275E-3,-1.909805E-1,-3.116605E0,-4.5279274E0,-2.500901E0,-3.8109077E1,-4.19509E-1,3.909108E0,1.3652733E2,-2.0104906E-1,-1.9398305E-1,-2.0165578E-1,-8.296967E-2,3.556619E-1,-1.5649073E-1,1.4223131E-2,1.009076E-1,-1.1232151E-1,1.9326035E-2,-1.3773952E-1,-1.8462887E-1,-1.5766808E-1,1.2197295E-1],"split_indices":[0,0,0,0,97,2,65,0,5,33,106,1,0,0,0,0,0,0,0,0,0,0,0,0,0,0,0,0,0],"split_type":[0,0,0,0,0,0,0,0,0,0,0,0,0,0,0,0,0,0,0,0,0,0,0,0,0,0,0,0,0],"sum_hessian":[4.7056997E5,2.962467E4,4.4094528E5,2.8280898E4,1.3437709E3,4.245977E5,1.6347599E4,1.8576096E4,9.704804E3,9.9138354E2,3.5238733E2,2.3873077E5,1.8586694E5,1.5370177E4,9.7742267E2,5.3392793E3,4.365524E3,9.662332E2,2.5150373E1,1.5533078E2,1.9705656E2,8.5770734E4,1.5296002E5,2.1506322E4,1.6436061E5,4.3805585E2,1.493212E4,9.0450275E2,7.2919914E1],"tree_param":{"num_deleted":"0","num_feature":"161","num_nodes":"29","size_leaf_vector":"1"}},{"base_weights":[5.8675338E-2,2.6835427E-2,3.7912908E-1,1.0794272E-1,-3.1892117E-2,2.3777364E-1,5.0956976E-1,-1.3097101E-1,1.7542684E-1,-2.6696745E-1,6.012852E-3,1.04169115E-1,5.833866E-1,5.156522E-1,4.245079E-1,3.1345025E-2,-9.943614E-2,4.032463E-2,1.340647E-1,1.1148436E0,-9.911424E-2,1.2191678E-1,-1.3277025E-2,2.3156147E-1,5.478004E-3,2.5820157E-1,1.5163957E-1,1.2185558E-1,1.8614233E-1,-7.674034E-2,1.6533028E-1],"categories":[],"categories_nodes":[],"categories_segments":[],"categories_sizes":[],"default_left":[0,0,0,0,0,0,0,0,0,0,0,0,0,0,0,0,0,0,0,0,0,0,0,0,0,0,0,0,0,0,0],"id":24,"left_children":[1,3,5,7,9,11,13,15,17,19,21,23,25,27,29,-1,-1,-1,-1,-1,-1,-1,-1,-1,-1,-1,-1,-1,-1,-1,-1],"loss_changes":[4.4260474E3,1.8795076E3,7.227671E2,2.6718687E3,2.0393469E3,8.688402E2,1.0330078E1,1.1559133E3,1.6140264E3,8.934509E2,2.8121562E3,6.5079114E2,1.13558716E2,4.576172E0,3.0367813E1,0E0,0E0,0E0,0E0,0E0,0E0,0E0,0E0,0E0,0E0,0E0,0E0,0E0,0E0,0E0,0E0],"parents":[2147483647,0,0,1,1,2,2,3,3,4,4,5,5,6,6,7,7,8,8,9,9,10,10,11,11,12,12,13,13,14,14],"right_children":[2,4,6,8,10,12,14,16,18,20,22,24,26,28,30,-1,-1,-1,-1,-1,-1,-1,-1,-1,-1,-1,-1,-1,-1,-1,-1],"split_conditions":[1.805935E0,-1.60347E-1,3.478447E0,2.22422E-2,-2.9085448E0,3.4827073E0,1.06275E-3,-1.141405E0,-1.056621E0,-4.2917153E-1,-3.8343124E1,1.7555504E0,5.356404E-1,-3.437067E-2,4.5820233E-1,3.1345025E-2,-9.943614E-2,4.032463E-2,1.340647E-1,1.1148436E0,-9.911424E-2,1.2191678E-1,-1.3277025E-2,2.3156147E-1,5.478004E-3,2.5820157E-1,1.5163957E-1,1.2185558E-1,1.8614233E-1,-7.674034E-2,1.6533028E-1],"split_indices":[0,0,0,24,6,63,65,0,0,155,97,30,105,128,83,0,0,0,0,0,0,0,0,0,0,0,0,0,0,0,0],"split_type":[0,0,0,0,0,0,0,0,0,0,0,0,0,0,0,0,0,0,0,0,0,0,0,0,0,0,0,0,0,0,0],"sum_hessian":[4.337893E5,3.945849E5,3.9204414E4,1.657166E5,2.2886831E5,1.881638E4,2.0388033E4,3.6498867E4,1.2921773E5,3.1778914E4,1.970894E5,1.3571363E4,5.245017E3,1.9022732E4,1.3652994E3,1.4592481E4,2.1906387E4,9.7749805E4,3.1467922E4,7.777366E1,3.170114E4,2.2510494E4,1.745789E5,1.9213903E3,1.1649973E4,2.8715881E3,2.373429E3,1.5208495E2,1.8870648E4,7.027763E1,1.2950217E3],"tree_param":{"num_deleted":"0","num_feature":"161","num_nodes":"31","size_leaf_vector":"1"}},{"base_weights":[-1.6502105E-1,-8.58926E-3,-4.4298956E-1,-1.4907615E-1,4.847071E-2,-3.6622778E-1,-4.729826E-1,2.4165342E-2,-3.2341334E-1,-1.22019E-2,1.8812154E-1,-4.4081905E-1,-2.9350195E-2,-4.9213824E-1,-3.7377548E-1,6.1551195E-2,-6.638906E-2,-1.703229E-1,-7.243549E-2,6.450973E-3,-8.7706625E-2,-1.5042044E-1,8.453562E-2,-1.7572957E-1,-1.2289168E-1,4.9102042E-2,-1.384931E-1,-1.8471918E-1,-1.6853613E-1,-7.32413E-2,-1.7623927E-1],"categories":[],"categories_nodes":[],"categories_segments":[],"categories_sizes":[],"default_left":[0,1,0,0,0,1,0,0,0,0,0,0,0,0,0,0,0,0,0,0,0,0,0,0,0,0,0,0,0,0,0],"id":25,"left_children":[1,3,5,7,9,11,13,15,17,19,21,23,25,27,29,-1,-1,-1,-1,-1,-1,-1,-1,-1,-1,-1,-1,-1,-1,-1,-1],"loss_changes":[1.0694203E4,1.2615546E3,2.0373242E2,1.3729175E3,9.4829224E2,6.2535156E2,1.2083008E2,6.982355E2,4.1440356E2,5.4389343E2,9.593246E2,9.571997E1,2.6583524E2,2.6600586E1,2.0321326E2,0E0,0E0,0E0,0E0,0E0,0E0,0E0,0E0,0E0,0E0,0E0,0E0,0E0,0E0,0E0,0E0],"parents":[2147483647,0,0,1,1,2,2,3,3,4,4,5,5,6,6,7,7,8,8,9,9,10,10,11,11,12,12,13,13,14,14],"right_children":[2,4,6,8,10,12,14,16,18,20,22,24,26,28,30,-1,-1,-1,-1,-1,-1,-1,-1,-1,-1,-1,-1,-1,-1,-1,-1],"split_conditions":[3.3272E-2,2.9992518E-1,3.94833E-1,-1.141405E0,-1.1448009E1,8.1832325E-1,2.0362736E-1,3.6493015E-1,-1.7025381E-1,2.957313E0,-1.6393898E0,5.130448E-1,2.275601E0,8.2518375E-1,1.029541E0,6.1551195E-2,-6.638906E-2,-1.703229E-1,-7.243549E-2,6.450973E-3,-8.7706625E-2,-1.5042044E-1,8.453562E-2,-1.7572957E-1,-1.2289168E-1,4.9102042E-2,-1.384931E-1,-1.8471918E-1,-1.6853613E-1,-7.32413E-2,-1.7623927E-1],"split_indices":[0,153,0,0,1,54,34,30,150,29,12,24,63,151,0,0,0,0,0,0,0,0,0,0,0,0,0,0,0,0,0],"split_type":[0,0,0,0,0,0,0,0,0,0,0,0,0,0,0,0,0,0,0,0,0,0,0,0,0,0,0,0,0,0,0],"sum_hessian":[2.4593833E5,1.5737419E5,8.856413E4,4.5455926E4,1.1191827E5,2.488602E4,6.367811E4,2.2800043E4,2.265588E4,7.802186E4,3.389641E4,2.0374416E4,4.5116035E3,5.3369215E4,1.03088955E4,1.3381531E4,9.418512E3,1.0180892E4,1.247499E4,6.903729E4,8.984568E3,2.424829E3,3.1471582E4,1.3803147E4,6.5712686E3,3.0770247E3,1.434579E3,2.846158E4,2.4907633E4,4.172807E3,6.136089E3],"tree_param":{"num_deleted":"0","num_feature":"161","num_nodes":"31","size_leaf_vector":"1"}},{"base_weights":[3.5012234E-2,-5.1996166E-1,6.647187E-2,-5.288381E-1,-3.4374684E-1,8.248281E-2,-4.8996857E-1,-1.8849164E-1,-5.384017E-1,-5.3493637E-1,1.6247948E-1,2.9591894E-1,4.965386E-2,-4.9974623E-1,-3.4285158E-1,-1.9522639E-1,-1.853054E-1,-1.969491E-1,-7.6000966E-2,3.1669948E-1,-1.4361511E-1,-7.5984605E-2,1.2593308E-1,-8.4606335E-2,4.5431852E-2,-1.17520586E-1,-1.8186004E-1,1.5679121E-1,-1.4611907E-1],"categories":[],"categories_nodes":[],"categories_segments":[],"categories_sizes":[],"default_left":[0,0,0,0,0,1,1,0,0,0,0,0,0,0,0,0,0,0,0,0,0,0,0,0,0,0,0,0,0],"id":26,"left_children":[1,3,5,7,9,11,13,-1,15,17,19,21,23,25,27,-1,-1,-1,-1,-1,-1,-1,-1,-1,-1,-1,-1,-1,-1],"loss_changes":[7.678837E3,3.6723145E1,3.708191E3,8.461914E-1,1.0987633E2,2.8348206E3,1.6574707E1,0E0,4.5117188E-1,3.1235352E0,1.2587863E2,1.4737505E3,7.6407515E3,1.0087158E1,3.592939E1,0E0,0E0,0E0,0E0,0E0,0E0,0E0,0E0,0E0,0E0,0E0,0E0,0E0,0E0],"parents":[2147483647,0,0,1,1,2,2,3,3,4,4,5,5,6,6,8,8,9,9,10,10,11,11,12,12,13,13,14,14],"right_children":[2,4,6,8,10,12,14,-1,16,18,20,22,24,26,28,-1,-1,-1,-1,-1,-1,-1,-1,-1,-1,-1,-1,-1,-1],"split_conditions":[-3.067793E0,-3.318317E0,3.478447E0,-6.223592E0,-7.523669E0,1.21672735E-1,6.22E-4,-1.8849164E-1,-3.243989E0,-5.0777307E0,-2.628646E0,-1.244102E0,-2.4927E-2,3.909108E0,4.579905E-1,-1.9522639E-1,-1.853054E-1,-1.969491E-1,-7.6000966E-2,3.1669948E-1,-1.4361511E-1,-7.5984605E-2,1.2593308E-1,-8.4606335E-2,4.5431852E-2,-1.17520586E-1,-1.8186004E-1,1.5679121E-1,-1.4611907E-1],"split_indices":[0,0,0,0,129,56,129,0,2,1,137,0,0,0,147,0,0,0,0,0,0,0,0,0,0,0,0,0,0],"split_type":[0,0,0,0,0,0,0,0,0,0,0,0,0,0,0,0,0,0,0,0,0,0,0,0,0,0,0,0,0],"sum_hessian":[4.3981116E5,2.3593143E4,4.1621803E5,2.2459781E4,1.1333618E3,4.0457762E5,1.1640406E4,1.4535744E4,7.924037E3,8.2262085E2,3.1074094E2,5.3932098E4,3.5064553E5,1.09127295E4,7.2767694E2,6.7856074E3,1.13843E3,7.922205E2,3.040035E1,1.3618631E2,1.7455461E2,5.18205E3,4.875005E4,7.430504E4,2.7634047E5,3.32837E2,1.0579893E4,5.407115E1,6.7360583E2],"tree_param":{"num_deleted":"0","num_feature":"161","num_nodes":"29","size_leaf_vector":"1"}},{"base_weights":[5.3548396E-2,3.744787E-2,4.9709696E-1,-6.677912E-2,7.677553E-2,5.053602E-1,3.865441E-1,-1.12041965E-1,2.2906612E-1,4.0186062E-2,2.3364972E-1,3.7650758E-1,5.0948733E-1,4.4052598E-1,-1.6378391E-1,2.896607E-3,-8.142127E-2,-1.4308465E-2,1.2152181E-1,1.5217651E-1,9.490816E-3,1.5487288E-1,2.0225933E-2,1.649867E-1,-2.984815E-1,9.346137E-2,1.8418524E-1,1.1940825E-1,1.8583132E-1,-3.3450863E-1,1.5167236E-1],"categories":[],"categories_nodes":[],"categories_segments":[],"categories_sizes":[],"default_left":[0,1,1,0,0,0,0,0,0,0,0,0,0,0,0,0,0,0,0,0,0,0,0,0,0,0,0,0,0,0,0],"id":27,"left_children":[1,3,5,7,9,11,13,15,17,19,21,23,25,27,29,-1,-1,-1,-1,-1,-1,-1,-1,-1,-1,-1,-1,-1,-1,-1,-1],"loss_changes":[2.9835168E3,1.6525157E3,1.3173096E1,1.4789819E3,1.6800984E3,7.047119E0,3.0433334E1,1.3128593E3,4.2744287E2,1.2549714E3,1.9309663E3,4.2417385E1,6.913574E0,7.49617E0,4.160226E1,0E0,0E0,0E0,0E0,0E0,0E0,0E0,0E0,0E0,0E0,0E0,0E0,0E0,0E0,0E0,0E0],"parents":[2147483647,0,0,1,1,2,2,3,3,4,4,5,5,6,6,7,7,8,8,9,9,10,10,11,11,12,12,13,13,14,14],"right_children":[2,4,6,8,10,12,14,16,18,20,22,24,26,28,30,-1,-1,-1,-1,-1,-1,-1,-1,-1,-1,-1,-1,-1,-1,-1,-1],"split_conditions":[3.478447E0,1.8425157E0,6.22E-4,-1.7486823E0,-4.4947144E-1,3.909108E0,1.3652733E2,1.9574E-2,-3.1238804E0,-2.184454E1,7.7238834E-1,2.1030517E0,-3.604686E-2,1.0429882E1,4.0333512E-1,2.896607E-3,-8.142127E-2,-1.4308465E-2,1.2152181E-1,1.5217651E-1,9.490816E-3,1.5487288E-1,2.0225933E-2,1.649867E-1,-2.984815E-1,9.346137E-2,1.8418524E-1,1.1940825E-1,1.8583132E-1,-3.3450863E-1,1.5167236E-1],"split_indices":[0,128,129,129,34,0,0,0,33,0,147,103,96,0,117,0,0,0,0,0,0,0,0,0,0,0,0,0,0,0,0],"split_type":[0,0,0,0,0,0,0,0,0,0,0,0,0,0,0,0,0,0,0,0,0,0,0,0,0,0,0,0,0,0,0],"sum_hessian":[4.1778125E5,4.031483E5,1.4632939E4,1.1044472E5,2.927036E5,1.3611943E4,1.0209962E3,9.578995E4,1.4654763E4,2.3734606E5,5.5357543E4,4.2531522E2,1.3186628E4,9.2997424E2,9.102196E1,4.6676695E4,4.9113258E4,4.2141606E3,1.0440603E4,8.276417E3,2.2906964E5,2.6265654E4,2.909189E4,3.9887558E2,2.6439629E1,1.1292986E2,1.3073698E4,3.836164E2,5.463579E2,3.9179844E1,5.184211E1],"tree_param":{"num_deleted":"0","num_feature":"161","num_nodes":"31","size_leaf_vector":"1"}},{"base_weights":[-1.3536233E-1,-9.2172995E-2,-3.1737593E-1,-4.059647E-2,-1.7337647E-1,-3.690458E-1,-2.674857E-1,-7.293968E-2,2.5505528E-1,-1.2377397E-1,-2.5078866E-1,-3.8738784E-1,-4.8640646E-2,-4.842742E-2,-3.132354E-1,-1.63846E-2,-8.297356E-2,5.0203096E-2,1.6461112E-1,-5.2674945E-2,7.6859176E-2,-1.6972956E-1,-6.633162E-2,-1.217093E-1,-1.6851969E-1,9.615816E-1,-3.4052648E-2,2.0390088E-2,-1.336032E-1,-8.654058E-2,-1.4106996E-1],"categories":[],"categories_nodes":[],"categories_segments":[],"categories_sizes":[],"default_left":[0,0,1,0,0,0,0,0,0,0,0,0,0,0,0,0,0,0,0,0,0,0,0,0,0,0,0,0,0,0,0],"id":28,"left_children":[1,3,5,7,9,11,13,15,17,19,21,23,25,27,29,-1,-1,-1,-1,-1,-1,-1,-1,-1,-1,-1,-1,-1,-1,-1,-1],"loss_changes":[1.7912056E3,7.713082E2,1.1254932E2,1.0770189E3,2.7465454E2,1.26122314E2,2.2283032E2,4.3866492E2,2.5954517E2,3.315699E2,4.1008838E2,8.064502E1,1.4563657E2,1.303077E2,1.05257935E2,0E0,0E0,0E0,0E0,0E0,0E0,0E0,0E0,0E0,0E0,0E0,0E0,0E0,0E0,0E0,0E0],"parents":[2147483647,0,0,1,1,2,2,3,3,4,4,5,5,6,6,7,7,8,8,9,9,10,10,11,11,12,12,13,13,14,14],"right_children":[2,4,6,8,10,12,14,16,18,20,22,24,26,28,30,-1,-1,-1,-1,-1,-1,-1,-1,-1,-1,-1,-1,-1,-1,-1,-1],"split_conditions":[-7.053127E-2,1.9312022E0,9.584523E-1,1.2442485E0,-6.625956E-2,4.946667E-3,1.4524424E0,1.6010936E0,-2.6148303E0,-1.1715493E0,5.391544E-1,-1.0378983E-1,2.2631E-1,8.4440476E-1,2.474497E-1,-1.63846E-2,-8.297356E-2,5.0203096E-2,1.6461112E-1,-5.2674945E-2,7.6859176E-2,-1.6972956E-1,-6.633162E-2,-1.217093E-1,-1.6851969E-1,9.615816E-1,-3.4052648E-2,2.0390088E-2,-1.336032E-1,-8.654058E-2,-1.4106996E-1],"split_indices":[4,95,149,90,42,97,159,31,2,130,21,2,127,3,3,0,0,0,0,0,0,0,0,0,0,0,0,0,0,0,0],"split_type":[0,0,0,0,0,0,0,0,0,0,0,0,0,0,0,0,0,0,0,0,0,0,0,0,0,0,0,0,0,0,0],"sum_hessian":[2.2786112E5,1.8416322E5,4.3697906E4,1.1262852E5,7.1534695E4,2.1462953E4,2.2234953E4,1.0152303E5,1.1105491E4,4.3600145E4,2.7934549E4,2.0300607E4,1.1623473E3,3.8417886E3,1.8393164E4,8.6470484E4,1.5052549E4,7.066858E3,4.0386338E3,4.086879E4,2.7313562E3,6.4696753E3,2.1464873E4,1.2605911E4,7.694696E3,1.8362696E1,1.1439846E3,2.8987874E3,9.4300134E2,9.549665E3,8.8435E3],"tree_param":{"num_deleted":"0","num_feature":"161","num_nodes":"31","size_leaf_vector":"1"}},{"base_weights":[2.0961456E-2,4.49264E-2,-1.4114504E-1,-8.811779E-2,8.702834E-2,2.3993742E-1,-1.7971466E-1,-6.4201816E-3,-4.4255883E-1,1.9407398E-1,2.7504416E-2,2.8866488E-1,-4.4898582E-1,-4.96094E-3,-2.4440247E-1,2.554722E-3,-2.673616E-1,-2.8637105E-1,-3.6036525E-2,5.650921E-2,2.0884208E-1,6.0689934E-2,-1.18224025E-2,5.4228846E-2,1.3708743E-1,-2.7159467E-1,-3.739579E-2,-2.9627515E-2,1.4590219E-1,-2.0296304E-1,-3.6670074E-2],"categories":[],"categories_nodes":[],"categories_segments":[],"categories_sizes":[],"default_left":[1,0,0,0,0,0,0,1,0,0,0,0,0,0,0,0,0,0,0,0,0,0,0,0,0,0,0,0,0,0,0],"id":29,"left_children":[1,3,5,7,9,11,13,15,17,19,21,23,25,27,29,-1,-1,-1,-1,-1,-1,-1,-1,-1,-1,-1,-1,-1,-1,-1,-1],"loss_changes":[1.605182E3,2.0163542E3,7.822267E2,2.5056714E3,1.7422986E3,1.6433334E2,5.4629456E2,6.998331E2,1.958918E3,1.3995422E3,1.4960286E3,5.804654E1,3.4023193E1,4.142908E2,1.6056221E3,0E0,0E0,0E0,0E0,0E0,0E0,0E0,0E0,0E0,0E0,0E0,0E0,0E0,0E0,0E0,0E0],"parents":[2147483647,0,0,1,1,2,2,3,3,4,4,5,5,6,6,7,7,8,8,9,9,10,10,11,11,12,12,13,13,14,14],"right_children":[2,4,6,8,10,12,14,16,18,20,22,24,26,28,30,-1,-1,-1,-1,-1,-1,-1,-1,-1,-1,-1,-1,-1,-1,-1,-1],"split_conditions":[-3.4831488E0,-3.8770206E1,-1.4111407E0,1.1573243E-1,-2.433555E0,5.4038877E0,3.758598E-1,-1.1617371E0,1.130291E0,-3.1755364E0,1.7005122E0,-3.1759712E-1,3.1687233E0,2.8275669E0,5.79355E-1,2.554722E-3,-2.673616E-1,-2.8637105E-1,-3.6036525E-2,5.650921E-2,2.0884208E-1,6.0689934E-2,-1.18224025E-2,5.4228846E-2,1.3708743E-1,-2.7159467E-1,-3.739579E-2,-2.9627515E-2,1.4590219E-1,-2.0296304E-1,-3.6670074E-2],"split_indices":[129,65,98,7,67,62,28,99,30,66,128,6,160,31,24,0,0,0,0,0,0,0,0,0,0,0,0,0,0,0,0],"split_type":[0,0,0,0,0,0,0,0,0,0,0,0,0,0,0,0,0,0,0,0,0,0,0,0,0,0,0,0,0,0,0],"sum_hessian":[4.1318503E5,3.5996978E5,5.3215258E4,8.652991E4,2.7343988E5,4.890458E3,4.83248E4,7.032193E4,1.6207979E4,9.771341E4,1.7572647E5,4.567948E3,3.2250952E2,1.3055776E4,3.5269027E4,6.905516E4,1.2667745E3,7.9814473E3,8.226531E3,8.914662E4,8.566791E3,5.264541E4,1.23081055E5,1.8295922E3,2.7383562E3,1.7045743E2,1.520521E2,1.0985612E4,2.0701643E3,1.0882432E4,2.4386594E4],"tree_param":{"num_deleted":"0","num_feature":"161","num_nodes":"31","size_leaf_vector":"1"}},{"base_weights":[3.8479086E-2,2.4933634E-2,4.909925E-1,-1.2483771E-1,4.5544643E-2,5.0005955E-1,3.7022406E-1,-3.5890102E-2,-2.8610653E-1,-3.7127215E-2,8.692816E-2,3.485336E-1,5.0513905E-1,4.2365935E-1,-8.710631E-2,1.4509621E-1,-2.5716072E-2,-1.2791713E-1,2.0346037E-1,-2.6170895E-2,8.13809E-2,1.20982595E-1,2.0937817E-2,1.622374E-1,-3.0160826E-1,9.253484E-2,1.8272743E-1,1.03300564E-1,1.8220848E-1,-2.3152533E-1,1.6494069E-1],"categories":[],"categories_nodes":[],"categories_segments":[],"categories_sizes":[],"default_left":[0,1,0,0,0,0,0,0,0,0,0,0,0,0,0,0,0,0,0,0,0,0,0,0,0,0,0,0,0,0,0],"id":30,"left_children":[1,3,5,7,9,11,13,15,17,19,21,23,25,27,29,-1,-1,-1,-1,-1,-1,-1,-1,-1,-1,-1,-1,-1,-1,-1,-1],"loss_changes":[2.5214834E3,1.2329773E3,1.2906738E1,6.930754E2,1.2012031E3,8.3811035E0,2.053505E1,4.8589008E2,1.012271E3,1.0964602E3,1.6768911E3,4.445913E1,6.3728027E0,8.325043E0,2.7151474E1,0E0,0E0,0E0,0E0,0E0,0E0,0E0,0E0,0E0,0E0,0E0,0E0,0E0,0E0,0E0,0E0],"parents":[2147483647,0,0,1,1,2,2,3,3,4,4,5,5,6,6,7,7,8,8,9,9,10,10,11,11,12,12,13,13,14,14],"right_children":[2,4,6,8,10,12,14,16,18,20,22,24,26,28,30,-1,-1,-1,-1,-1,-1,-1,-1,-1,-1,-1,-1,-1,-1,-1,-1],"split_conditions":[3.478447E0,1.0892411E-1,1.06275E-3,-3.70884E-1,2.3721647E0,3.909108E0,1.3652733E2,-2.0101027E1,8.54359E-1,-1.748824E0,6.46369E-1,1.8771694E0,-3.359372E-2,9.975182E0,3.650655E-1,1.4509621E-1,-2.5716072E-2,-1.2791713E-1,2.0346037E-1,-2.6170895E-2,8.13809E-2,1.20982595E-1,2.0937817E-2,1.622374E-1,-3.0160826E-1,9.253484E-2,1.8272743E-1,1.03300564E-1,1.8220848E-1,-2.3152533E-1,1.6494069E-1],"split_indices":[0,88,65,0,160,0,0,0,0,65,126,70,160,95,115,0,0,0,0,0,0,0,0,0,0,0,0,0,0,0,0],"split_type":[0,0,0,0,0,0,0,0,0,0,0,0,0,0,0,0,0,0,0,0,0,0,0,0,0,0,0,0,0,0,0],"sum_hessian":[4.1136966E5,3.994147E5,1.195495E4,4.8316246E4,3.5109847E5,1.1117153E4,8.377966E2,3.1141445E4,1.7174799E4,1.1712264E5,2.3397581E5,3.628432E2,1.0754311E4,7.5021387E2,8.75827E1,2.3320464E3,2.8809398E4,1.5883836E4,1.2909641E3,1.0317868E5,1.394396E4,2.4219338E4,2.0975648E5,3.346545E2,2.8188679E1,1.0565051E2,1.0648659E4,2.8397235E2,4.662415E2,4.3275253E1,4.430745E1],"tree_param":{"num_deleted":"0","num_feature":"161","num_nodes":"31","size_leaf_vector":"1"}},{"base_weights":[-1.07797384E-1,2.7910974E-2,-4.1110867E-1,7.215681E-2,-1.11954965E-1,-3.1627473E-1,-4.4763586E-1,-4.6470305E-1,8.59111E-2,-2.6671427E-1,1.4391887E-1,-4.425823E-1,-7.5781815E-2,-4.7374505E-1,-3.1320873E-1,-1.8005829E-1,-1.0423042E-1,4.0039424E-2,-5.2526917E-2,-4.9463008E-3,-1.4229473E-1,-1.2593225E-1,1.2519595E-1,-1.7533122E-1,-8.574712E-2,-1.6961843E-1,8.677356E-3,-1.8158019E-1,-1.5823114E-1,-4.814509E-2,-1.7225993E-1],"categories":[],"categories_nodes":[],"categories_segments":[],"categories_sizes":[],"default_left":[0,0,0,0,0,0,0,0,0,0,0,0,0,1,0,0,0,0,0,0,0,0,0,0,0,0,0,0,0,0,0],"id":31,"left_children":[1,3,5,7,9,11,13,15,17,19,21,23,25,27,29,-1,-1,-1,-1,-1,-1,-1,-1,-1,-1,-1,-1,-1,-1,-1,-1],"loss_changes":[8.916764E3,9.2620483E2,2.3181934E2,8.39598E2,1.4243241E3,5.65678E2,1.6951562E2,1.749768E1,6.504482E2,7.288447E2,1.3644968E3,1.10816895E2,2.5332736E2,4.2216797E1,2.3324927E2,0E0,0E0,0E0,0E0,0E0,0E0,0E0,0E0,0E0,0E0,0E0,0E0,0E0,0E0,0E0,0E0],"parents":[2147483647,0,0,1,1,2,2,3,3,4,4,5,5,6,6,7,7,8,8,9,9,10,10,11,11,12,12,13,13,14,14],"right_children":[2,4,6,8,10,12,14,16,18,20,22,24,26,28,30,-1,-1,-1,-1,-1,-1,-1,-1,-1,-1,-1,-1,-1,-1,-1,-1],"split_conditions":[3.3272E-2,-5.61699E-1,3.71102E-1,-3.36231E1,-7.982887E-1,6.665706E-1,2.0362736E-1,-3.7705986E1,-6.05043E-1,-4.0027573E1,2.6160163E-1,-4.47219E-1,-2.0960798E0,8.2518375E-1,1.076403E0,-1.8005829E-1,-1.0423042E-1,4.0039424E-2,-5.2526917E-2,-4.9463008E-3,-1.4229473E-1,-1.2593225E-1,1.2519595E-1,-1.7533122E-1,-8.574712E-2,-1.6961843E-1,8.677356E-3,-1.8158019E-1,-1.5823114E-1,-4.814509E-2,-1.7225993E-1],"split_indices":[0,0,0,0,3,24,34,0,35,129,26,2,38,151,0,0,0,0,0,0,0,0,0,0,0,0,0,0,0,0,0],"split_type":[0,0,0,0,0,0,0,0,0,0,0,0,0,0,0,0,0,0,0,0,0,0,0,0,0,0,0,0,0,0,0],"sum_hessian":[2.1662547E5,1.4966352E5,6.6961945E4,1.1369667E5,3.5966844E4,1.862259E4,4.833936E4,2.8393137E3,1.1085736E5,2.2411645E4,1.3555201E4,1.2209359E4,6.413231E3,4.047547E4,7.863888E3,2.359789E3,4.7952466E2,9.994599E4,1.0911367E4,7.5516562E3,1.4859987E4,3.9609175E3,9.594284E3,1.0027379E4,2.1819802E3,1.2926749E3,5.120556E3,2.1344357E4,1.9131111E4,3.7710767E3,4.0928113E3],"tree_param":{"num_deleted":"0","num_feature":"161","num_nodes":"31","size_leaf_vector":"1"}},{"base_weights":[1.8448556E-2,-5.150619E-1,4.503919E-2,-5.238565E-1,-3.5109147E-1,-1.2669462E-1,7.498985E-2,-1.8691322E-1,-5.317156E-1,-5.292498E-1,1.034923E-1,1.4257176E-1,-2.979951E-1,9.865343E-2,-2.096422E-1,-1.9288938E-1,-1.8226819E-1,-1.9423428E-1,-6.233492E-2,2.5631014E-1,-1.4249584E-1,7.6613516E-2,-8.124573E-2,3.544821E-2,-1.3788661E-1,1.3165946E-1,2.6174827E-2,-3.0285599E-2,-1.7450142E-1],"categories":[],"categories_nodes":[],"categories_segments":[],"categories_sizes":[],"default_left":[0,0,0,0,0,0,0,0,0,0,0,0,0,0,0,0,0,0,0,0,0,0,0,0,0,0,0,0,0],"id":32,"left_children":[1,3,5,7,9,11,13,-1,15,17,19,21,23,25,27,-1,-1,-1,-1,-1,-1,-1,-1,-1,-1,-1,-1,-1,-1],"loss_changes":[5.7760776E3,2.769043E1,1.9948091E3,3.9501953E-1,7.9990776E1,2.6565713E3,2.2242808E3,0E0,4.3322754E-1,2.505478E0,8.4970894E1,5.7932733E2,1.1865923E3,2.1126008E3,8.7514966E2,0E0,0E0,0E0,0E0,0E0,0E0,0E0,0E0,0E0,0E0,0E0,0E0,0E0,0E0],"parents":[2147483647,0,0,1,1,2,2,3,3,4,4,5,5,6,6,8,8,9,9,10,10,11,11,12,12,13,13,14,14],"right_children":[2,4,6,8,10,12,14,-1,16,18,20,22,24,26,28,-1,-1,-1,-1,-1,-1,-1,-1,-1,-1,-1,-1,-1,-1],"split_conditions":[-3.067793E0,-3.318317E0,-5.00686E-1,-6.223592E0,-7.5629373E0,-3.1503758E-1,1.805935E0,-1.8691322E-1,-3.243989E0,-4.5237584E0,-2.7111447E0,3.0570567E-1,-2.323662E0,1.2115975E-1,3.6019711E0,-1.9288938E-1,-1.8226819E-1,-1.9423428E-1,-6.233492E-2,2.5631014E-1,-1.4249584E-1,7.6613516E-2,-8.124573E-2,3.544821E-2,-1.3788661E-1,1.3165946E-1,2.6174827E-2,-3.0285599E-2,-1.7450142E-1],"split_indices":[0,0,0,0,33,18,0,0,2,1,42,151,0,24,95,0,0,0,0,0,0,0,0,0,0,0,0,0,0],"split_type":[0,0,0,0,0,0,0,0,0,0,0,0,0,0,0,0,0,0,0,0,0,0,0,0,0,0,0,0,0],"sum_hessian":[4.0715388E5,1.932864E4,3.8782522E5,1.8342627E4,9.8601227E2,5.759255E4,3.3023266E5,1.1563319E4,6.7793076E3,7.082673E2,2.7774496E2,2.2393104E4,3.5199445E4,3.048859E5,2.5346775E4,5.8226074E3,9.567005E2,6.878751E2,2.0392124E1,1.2499551E2,1.5274947E2,1.8806277E4,3.5868262E3,6.2156743E3,2.8983771E4,2.6995748E4,2.7789016E5,1.740604E4,7.940738E3],"tree_param":{"num_deleted":"0","num_feature":"161","num_nodes":"29","size_leaf_vector":"1"}},{"base_weights":[3.5977274E-2,2.5968838E-2,4.7705954E-1,-5.9637264E-3,1.0113388E-1,4.914198E-1,2.901591E-1,-1.7599192E-2,3.1556693E-1,5.64463E-2,3.8199446E-1,3.1466007E-1,4.9763998E-1,3.7032792E-1,-2.5706702E-1,1.53343715E-2,-2.4110947E-2,2.0873003E-1,5.9575893E-2,-1.1997182E-3,9.896518E-2,3.0808443E-1,2.2864046E-2,1.5514576E-1,-2.1307856E-1,7.252638E-2,1.8030074E-1,6.6138595E-2,1.781303E-1,-2.800292E-1,1.6811915E-1],"categories":[],"categories_nodes":[],"categories_segments":[],"categories_sizes":[],"default_left":[0,0,1,0,0,0,0,0,0,0,0,0,0,0,0,0,0,0,0,0,0,0,0,0,0,0,0,0,0,0,0],"id":33,"left_children":[1,3,5,7,9,11,13,15,17,19,21,23,25,27,29,-1,-1,-1,-1,-1,-1,-1,-1,-1,-1,-1,-1,-1,-1,-1,-1],"loss_changes":[1.7749014E3,9.436226E2,2.379956E1,1.0322727E3,1.4712075E3,8.950195E0,2.8125587E1,7.914464E2,3.8204688E2,1.3206779E3,2.4279365E3,3.0226875E1,7.4696045E0,1.2863876E1,3.1372513E1,0E0,0E0,0E0,0E0,0E0,0E0,0E0,0E0,0E0,0E0,0E0,0E0,0E0,0E0,0E0,0E0],"parents":[2147483647,0,0,1,1,2,2,3,3,4,4,5,5,6,6,7,7,8,8,9,9,10,10,11,11,12,12,13,13,14,14],"right_children":[2,4,6,8,10,12,14,16,18,20,22,24,26,28,30,-1,-1,-1,-1,-1,-1,-1,-1,-1,-1,-1,-1,-1,-1,-1,-1],"split_conditions":[3.478447E0,2.4391224E0,1.06275E-3,2.5261023E0,1.227116E0,3.909108E0,1.3652733E2,4.623E-2,6.7223626E-1,-3.0325246E-1,5.8400744E-1,2.494183E0,-3.359372E-2,9.975182E0,4.0192458E-1,1.53343715E-2,-2.4110947E-2,2.0873003E-1,5.9575893E-2,-1.1997182E-3,9.896518E-2,3.0808443E-1,2.2864046E-2,1.5514576E-1,-2.1307856E-1,7.252638E-2,1.8030074E-1,6.6138595E-2,1.781303E-1,-2.800292E-1,1.6811915E-1],"split_indices":[0,127,65,158,0,0,0,0,125,3,106,137,160,95,115,0,0,0,0,0,0,0,0,0,0,0,0,0,0,0,0],"split_type":[0,0,0,0,0,0,0,0,0,0,0,0,0,0,0,0,0,0,0,0,0,0,0,0,0,0,0,0,0,0,0],"sum_hessian":[4.0205956E5,3.9314E5,8.919536E3,2.7592078E5,1.17219234E5,8.281602E3,6.3793524E2,2.6628547E5,9.63532E3,1.01129734E5,1.6089499E4,2.8327744E2,7.9983237E3,5.5670154E2,8.12337E1,1.1999623E5,1.4628923E5,3.4891719E3,6.1461484E3,7.940283E4,2.1726908E4,6.467039E3,9.62246E3,2.5153297E2,3.1744474E1,8.605441E1,7.9122695E3,2.2374867E2,3.3295282E2,4.7205967E1,3.4027733E1],"tree_param":{"num_deleted":"0","num_feature":"161","num_nodes":"31","size_leaf_vector":"1"}},{"base_weights":[-9.06468E-2,2.0501815E-2,-3.973433E-1,-3.4844622E-2,1.2792373E-1,-3.5896364E-1,-5.004244E-1,2.5389034E-2,-2.0079921E-1,2.9112425E-1,4.85365E-2,-4.353639E-1,-1.1659615E-1,-5.048648E-1,-3.935852E-1,5.3259302E-2,-2.4207324E-2,-1.1816599E-1,1.7104981E-2,-7.6331526E-2,1.424785E-1,6.463048E-2,-3.6618438E-2,-1.616879E-1,3.3417676E-2,-7.88249E-2,8.6294696E-2,-1.8326971E-1,-1.7031237E-1,2.160182E-2,-1.6870962E-1],"categories":[],"categories_nodes":[],"categories_segments":[],"categories_sizes":[],"default_left":[0,0,0,0,0,0,1,0,1,0,0,0,0,1,0,0,0,0,0,0,0,0,0,0,0,0,0,0,0,0,0],"id":34,"left_children":[1,3,5,7,9,11,13,15,17,19,21,23,25,27,29,-1,-1,-1,-1,-1,-1,-1,-1,-1,-1,-1,-1,-1,-1,-1,-1],"loss_changes":[6.9812534E3,8.937189E2,2.153418E2,9.9168396E2,6.622175E2,7.350718E2,6.812256E0,8.263368E2,8.360375E2,8.8083594E2,6.7684814E2,2.1956592E2,3.4713458E2,1.6601562E0,2.0256744E1,0E0,0E0,0E0,0E0,0E0,0E0,0E0,0E0,0E0,0E0,0E0,0E0,0E0,0E0,0E0,0E0],"parents":[2147483647,0,0,1,1,2,2,3,3,4,4,5,5,6,6,7,7,8,8,9,9,10,10,11,11,12,12,13,13,14,14],"right_children":[2,4,6,8,10,12,14,16,18,20,22,24,26,28,30,-1,-1,-1,-1,-1,-1,-1,-1,-1,-1,-1,-1,-1,-1,-1,-1],"split_conditions":[8.2581E-2,4.7426438E-1,1.099998E0,-6.30506E-1,1.4249632E-1,9.901875E-1,6.992475E-1,8.868228E-1,-1.390512E0,-6.223592E0,5.859879E0,1.3593291E-1,-6.231547E0,5.869075E-1,1.374149E0,5.3259302E-2,-2.4207324E-2,-1.1816599E-1,1.7104981E-2,-7.6331526E-2,1.424785E-1,6.463048E-2,-3.6618438E-2,-1.616879E-1,3.3417676E-2,-7.88249E-2,8.6294696E-2,-1.8326971E-1,-1.7031237E-1,2.160182E-2,-1.6870962E-1],"split_indices":[0,17,0,0,10,24,129,31,66,0,32,33,97,66,0,0,0,0,0,0,0,0,0,0,0,0,0,0,0,0,0],"split_type":[0,0,0,0,0,0,0,0,0,0,0,0,0,0,0,0,0,0,0,0,0,0,0,0,0,0,0,0,0,0,0],"sum_hessian":[2.0479431E5,1.5031881E5,5.4475492E4,9.920606E4,5.1112758E4,3.9699027E4,1.4776465E4,7.278823E4,2.6417834E4,1.6725855E4,3.43869E4,3.0183607E4,9.51542E3,1.4183259E4,5.9320575E2,3.1333191E4,4.1455035E4,1.7457795E4,8.960041E3,2.879609E3,1.3846248E4,1.8370875E4,1.6016025E4,2.9416902E4,7.667042E2,7.392132E3,2.1232883E3,1.2507983E4,1.675276E3,8.424721E1,5.0895856E2],"tree_param":{"num_deleted":"0","num_feature":"161","num_nodes":"31","size_leaf_vector":"1"}},{"base_weights":[1.10927615E-2,-5.0899327E-1,3.3465374E-2,-1.8680905E-1,-3.308812E-1,9.4002835E-2,-4.148327E-2,-5.035514E-1,1.5476507E-1,-4.788393E-2,1.7805445E-1,-1.0313317E-1,9.6369356E-2,-1.9282052E-1,-3.961317E-2,2.4130529E-1,-1.2592357E-1,-2.2128229E-1,-1.8118351E-3,1.8832345E-1,5.7889882E-2,2.3113398E-2,-6.262062E-2,-1.3183413E-1,5.730309E-2],"categories":[],"categories_nodes":[],"categories_segments":[],"categories_sizes":[],"default_left":[0,0,1,0,0,0,0,0,0,0,0,0,0,0,0,0,0,0,0,0,0,0,0,0,0],"id":35,"left_children":[1,3,5,-1,7,9,11,13,15,17,19,21,23,-1,-1,-1,-1,-1,-1,-1,-1,-1,-1,-1,-1],"loss_changes":[4.5275464E3,2.8185547E1,1.6926533E3,0E0,7.131099E1,2.4611504E3,1.4166445E3,7.8502655E0,5.8387653E1,1.8646249E3,7.713047E2,1.3648574E3,1.4965746E3,0E0,0E0,0E0,0E0,0E0,0E0,0E0,0E0,0E0,0E0,0E0,0E0],"parents":[2147483647,0,0,1,1,2,2,4,4,5,5,6,6,7,7,8,8,9,9,10,10,11,11,12,12],"right_children":[2,4,6,-1,8,10,12,14,16,18,20,22,24,-1,-1,-1,-1,-1,-1,-1,-1,-1,-1,-1,-1],"split_conditions":[-3.067793E0,-3.318317E0,-2.5221035E0,-1.8680905E-1,-6.7660675E0,-3.8770206E1,4.7745192E-1,-5.529715E0,-2.6357214E0,-1.141405E0,-2.1890686E0,1.222741E0,4.7844E-1,-1.9282052E-1,-3.961317E-2,2.4130529E-1,-1.2592357E-1,-2.2128229E-1,-1.8118351E-3,1.8832345E-1,5.7889882E-2,2.3113398E-2,-6.262062E-2,-1.3183413E-1,5.730309E-2],"split_indices":[0,0,66,0,33,65,102,65,105,0,45,160,0,0,0,0,0,0,0,0,0,0,0,0,0],"split_type":[0,0,0,0,0,0,0,0,0,0,0,0,0,0,0,0,0,0,0,0,0,0,0,0,0],"sum_hessian":[3.891063E5,1.6047011E4,3.730593E5,1.5198548E4,8.4846234E2,2.0637002E5,1.666893E5,6.258914E2,2.2257086E2,7.6772125E4,1.295979E5,1.15179445E5,5.1509848E4,5.7840546E2,4.7485973E1,1.0992568E2,1.1264519E2,5.3953057E3,7.137682E4,6.1685425E3,1.2342935E5,3.4248188E4,8.0931266E4,6.157089E3,4.5352758E4],"tree_param":{"num_deleted":"0","num_feature":"161","num_nodes":"25","size_leaf_vector":"1"}},{"base_weights":[3.1283394E-2,2.3320578E-2,4.7847795E-1,4.388289E-1,1.8989032E-2,4.929409E-1,2.9622224E-1,5.05636E-1,2.90951E-1,-6.0110606E-2,4.731463E-2,2.032997E-1,4.9853528E-1,3.8713562E-1,-1.922092E-1,1.852959E-1,1.4135674E-1,1.3398357E-1,-3.4690008E-2,-2.9934235E-2,1.2074326E-1,8.450223E-2,8.110588E-3,1.639438E-1,-1.5193352E-1,1.8045798E-1,1.3092808E-1,1.7594376E-1,6.767521E-2,-6.727924E-1,-2.172504E-3],"categories":[],"categories_nodes":[],"categories_segments":[],"categories_sizes":[],"default_left":[0,0,0,0,0,0,0,0,0,0,0,0,0,0,0,0,0,0,0,0,0,0,0,0,0,0,0,0,0,0,0],"id":36,"left_children":[1,3,5,7,9,11,13,15,17,19,21,23,25,27,29,-1,-1,-1,-1,-1,-1,-1,-1,-1,-1,-1,-1,-1,-1,-1,-1],"loss_changes":[1.4061042E3,6.982507E2,1.8063477E1,3.9396362E1,8.6029254E2,1.0266968E1,2.2738571E1,2.62323E0,3.929522E1,9.2260986E2,1.3132661E3,1.9572926E1,2.1342773E0,8.62114E0,2.5198668E1,0E0,0E0,0E0,0E0,0E0,0E0,0E0,0E0,0E0,0E0,0E0,0E0,0E0,0E0,0E0,0E0],"parents":[2147483647,0,0,1,1,2,2,3,3,4,4,5,5,6,6,7,7,8,8,9,9,10,10,11,11,12,12,13,13,14,14],"right_children":[2,4,6,8,10,12,14,16,18,20,22,24,26,28,30,-1,-1,-1,-1,-1,-1,-1,-1,-1,-1,-1,-1,-1,-1,-1,-1],"split_conditions":[3.909108E0,-2.9915962E1,6.22E-4,-3.7705986E1,-8.1667066E-1,-2.1351841E-1,1.3652733E2,-6.8042064E0,-8.34105E-1,1.052628E0,-3.8235588E1,-1.1603448E1,9.48E-4,9.049224E0,7.217E-3,1.852959E-1,1.4135674E-1,1.3398357E-1,-3.4690008E-2,-2.9934235E-2,1.2074326E-1,8.450223E-2,8.110588E-3,1.639438E-1,-1.5193352E-1,1.8045798E-1,1.3092808E-1,1.7594376E-1,6.767521E-2,-6.727924E-1,-2.172504E-3],"split_indices":[0,0,129,0,7,95,0,34,36,0,33,97,1,4,84,0,0,0,0,0,0,0,0,0,0,0,0,0,0,0,0],"split_type":[0,0,0,0,0,0,0,0,0,0,0,0,0,0,0,0,0,0,0,0,0,0,0,0,0,0,0,0,0,0,0],"sum_hessian":[3.948723E5,3.8796522E5,6.907117E3,4.0016558E3,3.8396356E5,6.39772E3,5.0939706E2,2.7547278E3,1.246928E3,1.0124219E5,2.8272138E5,1.21937225E2,6.2757827E3,4.2963504E2,7.976202E1,2.5466191E3,2.0810883E2,1.0307932E3,2.1613472E2,9.5669805E4,5.5723804E3,3.302137E4,2.497E5,8.709666E1,3.484057E1,6.1482793E3,1.2750359E2,2.8353427E2,1.4610078E2,7.068244E0,7.269377E1],"tree_param":{"num_deleted":"0","num_feature":"161","num_nodes":"31","size_leaf_vector":"1"}},{"base_weights":[-7.399593E-2,1.8998101E-2,-3.7580243E-1,-3.112714E-2,1.0533578E-1,-4.3422365E-1,-2.9142225E-1,2.0839304E-2,-1.8495269E-1,2.3668393E-1,3.588126E-2,-4.4813374E-1,2.5470912E-2,-8.2273684E-2,-4.7264785E-1,4.525597E-2,-2.2778574E-2,-1.1382692E-1,1.4666701E-2,-6.0217842E-2,1.15120895E-1,5.123595E-2,-3.4489486E-2,-1.3537188E-1,-1.7512737E-1,1.2213962E0,-1.0303639E-2,-6.647037E-2,9.566717E-2,-1.2851568E-1,-1.7860444E-1],"categories":[],"categories_nodes":[],"categories_segments":[],"categories_sizes":[],"default_left":[0,1,1,0,0,1,0,0,1,0,0,0,0,0,0,0,0,0,0,0,0,0,0,0,0,0,0,0,0,0,0],"id":37,"left_children":[1,3,5,7,9,11,13,15,17,19,21,23,25,27,29,-1,-1,-1,-1,-1,-1,-1,-1,-1,-1,-1,-1,-1,-1,-1,-1],"loss_changes":[5.4843105E3,6.4647314E2,2.2676953E2,7.554999E2,5.0055542E2,1.739082E2,7.13797E2,6.231806E2,7.0688336E2,6.371094E2,5.031081E2,7.276904E1,1.4575525E2,3.1156348E2,2.7218994E1,0E0,0E0,0E0,0E0,0E0,0E0,0E0,0E0,0E0,0E0,0E0,0E0,0E0,0E0,0E0,0E0],"parents":[2147483647,0,0,1,1,2,2,3,3,4,4,5,5,6,6,7,7,8,8,9,9,10,10,11,11,12,12,13,13,14,14],"right_children":[2,4,6,8,10,12,14,16,18,20,22,24,26,28,30,-1,-1,-1,-1,-1,-1,-1,-1,-1,-1,-1,-1,-1,-1,-1,-1],"split_conditions":[9.4192E-2,4.99565E-1,1.0083201E0,-6.30506E-1,1.5160775E-1,1.3593291E-1,9.86149E-1,8.9424956E-1,-1.5175437E0,-6.223592E0,6.165048E0,3.71102E-1,5.067483E-1,-6.3504767E0,1.150471E0,4.525597E-2,-2.2778574E-2,-1.1382692E-1,1.4666701E-2,-6.0217842E-2,1.15120895E-1,5.123595E-2,-3.4489486E-2,-1.3537188E-1,-1.7512737E-1,1.2213962E0,-1.0303639E-2,-6.647037E-2,9.566717E-2,-1.2851568E-1,-1.7860444E-1],"split_indices":[0,146,153,0,138,33,0,95,130,0,96,0,64,129,0,0,0,0,0,0,0,0,0,0,0,0,0,0,0,0,0],"split_type":[0,0,0,0,0,0,0,0,0,0,0,0,0,0,0,0,0,0,0,0,0,0,0,0,0,0,0,0,0,0,0],"sum_hessian":[1.9540495E5,1.4937864E5,4.6026312E4,9.450963E4,5.4869008E4,2.7194125E4,1.8832188E4,7.064477E4,2.3864857E4,1.8977504E4,3.5891504E4,2.639544E4,7.986857E2,8.743248E3,1.008894E4,3.1442262E4,3.9202516E4,1.5090081E4,8.774775E3,3.2375935E3,1.573991E4,1.98482E4,1.6043307E4,9.165662E3,1.7229777E4,1.1651392E1,7.8703436E2,6.7563794E3,1.9868687E3,1.7049863E3,8.383954E3],"tree_param":{"num_deleted":"0","num_feature":"161","num_nodes":"31","size_leaf_vector":"1"}},{"base_weights":[5.422659E-3,-5.0377E-1,2.4110537E-2,-5.1459485E-1,-3.1675488E-1,1.5351121E-1,-3.9362586E-3,-1.8580364E-1,-4.828823E-1,-4.9885884E-1,1.406842E-1,1.10270746E-1,5.7004374E-1,-2.1380395E-1,2.56267E-2,-1.8843053E-1,-7.36529E-2,-1.8714555E-1,-5.302896E-2,2.2768277E-1,-1.19046085E-1,-2.1149284E-1,6.496625E-2,2.3940438E-1,6.6002407E-3,-1.2194136E-1,3.533686E-5,8.305665E-2,-6.0823993E-3],"categories":[],"categories_nodes":[],"categories_segments":[],"categories_sizes":[],"default_left":[0,0,0,0,0,0,0,0,0,0,0,0,0,0,0,0,0,0,0,0,0,0,0,0,0,0,0,0,0],"id":38,"left_children":[1,3,5,7,9,11,13,-1,15,17,19,21,23,25,27,-1,-1,-1,-1,-1,-1,-1,-1,-1,-1,-1,-1,-1,-1],"loss_changes":[3.5762495E3,2.6771729E1,1.3156847E3,3.59375E-1,6.0928726E1,1.1630421E3,1.8485404E3,0E0,6.582367E0,3.7810516E0,4.8611225E1,2.8654463E3,3.1818677E2,9.8300964E2,2.277482E3,0E0,0E0,0E0,0E0,0E0,0E0,0E0,0E0,0E0,0E0,0E0,0E0,0E0,0E0],"parents":[2147483647,0,0,1,1,2,2,3,3,4,4,5,5,6,6,8,8,9,9,10,10,11,11,12,12,13,13,14,14],"right_children":[2,4,6,8,10,12,14,-1,16,18,20,22,24,26,28,-1,-1,-1,-1,-1,-1,-1,-1,-1,-1,-1,-1,-1,-1],"split_conditions":[-3.067793E0,-3.318317E0,-2.2863028E0,-3.579184E0,-6.994755E0,-3.1547997E0,-3.8235588E1,-1.8580364E-1,-6.7660675E0,-5.2202325E0,-2.4982185E0,-1.141405E0,4.7211075E-1,1.101152E0,-7.185197E0,-1.8843053E-1,-7.36529E-2,-1.8714555E-1,-5.302896E-2,2.2768277E-1,-1.19046085E-1,-2.1149284E-1,6.496625E-2,2.3940438E-1,6.6002407E-3,-1.2194136E-1,3.533686E-5,8.305665E-2,-6.0823993E-3],"split_indices":[0,0,6,0,129,2,33,0,33,1,42,0,23,29,34,0,0,0,0,0,0,0,0,0,0,0,0,0,0],"split_type":[0,0,0,0,0,0,0,0,0,0,0,0,0,0,0,0,0,0,0,0,0,0,0,0,0,0,0,0,0],"sum_hessian":[3.7582275E5,1.3303854E4,3.625189E5,1.2574271E4,7.295819E2,6.4576258E4,2.9794266E5,1.1982275E4,5.9199646E2,5.2177545E2,2.0780647E2,5.8504176E4,6.072084E3,3.6786777E4,2.6115586E5,5.159608E2,7.603563E1,4.919261E2,2.9849396E1,1.0153521E2,1.0627126E2,5.3466953E3,5.315748E4,5.180189E3,8.918954E2,2.3223389E4,1.356339E4,4.4848016E4,2.1630784E5],"tree_param":{"num_deleted":"0","num_feature":"161","num_nodes":"29","size_leaf_vector":"1"}},{"base_weights":[2.6898997E-2,2.0494645E-2,4.6805754E-1,-9.778756E-2,3.4748767E-2,4.8886412E-1,2.1828772E-1,6.3048357E-1,-1.1731275E-1,1.0321243E-1,-7.1853288E-3,2.0152445E-1,4.950519E-1,3.2098866E-1,-3.153074E-1,1.847416E-1,1.2027987E0,1.6400374E-1,-5.000726E-2,2.4155367E-2,1.2402021E-1,-2.0061793E-2,4.1244138E-2,1.5888685E-1,-1.2616333E-1,1.7958947E-1,1.1659354E-1,1.782253E-2,1.723481E-1,-9.744634E-1,-3.919996E-2],"categories":[],"categories_nodes":[],"categories_segments":[],"categories_sizes":[],"default_left":[0,0,0,0,0,0,0,0,0,0,1,0,0,0,0,0,0,0,0,0,0,0,0,0,0,0,0,0,0,0,0],"id":39,"left_children":[1,3,5,7,9,11,13,15,17,19,21,23,25,27,29,-1,-1,-1,-1,-1,-1,-1,-1,-1,-1,-1,-1,-1,-1,-1,-1],"loss_changes":[1.1061921E3,6.506814E2,2.9008667E1,5.9027905E2,9.888251E2,9.093994E0,2.3809303E1,3.4295502E2,5.001845E2,1.1399978E3,1.2623788E3,1.4808092E1,3.137329E0,1.5535313E1,3.442507E1,0E0,0E0,0E0,0E0,0E0,0E0,0E0,0E0,0E0,0E0,0E0,0E0,0E0,0E0,0E0,0E0],"parents":[2147483647,0,0,1,1,2,2,3,3,4,4,5,5,6,6,7,7,8,8,9,9,10,10,11,11,12,12,13,13,14,14],"right_children":[2,4,6,8,10,12,14,16,18,20,22,24,26,28,30,-1,-1,-1,-1,-1,-1,-1,-1,-1,-1,-1,-1,-1,-1,-1,-1],"split_conditions":[3.909108E0,1.2013983E-1,9.48E-4,-2.4315468E1,1.9574E-2,-2.1351841E-1,1.3652733E2,7.672594E-2,-2.403642E-1,-3.46765E-2,-6.7055755E0,-1.0408506E1,6.22E-4,9.881207E0,1.1881666E-2,1.847416E-1,1.2027987E0,1.6400374E-1,-5.000726E-2,2.4155367E-2,1.2402021E-1,-2.0061793E-2,4.1244138E-2,1.5888685E-1,-1.2616333E-1,1.7958947E-1,1.1659354E-1,1.782253E-2,1.723481E-1,-9.744634E-1,-3.919996E-2],"split_indices":[0,121,1,7,0,95,0,76,96,132,97,1,129,31,83,0,0,0,0,0,0,0,0,0,0,0,0,0,0,0,0],"split_type":[0,0,0,0,0,0,0,0,0,0,0,0,0,0,0,0,0,0,0,0,0,0,0,0,0,0,0,0,0,0,0],"sum_hessian":[3.915285E5,3.85927E5,5.6015015E3,4.150535E4,3.4442166E5,5.169878E3,4.316237E2,1.0829005E3,4.042245E4,1.3082646E5,2.1359519E5,1.0969229E2,5.0601855E3,3.622919E2,6.93318E1,1.039118E3,4.3782448E1,1.4677512E3,3.89547E4,1.13795664E5,1.70308E4,1.5271089E5,6.0884285E4,7.660761E1,3.3084675E1,4.948204E3,1.11981735E2,1.3363455E2,2.2865733E2,4.5462523E0,6.478555E1],"tree_param":{"num_deleted":"0","num_feature":"161","num_nodes":"31","size_leaf_vector":"1"}},{"base_weights":[-6.3089505E-2,1.27672525E-2,-3.62824E-1,-9.180523E-2,5.1172625E-2,-4.281641E-1,-2.7136266E-1,3.2744266E-2,-2.3204225E-1,7.373356E-3,1.446624E-1,-4.4332498E-1,5.7920296E-2,9.624717E-2,-3.826051E-1,4.6069548E-2,-6.106631E-2,-1.482655E-1,-4.0666092E-2,2.9183345E-2,-2.6270943E-2,6.538155E-2,-9.177138E-2,-1.3268627E-1,-1.7192048E-1,1.230492E-1,-1.10880665E-1,4.2809126E-1,-1.3944126E-2,-8.2916625E-2,-1.7515971E-1],"categories":[],"categories_nodes":[],"categories_segments":[],"categories_sizes":[],"default_left":[0,1,1,0,0,1,0,0,1,0,0,0,0,0,0,0,0,0,0,0,0,0,0,0,0,0,0,0,0,0,0],"id":40,"left_children":[1,3,5,7,9,11,13,15,17,19,21,23,25,27,29,-1,-1,-1,-1,-1,-1,-1,-1,-1,-1,-1,-1,-1,-1,-1,-1],"loss_changes":[4.267759E3,6.0159644E2,2.2643457E2,7.0279553E2,4.486148E2,1.6296948E2,6.461522E2,4.1071283E2,4.0519653E2,4.417508E2,5.161424E2,5.4691895E1,6.966811E1,5.41631E2,1.918938E2,0E0,0E0,0E0,0E0,0E0,0E0,0E0,0E0,0E0,0E0,0E0,0E0,0E0,0E0,0E0,0E0],"parents":[2147483647,0,0,1,1,2,2,3,3,4,4,5,5,6,6,7,7,8,8,9,9,10,10,11,11,12,12,13,13,14,14],"right_children":[2,4,6,8,10,12,14,16,18,20,22,24,26,28,30,-1,-1,-1,-1,-1,-1,-1,-1,-1,-1,-1,-1,-1,-1,-1,-1],"split_conditions":[1.47707E-1,2.9970583E-1,9.709128E-1,-1.244102E0,-1.1443033E1,1.409051E-1,5.60917E-1,3.01895E-1,-1.731028E-1,-8.761619E-1,-1.2403925E-1,3.71102E-1,5.1859444E-1,-5.153747E1,1.099998E0,4.6069548E-2,-6.106631E-2,-1.482655E-1,-4.0666092E-2,2.9183345E-2,-2.6270943E-2,6.538155E-2,-9.177138E-2,-1.3268627E-1,-1.7192048E-1,1.230492E-1,-1.10880665E-1,4.2809126E-1,-1.3944126E-2,-8.2916625E-2,-1.7515971E-1],"split_indices":[0,89,120,0,65,97,0,124,86,134,66,0,4,129,0,0,0,0,0,0,0,0,0,0,0,0,0,0,0,0,0],"split_type":[0,0,0,0,0,0,0,0,0,0,0,0,0,0,0,0,0,0,0,0,0,0,0,0,0,0,0,0,0,0,0],"sum_hessian":[1.877008E5,1.4979233E5,3.790846E4,4.0235438E4,1.0955689E5,2.210963E4,1.5798831E4,2.131002E4,1.892542E4,7.4605734E4,3.4951156E4,2.1440979E4,6.6865204E2,3.6702668E3,1.2128564E4,1.4491435E4,6.8185854E3,7.539176E3,1.1386244E4,3.891488E4,3.569086E4,3.1993021E4,2.9581357E3,6.738321E3,1.4702658E4,3.7657242E2,2.920796E2,4.026152E2,3.2676516E3,4.921712E3,7.2068525E3],"tree_param":{"num_deleted":"0","num_feature":"161","num_nodes":"31","size_leaf_vector":"1"}},{"base_weights":[3.6090862E-3,-5.001571E-1,1.9236146E-2,-5.116076E-1,-3.1049168E-1,-9.1021396E-2,5.296303E-2,-1.8485051E-1,-4.7392225E-1,-4.93307E-1,1.369558E-1,2.072784E-1,-2.138207E-1,2.2940916E-1,2.8633963E-2,-1.8519366E-1,-4.6257846E-2,-1.8885101E-1,-5.1824756E-2,2.1832287E-1,-1.16990775E-1,-6.3176244E-2,9.89161E-2,5.8511607E-2,-9.633294E-2,1.12308376E-1,-8.790497E-2,9.056301E-2,1.7470407E-3],"categories":[],"categories_nodes":[],"categories_segments":[],"categories_sizes":[],"default_left":[0,0,0,0,0,0,0,0,0,0,0,0,0,0,0,0,0,0,0,0,0,0,0,0,0,0,0,0,0],"id":41,"left_children":[1,3,5,7,9,11,13,-1,15,17,19,21,23,25,27,-1,-1,-1,-1,-1,-1,-1,-1,-1,-1,-1,-1,-1,-1],"loss_changes":[2.8860996E3,2.3796143E1,1.3222805E3,4.880371E-1,5.164666E1,3.0510916E3,1.1688705E3,0E0,6.981247E0,4.8185043E0,4.0032867E1,6.275084E2,1.1940701E3,1.2901332E3,1.2686296E3,0E0,0E0,0E0,0E0,0E0,0E0,0E0,0E0,0E0,0E0,0E0,0E0,0E0,0E0],"parents":[2147483647,0,0,1,1,2,2,3,3,4,4,5,5,6,6,8,8,9,9,10,10,11,11,12,12,13,13,14,14],"right_children":[2,4,6,8,10,12,14,-1,16,18,20,22,24,26,28,-1,-1,-1,-1,-1,-1,-1,-1,-1,-1,-1,-1,-1,-1],"split_conditions":[-3.067793E0,-3.318317E0,-1.94675E-1,-3.579184E0,-6.8235235E0,-1.1528963E-1,-1.7328837E0,-1.8485051E-1,-6.1174545E0,-5.5112643E0,-2.63121E0,-1.363438E0,-2.323662E0,1.099998E0,7.96913E-1,-1.8519366E-1,-4.6257846E-2,-1.8885101E-1,-5.1824756E-2,2.1832287E-1,-1.16990775E-1,-6.3176244E-2,9.89161E-2,5.8511607E-2,-9.633294E-2,1.12308376E-1,-8.790497E-2,9.056301E-2,1.7470407E-3],"split_indices":[0,0,0,0,97,118,7,0,129,1,41,0,0,0,32,0,0,0,0,0,0,0,0,0,0,0,0,0,0],"split_type":[0,0,0,0,0,0,0,0,0,0,0,0,0,0,0,0,0,0,0,0,0,0,0,0,0,0,0,0,0],"sum_hessian":[3.666084E5,1.1029267E4,3.5557912E5,1.0399717E4,6.295495E2,8.329038E4,2.7228875E5,9.897025E3,5.0269122E2,4.4686838E2,1.8268117E2,2.4288621E4,5.9001766E4,3.2993746E4,2.39295E5,4.494947E2,5.3196526E1,4.0968536E2,3.718301E1,9.044341E1,9.223775E1,3.6403584E3,2.0648262E4,7.3756963E3,5.1626066E4,2.8096213E4,4.8975327E3,2.3065303E4,2.1622969E5],"tree_param":{"num_deleted":"0","num_feature":"161","num_nodes":"29","size_leaf_vector":"1"}},{"base_weights":[2.4016175E-2,1.8863719E-2,4.584841E-1,3.51237E-2,-7.253121E-2,4.82982E-1,1.9185519E-1,2.7514233E-3,2.3269503E-1,1.8698312E-1,-1.264194E-1,1.252708E-1,4.911133E-1,-9.5525837E-1,2.3419741E-1,-9.170944E-3,5.1131357E-2,2.4299558E-1,3.8153715E-2,-2.4154916E-2,1.4237268E-1,-7.112739E-2,4.005723E-2,-1.429906E-1,1.6328491E-1,1.8071587E-1,1.5384942E-1,2.0222767E-1,-8.222249E-1,1.8058486E-2,1.609298E-1],"categories":[],"categories_nodes":[],"categories_segments":[],"categories_sizes":[],"default_left":[0,1,1,0,0,0,0,0,0,0,0,0,1,0,0,0,0,0,0,0,0,0,0,0,0,0,0,0,0,0,0],"id":42,"left_children":[1,3,5,7,9,11,13,15,17,19,21,23,25,27,29,-1,-1,-1,-1,-1,-1,-1,-1,-1,-1,-1,-1,-1,-1,-1,-1],"loss_changes":[8.614943E2,5.6521014E2,2.9368774E1,2.0651519E3,8.0338214E2,1.1951843E1,1.8739319E1,1.0906946E3,2.5475557E3,5.2330493E2,8.045561E2,1.6156265E1,2.585205E0,2.9032305E1,1.4408571E1,0E0,0E0,0E0,0E0,0E0,0E0,0E0,0E0,0E0,0E0,0E0,0E0,0E0,0E0,0E0,0E0],"parents":[2147483647,0,0,1,1,2,2,3,3,4,4,5,5,6,6,7,7,8,8,9,9,10,10,11,11,12,12,13,13,14,14],"right_children":[2,4,6,8,10,12,14,16,18,20,22,24,26,28,30,-1,-1,-1,-1,-1,-1,-1,-1,-1,-1,-1,-1,-1,-1,-1,-1],"split_conditions":[3.909108E0,4.9963433E-1,1.06275E-3,8.88033E-1,4.41032E-1,-2.1582855E-1,1.4095017E-1,3.3933446E-1,2.729885E-1,-9.91352E-1,-1.7419157E0,-1.8693376E0,-2.1598944E-1,1.9845094E-1,1.0034965E1,-9.170944E-3,5.1131357E-2,2.4299558E-1,3.8153715E-2,-2.4154916E-2,1.4237268E-1,-7.112739E-2,4.005723E-2,-1.429906E-1,1.6328491E-1,1.8071587E-1,1.5384942E-1,2.0222767E-1,-8.222249E-1,1.8058486E-2,1.609298E-1],"split_indices":[0,134,65,0,0,63,77,8,111,0,97,35,65,88,29,0,0,0,0,0,0,0,0,0,0,0,0,0,0,0,0],"split_type":[0,0,0,0,0,0,0,0,0,0,0,0,0,0,0,0,0,0,0,0,0,0,0,0,0,0,0,0,0,0,0],"sum_hessian":[3.84843E5,3.803336E5,4.5094214E3,3.2288928E5,5.7444293E4,4.129217E3,3.8020428E2,2.7743266E5,4.545663E4,9.876869E3,4.7567426E4,9.214155E1,4.0370754E3,1.2766994E1,3.674373E2,2.3068355E5,4.6749113E4,1.0121832E4,3.5334797E4,4.4520938E3,5.424776E3,3.6608246E4,1.095918E4,3.5475147E1,5.6666405E1,3.4429065E3,5.941688E2,6.2306104E0,6.5363846E0,1.9771118E2,1.6972612E2],"tree_param":{"num_deleted":"0","num_feature":"161","num_nodes":"31","size_leaf_vector":"1"}},{"base_weights":[-5.1313974E-2,1.1478378E-2,-3.416797E-1,-9.181802E-3,1.9114503E-1,-3.820799E-1,-1.7682415E-1,2.883759E-2,-1.1085369E-1,2.9055265E-1,-1.4492583E-1,-2.731181E-1,-4.4093588E-1,-2.9719882E-2,-4.3344393E-1,2.9665405E-2,-1.708708E-2,-1.414885E-1,-1.4512916E-2,1.4966294E-1,1.454268E-2,-2.1690954E-2,-1.6143456E-1,-1.6328858E-1,-1.3210473E-2,-1.4770325E-1,-1.8046667E-1,-9.231499E-2,8.427101E-2,-1.2583971E-1,-1.7591159E-1],"categories":[],"categories_nodes":[],"categories_segments":[],"categories_sizes":[],"default_left":[0,1,0,0,0,0,0,0,1,0,0,0,0,0,0,0,0,0,0,0,0,0,0,0,0,0,0,0,0,0,0],"id":43,"left_children":[1,3,5,7,9,11,13,15,17,19,21,23,25,27,29,-1,-1,-1,-1,-1,-1,-1,-1,-1,-1,-1,-1,-1,-1,-1,-1],"loss_changes":[3.2980266E3,5.520566E2,2.1413574E2,5.1560925E2,5.124636E2,1.6553198E2,2.3902724E2,3.9680524E2,7.225823E2,3.7065704E2,8.996876E1,3.8660345E2,3.0818604E1,2.4084717E2,1.0512909E1,0E0,0E0,0E0,0E0,0E0,0E0,0E0,0E0,0E0,0E0,0E0,0E0,0E0,0E0,0E0,0E0],"parents":[2147483647,0,0,1,1,2,2,3,3,4,4,5,5,6,6,7,7,8,8,9,9,10,10,11,11,12,12,13,13,14,14],"right_children":[2,4,6,8,10,12,14,16,18,20,22,24,26,28,30,-1,-1,-1,-1,-1,-1,-1,-1,-1,-1,-1,-1,-1,-1,-1,-1],"split_conditions":[1.67982E-1,1.1072003E0,7.0365E-2,-6.6789E-1,3.2967823E0,4.56109E-1,1.076403E0,1.5995984E0,1.6113956E-1,0E0,-4.19509E-1,6.509821E-1,1.099998E0,9.737055E-1,1.374149E0,2.9665405E-2,-1.708708E-2,-1.414885E-1,-1.4512916E-2,1.4966294E-1,1.454268E-2,-2.1690954E-2,-1.6143456E-1,-1.6328858E-1,-1.3210473E-2,-1.4770325E-1,-1.8046667E-1,-9.231499E-2,8.427101E-2,-1.2583971E-1,-1.7591159E-1],"split_indices":[0,115,2,0,63,0,0,63,121,36,0,24,0,22,0,0,0,0,0,0,0,0,0,0,0,0,0,0,0,0,0],"split_type":[0,0,0,0,0,0,0,0,0,0,0,0,0,0,0,0,0,0,0,0,0,0,0,0,0,0,0,0,0,0,0],"sum_hessian":[1.8088358E5,1.4872283E5,3.2160742E4,1.3338555E5,1.5337286E4,2.5829531E4,6.3312124E3,9.708288E4,3.6302656E4,1.1836315E4,3.500971E3,9.060746E3,1.6768785E4,4.025028E3,2.3061843E3,5.703932E4,4.0043562E4,7.259415E3,2.9043242E4,7.8883423E3,3.9479731E3,2.7382393E3,7.627315E2,5.137995E3,3.9227515E3,1.1126767E4,5.6420176E3,2.1647258E3,1.8603022E3,9.1815344E2,1.3880308E3],"tree_param":{"num_deleted":"0","num_feature":"161","num_nodes":"31","size_leaf_vector":"1"}},{"base_weights":[-1.3430716E-3,-4.9574217E-1,1.1541349E-2,-5.08717E-1,-2.9020688E-1,1.601543E-1,-5.4585747E-3,-1.8392444E-1,-4.65468E-1,-5.124534E-1,8.282815E-2,-3.1061086E-1,1.9484535E-1,-1.7413186E-1,3.9473336E-2,-1.8478827E-1,-6.725599E-2,-1.8794388E-1,-1.0110936E-1,2.1887203E-1,-1.9439544E-1,1.5753312E-1,-2.1727456E-1,8.617233E-2,-9.371623E-2,-1.4687201E-1,-3.8033318E-2,6.9880396E-2,3.6001995E-3],"categories":[],"categories_nodes":[],"categories_segments":[],"categories_sizes":[],"default_left":[0,0,1,0,0,0,0,0,0,0,0,0,0,0,0,0,0,0,0,0,0,0,0,0,0,0,0,0,0],"id":44,"left_children":[1,3,5,7,9,11,13,-1,15,17,19,21,23,25,27,-1,-1,-1,-1,-1,-1,-1,-1,-1,-1,-1,-1,-1,-1],"loss_changes":[2.2566245E3,2.3847168E1,8.722638E2,5.617676E-1,4.4529457E1,5.7884753E2,2.3480652E3,0E0,5.47628E0,6.022949E-1,6.6134346E1,5.3345447E2,6.689829E2,1.0436417E3,1.11502E3,0E0,0E0,0E0,0E0,0E0,0E0,0E0,0E0,0E0,0E0,0E0,0E0,0E0,0E0],"parents":[2147483647,0,0,1,1,2,2,3,3,4,4,5,5,6,6,8,8,9,9,10,10,11,11,12,12,13,13,14,14],"right_children":[2,4,6,8,10,12,14,-1,16,18,20,22,24,26,28,-1,-1,-1,-1,-1,-1,-1,-1,-1,-1,-1,-1,-1,-1],"split_conditions":[-3.067793E0,-3.318317E0,2.8078875E-2,-3.579184E0,-3.1547997E0,-1.808297E0,-7.4189E-2,-1.8392444E-1,-6.994755E0,-3.243989E0,-2.6765904E0,-1.9212196E0,3.47368E-1,8.460309E-1,-2.9238095E0,-1.8478827E-1,-6.725599E-2,-1.8794388E-1,-1.0110936E-1,2.1887203E-1,-1.9439544E-1,1.5753312E-1,-2.1727456E-1,8.617233E-2,-9.371623E-2,-1.4687201E-1,-3.8033318E-2,6.9880396E-2,3.6001995E-3],"split_indices":[0,0,151,0,2,0,0,0,129,2,3,149,0,159,5,0,0,0,0,0,0,0,0,0,0,0,0,0,0],"split_type":[0,0,0,0,0,0,0,0,0,0,0,0,0,0,0,0,0,0,0,0,0,0,0,0,0,0,0,0,0],"sum_hessian":[3.5425372E5,8.996687E3,3.4525703E5,8.461089E3,5.355975E2,3.5439273E4,3.0981775E5,8.0440215E3,4.170679E2,3.3539963E2,2.0019785E2,2.4317627E3,3.300751E4,6.516964E4,2.4464811E5,3.5524408E2,6.1823814E1,3.2082852E2,1.4571118E1,1.08628E2,9.1569855E1,6.840537E2,1.747709E3,3.0066986E4,2.9405237E3,1.4761112E4,5.040853E4,3.916263E4,2.0548547E5],"tree_param":{"num_deleted":"0","num_feature":"161","num_nodes":"29","size_leaf_vector":"1"}},{"base_weights":[2.2244126E-2,1.8125283E-2,4.4814834E-1,-5.561631E-3,7.50256E-2,4.76991E-1,1.5561225E-1,-2.2322E-2,1.521607E-1,3.9695792E-2,2.9276446E-1,9.648831E-2,4.8655105E-1,4.589177E-1,-4.5875773E-2,-1.8273259E-3,-7.501279E-2,2.1727916E-2,1.0779718E-1,6.283248E-2,-2.9183812E-3,2.330802E-1,1.9210374E-2,-1.6806431E-1,1.6334017E-1,1.8023069E-1,1.4303611E-1,1.7306326E-1,-1.3493407E-2,-2.8752577E0,6.879611E-2],"categories":[],"categories_nodes":[],